{"learner":{"attributes":{"niter":"280"},"feature_names":[],"feature_types":[],"gradient_booster":{"model":{"gbtree_model_param":{"num_parallel_tree":"1","num_trees":"281","size_leaf_vector":"0"},"tree_info":[0,0,0,0,0,0,0,0,0,0,0,0,0,0,0,0,0,0,0,0,0,0,0,0,0,0,0,0,0,0,0,0,0,0,0,0,0,0,0,0,0,0,0,0,0,0,0,0,0,0,0,0,0,0,0,0,0,0,0,0,0,0,0,0,0,0,0,0,0,0,0,0,0,0,0,0,0,0,0,0,0,0,0,0,0,0,0,0,0,0,0,0,0,0,0,0,0,0,0,0,0,0,0,0,0,0,0,0,0,0,0,0,0,0,0,0,0,0,0,0,0,0,0,0,0,0,0,0,0,0,0,0,0,0,0,0,0,0,0,0,0,0,0,0,0,0,0,0,0,0,0,0,0,0,0,0,0,0,0,0,0,0,0,0,0,0,0,0,0,0,0,0,0,0,0,0,0,0,0,0,0,0,0,0,0,0,0,0,0,0,0,0,0,0,0,0,0,0,0,0,0,0,0,0,0,0,0,0,0,0,0,0,0,0,0,0,0,0,0,0,0,0,0,0,0,0,0,0,0,0,0,0,0,0,0,0,0,0,0,0,0,0,0,0,0,0,0,0,0,0,0,0,0,0,0,0,0,0,0,0,0,0,0,0,0,0,0,0,0,0,0,0,0,0,0,0,0,0,0,0,0],"trees":[{"base_weights":[4.394094E-3,-9.6020144E-1,7.88154E-1,-1.6768792E0,2.7602598E-2,-1.972445E-1,1.7127106E0,-1.8622199E0,-1.1327645E0,-3.7865797E-1,1.2243288E0,-7.434431E-1,1.0222963E0,1.0268084E0,1.8058631E0],"categories":[],"categories_nodes":[],"categories_segments":[],"categories_sizes":[],"default_left":[1,1,1,1,1,1,1,0,0,0,0,0,0,0,0],"id":0,"left_children":[1,3,5,7,9,11,13,-1,-1,-1,-1,-1,-1,-1,-1],"loss_changes":[7.445538E2,3.152503E2,5.001044E2,1.4569031E1,9.358715E1,1.7790555E2,7.713745E0,0E0,0E0,0E0,0E0,0E0,0E0,0E0,0E0],"parents":[2147483647,0,0,1,1,2,2,3,3,4,4,5,5,6,6],"right_children":[2,4,6,8,10,12,14,-1,-1,-1,-1,-1,-1,-1,-1],"split_conditions":[1.0147651E2,1.2345793E1,1.0061722E1,5E-1,5E-1,5E-1,1.156678E1,-5.0683874E-1,-3.083035E-1,-1.03059E-1,3.3322448E-1,-2.0234224E-1,2.782375E-1,2.7946553E-1,4.9150017E-1],"split_indices":[11,12,12,10,10,9,12,0,0,0,0,0,0,0,0],"split_type":[0,0,0,0,0,0,0,0,0,0,0,0,0,0,0],"sum_hessian":[9.8013885E2,4.38E2,5.4213885E2,2.5394444E2,1.8405556E2,2.623889E2,2.7975E2,1.8208333E2,7.1861115E1,1.375E2,4.6555553E1,1.8302777E2,7.936111E1,3.9666668E1,2.4008333E2],"tree_param":{"num_deleted":"0","num_feature":"14","num_nodes":"15","size_leaf_vector":"0"}},{"base_weights":[2.272133E-2,-9.875067E-1,5.054721E-1,-1.3243679E0,-4.952701E-2,-8.938707E-1,9.5003337E-1,-1.5642521E0,-7.1056396E-1,-4.854139E-1,9.2217755E-1,-1.3381041E0,-0E0,2.9736573E-1,1.2625009E0],"categories":[],"categories_nodes":[],"categories_segments":[],"categories_sizes":[],"default_left":[1,1,1,1,1,1,1,0,0,0,0,0,0,0,0],"id":1,"left_children":[1,3,5,7,9,11,13,-1,-1,-1,-1,-1,-1,-1,-1],"loss_changes":[4.64577E2,9.425418E1,4.048714E2,2.573703E1,3.6479588E1,5.9653236E1,9.660321E1,0E0,0E0,0E0,0E0,0E0,0E0,0E0,0E0],"parents":[2147483647,0,0,1,1,2,2,3,3,4,4,5,5,6,6],"right_children":[2,4,6,8,10,12,14,-1,-1,-1,-1,-1,-1,-1,-1],"split_conditions":[7.69361E1,1.4990741E1,5.245885E0,5E-1,5E-1,1.6382458E2,1.0298395E1,-4.257411E-1,-1.9339356E-1,-1.3211468E-1,2.5098825E-1,-3.641906E-1,-0E0,8.0933765E-2,3.4361374E-1],"split_indices":[11,12,12,9,9,11,12,0,0,0,0,0,0,0,0],"split_type":[0,0,0,0,0,0,0,0,0,0,0,0,0,0,0],"sum_hessian":[9.493374E2,3.0478278E2,6.445546E2,2.2193015E2,8.285263E1,1.5371059E2,4.9084406E2,1.544064E2,6.752374E1,5.947743E1,2.33752E1,1.0048236E2,5.322822E1,1.6257053E2,3.2827353E2],"tree_param":{"num_deleted":"0","num_feature":"14","num_nodes":"15","size_leaf_vector":"0"}},{"base_weights":[-5.2217892E-3,-5.40325E-1,6.417645E-1,-1.0564774E0,2.1269247E-1,-4.6882433E-1,1.030231E0,-1.2912167E0,-4.042066E-1,-8.187237E-1,6.485447E-1,-8.5955703E-1,4.592772E-1,5.759345E-1,1.2612026E0],"categories":[],"categories_nodes":[],"categories_segments":[],"categories_sizes":[],"default_left":[1,1,1,1,1,1,1,0,0,0,0,0,0,0,0],"id":2,"left_children":[1,3,5,7,9,11,13,-1,-1,-1,-1,-1,-1,-1,-1],"loss_changes":[3.10682E2,1.9389555E2,1.770026E2,4.043399E1,9.14575E1,4.0013184E1,2.622293E1,0E0,0E0,0E0,0E0,0E0,0E0,0E0,0E0],"parents":[2147483647,0,0,1,1,2,2,3,3,4,4,5,5,6,6],"right_children":[2,4,6,8,10,12,14,-1,-1,-1,-1,-1,-1,-1,-1],"split_conditions":[1.1867134E2,1.3040579E1,5.1592817E0,5E-1,4.2387764E1,5E-1,1.0002769E1,-3.514293E-1,-1.1001255E-1,-2.228313E-1,1.7651385E-1,-2.3394488E-1,1.2500107E-1,1.5675159E-1,3.4326038E-1],"split_indices":[11,12,12,10,11,10,12,0,0,0,0,0,0,0,0],"split_type":[0,0,0,0,0,0,0,0,0,0,0,0,0,0,0],"sum_hessian":[8.928155E2,4.905497E2,4.022658E2,2.9197888E2,1.9857082E2,1.0279826E2,2.9946756E2,2.1064545E2,8.133344E1,5.6978092E1,1.4159273E2,7.396178E1,2.883648E1,1.0682768E2,1.9263986E2],"tree_param":{"num_deleted":"0","num_feature":"14","num_nodes":"15","size_leaf_vector":"0"}},{"base_weights":[-3.162682E-3,-5.235172E-1,4.4159266E-1,-7.8008485E-1,9.894032E-2,2.1523343E-1,1.0618438E0,-8.519597E-1,-0E0,-4.1000003E-1,6.9435143E-1,-7.4763596E-2,6.440983E-1],"categories":[],"categories_nodes":[],"categories_segments":[],"categories_sizes":[],"default_left":[1,1,1,1,1,1,0,0,0,0,0,0,0],"id":3,"left_children":[1,3,5,7,9,11,-1,-1,-1,-1,-1,-1,-1],"loss_changes":[1.9374629E2,6.341809E1,5.9945335E1,1.451178E1,3.5580242E1,4.2838566E1,0E0,0E0,0E0,0E0,0E0,0E0,0E0],"parents":[2147483647,0,0,1,1,2,2,3,3,4,4,5,5],"right_children":[2,4,6,8,10,12,-1,-1,-1,-1,-1,-1,-1],"split_conditions":[9.634459E0,5E-1,5E-1,9.5E0,5.245885E0,1.596183E1,2.8900108E-1,-2.3187712E-1,-0E0,-1.1158934E-1,1.8898101E-1,-2.0348342E-2,1.7530365E-1],"split_indices":[12,10,10,6,12,12,0,0,0,0,0,0,0],"split_type":[0,0,0,0,0,0,0,0,0,0,0,0,0],"sum_hessian":[8.313283E2,3.8492465E2,4.464037E2,2.7434146E2,1.1058318E2,3.3190366E2,1.1450004E2,2.4958199E2,2.4759472E1,5.827872E1,5.2304466E1,1.9655214E2,1.353515E2],"tree_param":{"num_deleted":"0","num_feature":"14","num_nodes":"13","size_leaf_vector":"0"}},{"base_weights":[-0E0,-5.343876E-1,5.018838E-1,-8.5905963E-1,1.5076794E-1,1.837389E-1,1.1770285E0,-1.0737183E0,-2.9072377E-1,-3.246868E-1,4.5524168E-1,-3.1087855E-1,5.5636454E-1],"categories":[],"categories_nodes":[],"categories_segments":[],"categories_sizes":[],"default_left":[1,1,1,1,1,1,0,0,0,0,0,0,0],"id":4,"left_children":[1,3,5,7,9,11,-1,-1,-1,-1,-1,-1,-1],"loss_changes":[2.1557983E2,8.841816E1,8.570296E1,2.9066147E1,1.8812035E1,5.3716976E1,0E0,0E0,0E0,0E0,0E0,0E0,0E0],"parents":[2147483647,0,0,1,1,2,2,3,3,4,4,5,5],"right_children":[2,4,6,8,10,12,-1,-1,-1,-1,-1,-1,-1],"split_conditions":[1.084273E2,5E-1,5E-1,5E-1,4.6951706E1,1.4916751E2,3.2035083E-1,-2.9223296E-1,-7.912603E-2,-8.836972E-2,1.2390272E-1,-8.4611535E-2,1.5142524E-1],"split_indices":[11,9,9,10,11,11,0,0,0,0,0,0,0],"split_type":[0,0,0,0,0,0,0,0,0,0,0,0,0],"sum_hessian":[7.98593E2,3.871597E2,4.1143332E2,2.6418027E2,1.2297943E2,2.8385272E2,1.27580605E2,1.8759047E2,7.658979E1,4.5430233E1,7.7549194E1,1.1988582E2,1.639669E2],"tree_param":{"num_deleted":"0","num_feature":"14","num_nodes":"13","size_leaf_vector":"0"}},{"base_weights":[-4.413783E-3,-2.572291E-1,5.488205E-1,-4.8121926E-1,3.0475092E-1,1.5185548E-1,7.3648745E-1,-7.521647E-1,-2.4044928E-1,-1.71786E-2,5.8724976E-1,2.9584154E-1,-3.6064646E-1,2.620211E-1,8.168711E-1],"categories":[],"categories_nodes":[],"categories_segments":[],"categories_sizes":[],"default_left":[1,1,1,1,1,1,1,0,0,0,0,0,0,0,0],"id":5,"left_children":[1,3,5,7,9,11,13,-1,-1,-1,-1,-1,-1,-1,-1],"loss_changes":[1.06738144E2,6.731175E1,1.5717606E1,2.249144E1,1.4770074E1,6.2771378E0,3.3503342E0,0E0,0E0,0E0,0E0,0E0,0E0,0E0,0E0],"parents":[2147483647,0,0,1,1,2,2,3,3,4,4,5,5,6,6],"right_children":[2,4,6,8,10,12,14,-1,-1,-1,-1,-1,-1,-1,-1],"split_conditions":[5E-1,5E-1,3.5E0,4.5E0,4.5E0,3.1723042E1,1.5E0,-2.0471601E-1,-6.544287E-2,-4.6754847E-3,1.5983124E-1,8.051893E-2,-9.8156825E-2,7.131405E-2,2.2232708E-1],"split_indices":[9,10,7,7,5,1,5,0,0,0,0,0,0,0,0],"split_type":[0,0,0,0,0,0,0,0,0,0,0,0,0,0,0],"sum_hessian":[7.620573E2,5.264167E2,2.3564062E2,3.7915335E2,1.4726337E2,8.0487785E1,1.5515285E2,1.7199495E2,2.0715839E2,6.6716255E1,8.054711E1,6.66693E1,1.3818489E1,2.759835E1,1.275545E2],"tree_param":{"num_deleted":"0","num_feature":"14","num_nodes":"15","size_leaf_vector":"0"}},{"base_weights":[9.772325E-3,-5.777171E-1,3.7136137E-1,-7.6382166E-1,-1.861185E-1,1.23273194E-1,7.154874E-1,-9.299899E-1,-4.4376424E-1,-7.103719E-1,-0E0,-2.3039615E-1,4.004651E-1,2.7906665E-1,8.484797E-1],"categories":[],"categories_nodes":[],"categories_segments":[],"categories_sizes":[],"default_left":[1,1,1,1,1,1,1,0,0,0,0,0,0,0,0],"id":6,"left_children":[1,3,5,7,9,11,13,-1,-1,-1,-1,-1,-1,-1,-1],"loss_changes":[1.6359377E2,1.9058762E1,3.9100517E1,6.5505524E0,9.0473385E0,2.853851E1,8.6261215E0,0E0,0E0,0E0,0E0,0E0,0E0,0E0,0E0],"parents":[2147483647,0,0,1,1,2,2,3,3,4,4,5,5,6,6],"right_children":[2,4,6,8,10,12,14,-1,-1,-1,-1,-1,-1,-1,-1],"split_conditions":[8.881006E1,6.349401E1,1.5602226E2,6.5E0,2.5E0,4.5E0,2.5E0,-2.5311452E-1,-1.2077892E-1,-1.933413E-1,-0E0,-6.270672E-2,1.0899423E-1,7.595332E-2,2.3092997E-1],"split_indices":[11,11,11,7,5,4,5,0,0,0,0,0,0,0,0],"split_type":[0,0,0,0,0,0,0,0,0,0,0,0,0,0,0],"sum_hessian":[7.668364E2,2.895056E2,4.7733078E2,1.9119168E2,9.831395E1,2.8271014E2,1.9462064E2,1.18591736E2,7.2599945E1,2.2279577E1,7.603437E1,1.2130371E2,1.6140642E2,5.0760277E1,1.4386037E2],"tree_param":{"num_deleted":"0","num_feature":"14","num_nodes":"15","size_leaf_vector":"0"}},{"base_weights":[-1.5467438E-3,-4.4390425E-1,2.5339654E-1,-6.8520004E-1,-0E0,5.7490513E-2,7.306257E-1,-9.9525154E-1,-4.3467858E-1,-1.9712709E-1,2.7946168E-1,-1.22655414E-1,6.0229474E-1,3.6194873E-1,8.9132595E-1],"categories":[],"categories_nodes":[],"categories_segments":[],"categories_sizes":[],"default_left":[1,1,1,1,1,1,1,0,0,0,0,0,0,0,0],"id":7,"left_children":[1,3,5,7,9,11,13,-1,-1,-1,-1,-1,-1,-1,-1],"loss_changes":[8.35613E1,2.953841E1,4.183498E1,9.854469E0,5.5711174E0,3.40554E1,4.5483704E0,0E0,0E0,0E0,0E0,0E0,0E0,0E0,0E0],"parents":[2147483647,0,0,1,1,2,2,3,3,4,4,5,5,6,6],"right_children":[2,4,6,8,10,12,14,-1,-1,-1,-1,-1,-1,-1,-1],"split_conditions":[8.881006E1,5E-1,5E-1,4.43408E1,5.5E0,5E-1,3.5E0,-2.7087674E-1,-1.18306085E-1,-5.3651907E-2,7.606084E-2,-3.3383016E-2,1.6392602E-1,9.8511264E-2,2.425914E-1],"split_indices":[11,9,9,11,6,10,6,0,0,0,0,0,0,0,0],"split_type":[0,0,0,0,0,0,0,0,0,0,0,0,0,0,0],"sum_hessian":[7.3249603E2,2.6992377E2,4.6257224E2,1.7470898E2,9.521479E1,3.3290384E2,1.2966838E2,7.11617E1,1.0354728E2,5.5203434E1,4.0011356E1,2.4897527E2,8.392857E1,4.5606403E1,8.406198E1],"tree_param":{"num_deleted":"0","num_feature":"14","num_nodes":"15","size_leaf_vector":"0"}},{"base_weights":[1.8979289E-3,-6.561879E-1,3.8980547E-1,-1.0206356E0,-0E0,-2.3166649E-1,5.910032E-1,-1.1377317E0,-6.497495E-1,-7.116327E-1,3.1681547E-1,-4.9063206E-1,4.991877E-1,2.106084E-1,9.082101E-1],"categories":[],"categories_nodes":[],"categories_segments":[],"categories_sizes":[],"default_left":[1,1,1,1,1,1,1,0,0,0,0,0,0,0,0],"id":8,"left_children":[1,3,5,7,9,11,13,-1,-1,-1,-1,-1,-1,-1,-1],"loss_changes":[1.786379E2,6.0208725E1,5.650128E1,1.7427826E0,2.2921326E1,2.1038116E1,3.8109177E1,0E0,0E0,0E0,0E0,0E0,0E0,0E0,0E0],"parents":[2147483647,0,0,1,1,2,2,3,3,4,4,5,5,6,6],"right_children":[2,4,6,8,10,12,14,-1,-1,-1,-1,-1,-1,-1,-1],"split_conditions":[7.887063E0,1.4977338E2,5.8885353E1,7.5E0,2.5236857E0,1.7896832E1,1.33808365E1,-3.0965543E-1,-1.7684175E-1,-1.9368444E-1,8.622739E-2,-1.335349E-1,1.3586348E-1,5.7321098E-2,2.4718674E-1],"split_indices":[12,11,11,6,12,12,12,0,0,0,0,0,0,0,0],"split_type":[0,0,0,0,0,0,0,0,0,0,0,0,0,0,0],"sum_hessian":[6.966726E2,2.5582782E2,4.4084476E2,1.62034E2,9.379382E1,1.0533862E2,3.3550613E2,1.15090675E2,4.6943314E1,2.9417105E1,6.4376724E1,8.0383606E1,2.4955013E1,1.5731528E2,1.7819086E2],"tree_param":{"num_deleted":"0","num_feature":"14","num_nodes":"15","size_leaf_vector":"0"}},{"base_weights":[-4.7218213E-3,-6.4331114E-1,2.8922006E-1,-8.249215E-1,-2.2248396E-1,9.344214E-2,7.5274855E-1,-1.0244747E0,-3.859155E-1,-6.4393854E-1,6.741259E-2,-1.8044794E-1,5.223683E-1,4.8570865E-1,1.1620029E0],"categories":[],"categories_nodes":[],"categories_segments":[],"categories_sizes":[],"default_left":[1,1,1,1,1,1,1,0,0,0,0,0,0,0,0],"id":9,"left_children":[1,3,5,7,9,11,13,-1,-1,-1,-1,-1,-1,-1,-1],"loss_changes":[1.2451996E2,1.3526848E1,3.8967247E1,8.702934E0,9.805484E0,3.8746883E1,9.545982E0,0E0,0E0,0E0,0E0,0E0,0E0,0E0,0E0],"parents":[2147483647,0,0,1,1,2,2,3,3,4,4,5,5,6,6],"right_children":[2,4,6,8,10,12,14,-1,-1,-1,-1,-1,-1,-1,-1],"split_conditions":[6.929032E0,5E-1,5E-1,5E-1,3.080307E0,1.501045E1,6.5E0,-2.7883038E-1,-1.0503428E-1,-1.7526019E-1,1.8347625E-2,-4.9112353E-2,1.4217252E-1,1.3219489E-1,3.162613E-1],"split_indices":[12,10,9,9,12,12,4,0,0,0,0,0,0,0,0],"split_type":[0,0,0,0,0,0,0,0,0,0,0,0,0,0,0],"sum_hessian":[6.545468E2,2.0745564E2,4.4709116E2,1.3993642E2,6.7519226E1,3.194768E2,1.2761435E2,9.077613E1,4.916029E1,2.898948E1,3.8529743E1,1.9309752E2,1.263793E2,8.352953E1,4.4084816E1],"tree_param":{"num_deleted":"0","num_feature":"14","num_nodes":"15","size_leaf_vector":"0"}},{"base_weights":[-0E0,-2.2337046E-1,2.6882097E-1,-4.027246E-1,2.263624E-1,-0E0,4.7695965E-1,-5.776423E-1,3.9855797E-2,-6.399625E-2,5.400642E-1,-4.470135E-1,1.5913342E-1,3.3140835E-1,7.783286E-1],"categories":[],"categories_nodes":[],"categories_segments":[],"categories_sizes":[],"default_left":[1,1,1,1,1,1,1,0,0,0,0,0,0,0,0],"id":10,"left_children":[1,3,5,7,9,11,13,-1,-1,-1,-1,-1,-1,-1,-1],"loss_changes":[3.797311E1,2.863096E1,1.606074E1,2.067228E1,9.919159E0,9.252027E0,4.2343597E0,0E0,0E0,0E0,0E0,0E0,0E0,0E0,0E0],"parents":[2147483647,0,0,1,1,2,2,3,3,4,4,5,5,6,6],"right_children":[2,4,6,8,10,12,14,-1,-1,-1,-1,-1,-1,-1,-1],"split_conditions":[5.5E0,5E-1,4.5E0,7.5E0,5.5E0,2.5E0,5E-1,-1.572164E-1,1.0847517E-2,-1.7417802E-2,1.469888E-1,-1.21663265E-1,4.33112E-2,9.019912E-2,2.1183701E-1],"split_indices":[5,10,6,6,7,7,10,0,0,0,0,0,0,0,0],"split_type":[0,0,0,0,0,0,0,0,0,0,0,0,0,0,0],"sum_hessian":[6.2797546E2,3.4518317E2,2.8279227E2,2.500781E2,9.510508E1,1.24117546E2,1.5867471E2,1.8184924E2,6.822885E1,4.7210342E1,4.789474E1,3.1686867E1,9.243068E1,1.1502818E2,4.3646538E1],"tree_param":{"num_deleted":"0","num_feature":"14","num_nodes":"15","size_leaf_vector":"0"}},{"base_weights":[-9.4104465E-3,-2.6377082E-1,4.6318212E-1,-5.158566E-1,1.271106E-2,2.478071E-2,6.595471E-1,-7.263627E-1,-1.6214461E-3,-1.9108407E-1,3.5150114E-1,-6.8889655E-2,5.3457546E-1,2.6830855E-1,8.6040986E-1],"categories":[],"categories_nodes":[],"categories_segments":[],"categories_sizes":[],"default_left":[1,1,1,1,1,1,1,0,0,0,0,0,0,0,0],"id":11,"left_children":[1,3,5,7,9,11,13,-1,-1,-1,-1,-1,-1,-1,-1],"loss_changes":[7.624315E1,3.0072044E1,1.7589188E1,2.2594627E1,1.4138573E1,4.5381575E0,8.904701E0,0E0,0E0,0E0,0E0,0E0,0E0,0E0,0E0],"parents":[2147483647,0,0,1,1,2,2,3,3,4,4,5,5,6,6],"right_children":[2,4,6,8,10,12,14,-1,-1,-1,-1,-1,-1,-1,-1],"split_conditions":[1.4020358E2,5.5E0,3.5E0,5E-1,6.5E0,1.890893E2,3.5E0,-1.976935E-1,-4.4130755E-4,-5.2007183E-2,9.566775E-2,-1.8749636E-2,1.4549492E-1,7.30253E-2,2.34177E-1],"split_indices":[11,4,6,10,7,11,4,0,0,0,0,0,0,0,0],"split_type":[0,0,0,0,0,0,0,0,0,0,0,0,0,0,0],"sum_hessian":[6.3231525E2,4.145038E2,2.1781145E2,2.1935909E2,1.9514471E2,7.13641E1,1.4644736E2,1.5218726E2,6.717183E1,1.1893754E2,7.620718E1,5.8920673E1,1.2443423E1,5.50301E1,9.141725E1],"tree_param":{"num_deleted":"0","num_feature":"14","num_nodes":"15","size_leaf_vector":"0"}},{"base_weights":[8.956237E-3,-3.6715657E-1,3.609119E-1,-7.4204E-1,1.0941095E-1,4.8226595E-2,7.8854585E-1,-9.540066E-1,-3.728742E-1,-4.987632E-1,3.909431E-1,-2.0812227E-1,6.173761E-1,1.823195E-1,9.111918E-1],"categories":[],"categories_nodes":[],"categories_segments":[],"categories_sizes":[],"default_left":[1,1,1,1,1,1,1,0,0,0,0,0,0,0,0],"id":12,"left_children":[1,3,5,7,9,11,13,-1,-1,-1,-1,-1,-1,-1,-1],"loss_changes":[8.249768E1,5.480481E1,4.167301E1,9.770203E0,2.2795E1,2.9279844E1,7.4152756E0,0E0,0E0,0E0,0E0,0E0,0E0,0E0,0E0],"parents":[2147483647,0,0,1,1,2,2,3,3,4,4,5,5,6,6],"right_children":[2,4,6,8,10,12,14,-1,-1,-1,-1,-1,-1,-1,-1],"split_conditions":[1.0002769E1,1.4385559E2,1.074241E2,5E-1,3.0755844E0,5E-1,1.156678E1,-2.5965112E-1,-1.0148484E-1,-1.3574794E-1,1.0640264E-1,-5.6644455E-2,1.6803071E-1,4.962174E-2,2.4799827E-1],"split_indices":[12,11,11,9,12,9,12,0,0,0,0,0,0,0,0],"split_type":[0,0,0,0,0,0,0,0,0,0,0,0,0,0,0],"sum_hessian":[6.181523E2,2.9607578E2,3.2207654E2,1.6721603E2,1.2885974E2,1.9034442E2,1.317321E2,1.0026125E2,6.695478E1,3.7944256E1,9.091549E1,1.299873E2,6.035712E1,2.5932133E1,1.0579997E2],"tree_param":{"num_deleted":"0","num_feature":"14","num_nodes":"15","size_leaf_vector":"0"}},{"base_weights":[-0E0,-3.66602E-1,1.4636205E-1,-5.708375E-1,-0E0,-8.56733E-2,4.2335492E-1,-7.457844E-1,-1.7600195E-1,-2.936096E-1,1.5222397E-1,-2.6487675E-1,3.9977816E-1,6.0437173E-2,6.1042476E-1],"categories":[],"categories_nodes":[],"categories_segments":[],"categories_sizes":[],"default_left":[1,1,1,1,1,1,1,0,0,0,0,0,0,0,0],"id":13,"left_children":[1,3,5,7,9,11,13,-1,-1,-1,-1,-1,-1,-1,-1],"loss_changes":[3.193831E1,1.2277576E1,2.7658018E1,5.327858E0,3.1634722E0,1.9674702E1,1.183506E1,0E0,0E0,0E0,0E0,0E0,0E0,0E0,0E0],"parents":[2147483647,0,0,1,1,2,2,3,3,4,4,5,5,6,6],"right_children":[2,4,6,8,10,12,14,-1,-1,-1,-1,-1,-1,-1,-1],"split_conditions":[7.335326E1,6.5E0,5.5E0,5E-1,3.1507908E1,5E-1,3.5E0,-2.0297948E-1,-4.7902294E-2,-7.991146E-2,4.1430663E-2,-7.2091274E-2,1.08807266E-1,1.6449131E-2,1.6613877E-1],"split_indices":[11,4,8,10,11,10,5,0,0,0,0,0,0,0,0],"split_type":[0,0,0,0,0,0,0,0,0,0,0,0,0,0,0],"sum_hessian":[5.843522E2,1.6834877E2,4.160034E2,1.0559963E2,6.274914E1,2.2349039E2,1.92513E2,6.81511E1,3.7448532E1,2.265161E1,4.009753E1,1.6703595E2,5.6454437E1,7.020202E1,1.22310974E2],"tree_param":{"num_deleted":"0","num_feature":"14","num_nodes":"15","size_leaf_vector":"0"}},{"base_weights":[6.08298E-3,-2.649138E-1,2.1279661E-1,-4.5379654E-1,1.2111682E-1,-2.704835E-2,4.0936294E-1,-7.3845005E-1,-1.8220237E-1,-4.3027487E-1,2.696659E-1,-3.4159562E-1,1.4327952E-1,2.2210912E-1,6.66524E-1],"categories":[],"categories_nodes":[],"categories_segments":[],"categories_sizes":[],"default_left":[1,1,1,1,1,1,1,0,0,0,0,0,0,0,0],"id":14,"left_children":[1,3,5,7,9,11,13,-1,-1,-1,-1,-1,-1,-1,-1],"loss_changes":[3.208496E1,1.8624918E1,1.633607E1,1.0849815E1,6.4522886E0,8.3670435E0,6.834997E0,0E0,0E0,0E0,0E0,0E0,0E0,0E0,0E0],"parents":[2147483647,0,0,1,1,2,2,3,3,4,4,5,5,6,6],"right_children":[2,4,6,8,10,12,14,-1,-1,-1,-1,-1,-1,-1,-1],"split_conditions":[4.5E0,5E-1,4.5E0,4.5E0,1.5E0,3.5E0,6.5E0,-2.009833E-1,-4.9589857E-2,-1.1710753E-1,7.339473E-2,-9.297178E-2,3.899626E-2,6.0451243E-2,1.8140724E-1],"split_indices":[7,9,8,5,4,4,6,0,0,0,0,0,0,0,0],"split_type":[0,0,0,0,0,0,0,0,0,0,0,0,0,0,0],"sum_hessian":[5.694118E2,2.419786E2,3.2743317E2,1.6558376E2,7.639485E1,1.4399066E2,1.834425E2,7.5164314E1,9.041944E1,1.2377359E1,6.4017494E1,5.3713425E1,9.027723E1,1.13335175E2,7.010734E1],"tree_param":{"num_deleted":"0","num_feature":"14","num_nodes":"15","size_leaf_vector":"0"}},{"base_weights":[8.297971E-4,-3.5046697E-1,3.828078E-1,-5.838453E-1,3.1875038E-1,1.812732E-1,8.705048E-1,-7.98157E-1,-2.1141058E-1,-0E0,9.060478E-1,-3.6265504E-2,6.671387E-1,1.5835011E-1,9.4140404E-1],"categories":[],"categories_nodes":[],"categories_segments":[],"categories_sizes":[],"default_left":[1,1,1,1,1,1,1,0,0,0,0,0,0,0,0],"id":15,"left_children":[1,3,5,7,9,11,13,-1,-1,-1,-1,-1,-1,-1,-1],"loss_changes":[7.656437E1,4.6964226E1,2.463993E1,1.5250107E1,1.4074516E1,2.2569206E1,1.3551407E0,0E0,0E0,0E0,0E0,0E0,0E0,0E0,0E0],"parents":[2147483647,0,0,1,1,2,2,3,3,4,4,5,5,6,6],"right_children":[2,4,6,8,10,12,14,-1,-1,-1,-1,-1,-1,-1,-1],"split_conditions":[1.0636264E1,1.6902313E2,1.2332318E2,5E-1,6.8037605E0,5E-1,1.1466686E1,-2.1723367E-1,-5.753943E-2,-0E0,2.4659823E-1,-9.87035E-3,1.8157455E-1,4.309801E-2,2.5622112E-1],"split_indices":[12,11,11,9,12,9,12,0,0,0,0,0,0,0,0],"split_type":[0,0,0,0,0,0,0,0,0,0,0,0,0,0,0],"sum_hessian":[5.6495593E2,2.9173544E2,2.732205E2,2.1871791E2,7.301753E1,1.9867166E2,7.454883E1,1.3362238E2,8.5095535E1,4.9091705E1,2.392583E1,1.3608907E2,6.2582596E1,1.0006102E1,6.4542725E1],"tree_param":{"num_deleted":"0","num_feature":"14","num_nodes":"15","size_leaf_vector":"0"}},{"base_weights":[-1.6627636E-2,-2.3178075E-1,4.3925238E-1,-4.2102838E-1,1.7283884E-1,2.3893885E-1,7.8846663E-1,-5.7377774E-1,-0E0,-3.729645E-1,4.6079552E-1,5.483418E-2,7.296106E-1,-0E0,8.4965324E-1],"categories":[],"categories_nodes":[],"categories_segments":[],"categories_sizes":[],"default_left":[1,1,1,1,1,1,1,0,0,0,0,0,0,0,0],"id":16,"left_children":[1,3,5,7,9,11,13,-1,-1,-1,-1,-1,-1,-1,-1],"loss_changes":[5.3147232E1,2.929113E1,9.545719E0,1.5676098E1,1.9100769E1,8.899551E0,2.1172066E0,0E0,0E0,0E0,0E0,0E0,0E0,0E0,0E0],"parents":[2147483647,0,0,1,1,2,2,3,3,4,4,5,5,6,6],"right_children":[2,4,6,8,10,12,14,-1,-1,-1,-1,-1,-1,-1,-1],"split_conditions":[1.4013081E1,5E-1,1.8034039E1,7.5E0,4.4809184E0,5E-1,5E-1,-1.5616457E-1,-0E0,-1.01509415E-1,1.2541431E-1,1.492417E-2,1.9857748E-1,-0E0,2.3124938E-1],"split_indices":[12,10,12,5,12,10,5,0,0,0,0,0,0,0,0],"split_type":[0,0,0,0,0,0,0,0,0,0,0,0,0,0,0],"sum_hessian":[5.407523E2,3.711512E2,1.6960109E2,2.5610513E2,1.1504608E2,1.14099815E2,5.5501266E1,1.8432402E2,7.178112E1,3.7120747E1,7.792534E1,8.795455E1,2.6145267E1,5.1305413E0,5.0370728E1],"tree_param":{"num_deleted":"0","num_feature":"14","num_nodes":"15","size_leaf_vector":"0"}},{"base_weights":[1.2802706E-2,-4.4324473E-1,1.7702262E-1,-5.2817523E-1,-0E0,-1.2275068E-2,5.0742054E-1,-5.6546515E-1,-0E0,-4.7559673E-1,1.1232845E-1,-2.94133E-1,2.7185038E-1,-1.7047614E-2,6.285055E-1],"categories":[],"categories_nodes":[],"categories_segments":[],"categories_sizes":[],"default_left":[1,1,1,1,1,1,1,0,0,0,0,0,0,0,0],"id":17,"left_children":[1,3,5,7,9,11,13,-1,-1,-1,-1,-1,-1,-1,-1],"loss_changes":[3.904717E1,4.2593365E0,2.5470781E1,2.6662025E0,2.2309318E0,2.0080204E1,1.0524658E1,0E0,0E0,0E0,0E0,0E0,0E0,0E0,0E0],"parents":[2147483647,0,0,1,1,2,2,3,3,4,4,5,5,6,6],"right_children":[2,4,6,8,10,12,14,-1,-1,-1,-1,-1,-1,-1,-1],"split_conditions":[6.0808496E0,8.5E0,6.5E0,3.406637E1,1.6971582E0,5.5E0,1.5E0,-1.5390214E-1,-0E0,-1.2944274E-1,3.0572334E-2,-8.005392E-2,7.398928E-2,-4.639834E-3,1.7105979E-1],"split_indices":[12,8,6,1,12,7,8,0,0,0,0,0,0,0,0],"split_type":[0,0,0,0,0,0,0,0,0,0,0,0,0,0,0],"sum_hessian":[5.230732E2,1.341696E2,3.889036E2,1.0899656E2,2.517304E1,2.4505182E2,1.4385178E2,1.031049E2,5.8916674E0,6.07967E0,1.909337E1,1.2643362E2,1.1861821E2,2.4361301E1,1.1949047E2],"tree_param":{"num_deleted":"0","num_feature":"14","num_nodes":"15","size_leaf_vector":"0"}},{"base_weights":[-4.254715E-3,-2.4685094E-1,2.931584E-1,-5.492229E-1,1.2910886E-1,-3.785407E-1,4.6237347E-1,-7.1365535E-1,6.8537784E-3,-5.0762224E-1,3.2774433E-1,-6.064502E-1,2.8600585E-1,6.9309495E-2,6.6323334E-1],"categories":[],"categories_nodes":[],"categories_segments":[],"categories_sizes":[],"default_left":[1,1,1,1,1,1,1,0,0,0,0,0,0,0,0],"id":18,"left_children":[1,3,5,7,9,11,13,-1,-1,-1,-1,-1,-1,-1,-1],"loss_changes":[3.7548405E1,3.407717E1,2.6841782E1,1.6449776E1,1.6375523E1,7.968445E0,1.3273266E1,0E0,0E0,0E0,0E0,0E0,0E0,0E0,0E0],"parents":[2147483647,0,0,1,1,2,2,3,3,4,4,5,5,6,6],"right_children":[2,4,6,8,10,12,14,-1,-1,-1,-1,-1,-1,-1,-1],"split_conditions":[1.2093614E2,1.4037678E1,3.0755844E0,8.5E0,3.2090096E1,1.89202E2,3.5E0,-1.9423494E-1,1.8653867E-3,-1.381591E-1,8.920188E-2,-1.6505702E-1,7.784196E-2,1.8863903E-2,1.8051162E-1],"split_indices":[11,12,12,7,11,11,7,0,0,0,0,0,0,0,0],"split_type":[0,0,0,0,0,0,0,0,0,0,0,0,0,0,0],"sum_hessian":[5.165128E2,2.8834222E2,2.281706E2,1.6204259E2,1.2629963E2,4.294295E1,1.8522763E2,1.27218414E2,3.482418E1,2.6733694E1,9.956594E1,3.433984E1,8.603113E0,6.711301E1,1.1811463E2],"tree_param":{"num_deleted":"0","num_feature":"14","num_nodes":"15","size_leaf_vector":"0"}},{"base_weights":[-0E0,-1.7046575E-1,3.671721E-1,-3.3373493E-1,2.1515079E-1,-2.9841343E-2,5.037976E-1,-4.5394877E-1,2.8412625E-1,-0E0,5.91582E-1,-3.5335106E-1,2.3944752E-1,-0E0,5.954436E-1],"categories":[],"categories_nodes":[],"categories_segments":[],"categories_sizes":[],"default_left":[1,1,1,1,1,1,1,0,0,0,0,0,0,0,0],"id":19,"left_children":[1,3,5,7,9,11,13,-1,-1,-1,-1,-1,-1,-1,-1],"loss_changes":[3.1703842E1,2.2070759E1,9.702278E0,1.8951818E1,8.408512E0,3.9246292E0,5.017479E0,0E0,0E0,0E0,0E0,0E0,0E0,0E0,0E0],"parents":[2147483647,0,0,1,1,2,2,3,3,4,4,5,5,6,6],"right_children":[2,4,6,8,10,12,14,-1,-1,-1,-1,-1,-1,-1,-1],"split_conditions":[5E-1,5E-1,4.4803085E0,1.7541111E1,1.1998486E1,6.5E0,1.5E0,-1.2355083E-1,7.733039E-2,-0E0,1.6101035E-1,-9.6171245E-2,6.517022E-2,-0E0,1.6206136E-1],"split_indices":[9,10,12,12,12,6,6,0,0,0,0,0,0,0,0],"split_type":[0,0,0,0,0,0,0,0,0,0,0,0,0,0,0],"sum_hessian":[4.9981284E2,3.4135416E2,1.5845868E2,2.4362999E2,9.7724174E1,3.7412548E1,1.21046135E2,2.0717563E2,3.645436E1,6.3006E1,3.4718178E1,1.9935923E1,1.7476625E1,2.0973467E1,1.0007267E2],"tree_param":{"num_deleted":"0","num_feature":"14","num_nodes":"15","size_leaf_vector":"0"}},{"base_weights":[5.4575796E-3,-2.983613E-1,1.8988113E-1,-4.5863947E-1,-0E0,-9.381822E-2,3.5520416E-1,-5.841546E-1,-7.7023126E-2,-1.5257756E-1,2.7095428E-1,-3.2469997E-1,1.0705234E-1,1.359448E-1,5.6063706E-1],"categories":[],"categories_nodes":[],"categories_segments":[],"categories_sizes":[],"default_left":[1,1,1,1,1,1,1,0,0,0,0,0,0,0,0],"id":20,"left_children":[1,3,5,7,9,11,13,-1,-1,-1,-1,-1,-1,-1,-1],"loss_changes":[2.7480398E1,8.633186E0,1.5208873E1,4.2576485E0,2.845961E0,5.7273664E0,7.5250225E0,0E0,0E0,0E0,0E0,0E0,0E0,0E0,0E0],"parents":[2147483647,0,0,1,1,2,2,3,3,4,4,5,5,6,6],"right_children":[2,4,6,8,10,12,14,-1,-1,-1,-1,-1,-1,-1,-1],"split_conditions":[3.5E0,6.5E0,3.5E0,7.5E0,5E-1,5.5E0,5.5E0,-1.5898885E-1,-2.0963317E-2,-4.15269E-2,7.3745385E-2,-8.83733E-2,2.9136341E-2,3.6999974E-2,1.5258808E-1],"split_indices":[4,8,5,7,9,8,6,0,0,0,0,0,0,0,0],"split_type":[0,0,0,0,0,0,0,0,0,0,0,0,0,0,0],"sum_hessian":[4.8906296E2,1.8011902E2,3.0894394E2,1.1578267E2,6.433635E1,1.0979411E2,1.9914981E2,8.223403E1,3.3548634E1,4.2410908E1,2.1925444E1,5.488152E1,5.4912594E1,1.0301688E2,9.6132935E1],"tree_param":{"num_deleted":"0","num_feature":"14","num_nodes":"15","size_leaf_vector":"0"}},{"base_weights":[5.7543796E-3,-1.4574444E-1,2.7098146E-1,-2.84068E-1,1.8678069E-1,9.946434E-2,5.1665986E-1,-4.2440054E-1,1.1098708E-1,-2.4241862E-1,4.176643E-1,-9.473536E-2,3.246241E-1,-0E0,6.231736E-1],"categories":[],"categories_nodes":[],"categories_segments":[],"categories_sizes":[],"default_left":[1,1,1,1,1,1,1,0,0,0,0,0,0,0,0],"id":21,"left_children":[1,3,5,7,9,11,13,-1,-1,-1,-1,-1,-1,-1,-1],"loss_changes":[2.0105894E1,1.4583281E1,6.429386E0,1.3157724E1,9.368469E0,5.6219378E0,3.6418228E0,0E0,0E0,0E0,0E0,0E0,0E0,0E0,0E0],"parents":[2147483647,0,0,1,1,2,2,3,3,4,4,5,5,6,6],"right_children":[2,4,6,8,10,12,14,-1,-1,-1,-1,-1,-1,-1,-1],"split_conditions":[6.5E0,5E-1,1.2445365E1,1.5920129E1,5.5327196E0,5.5E0,1.5E0,-1.1550872E-1,3.0207256E-2,-6.597886E-2,1.1367532E-1,-2.578404E-2,8.835265E-2,-0E0,1.6960861E-1],"split_indices":[4,10,12,12,12,6,5,0,0,0,0,0,0,0,0],"split_type":[0,0,0,0,0,0,0,0,0,0,0,0,0,0,0],"sum_hessian":[4.891628E2,3.0736563E2,1.817972E2,2.2149619E2,8.586945E1,1.1388397E2,6.791322E1,1.6695805E2,5.453813E1,2.7021635E1,5.8847816E1,5.7273647E1,5.661032E1,1.2658728E1,5.5254494E1],"tree_param":{"num_deleted":"0","num_feature":"14","num_nodes":"15","size_leaf_vector":"0"}},{"base_weights":[3.6678188E-3,-1.9635333E-1,1.685684E-1,-3.1892782E-1,9.9948846E-2,-2.2749904E-1,2.9779E-1,-4.7191635E-1,-2.2867044E-2,-6.999727E-2,3.929674E-1,-4.0676028E-1,1.554056E-1,1.7538801E-1,7.6311636E-1],"categories":[],"categories_nodes":[],"categories_segments":[],"categories_sizes":[],"default_left":[1,1,1,1,1,1,1,0,0,0,0,0,0,0,0],"id":22,"left_children":[1,3,5,7,9,11,13,-1,-1,-1,-1,-1,-1,-1,-1],"loss_changes":[1.575823E1,8.184952E0,1.4034359E1,6.0119305E0,3.6472583E0,5.0266643E0,9.6065445E0,0E0,0E0,0E0,0E0,0E0,0E0,0E0,0E0],"parents":[2147483647,0,0,1,1,2,2,3,3,4,4,5,5,6,6],"right_children":[2,4,6,8,10,12,14,-1,-1,-1,-1,-1,-1,-1,-1],"split_conditions":[4.5E0,7.5E0,5.245885E0,6.5E0,1.2123493E1,8.5E0,8.5E0,-1.2844105E-1,-6.2237033E-3,-1.9051095E-2,1.0695359E-1,-1.1070758E-1,4.2296603E-2,4.77352E-2,2.076967E-1],"split_indices":[8,5,12,6,12,6,4,0,0,0,0,0,0,0,0],"split_type":[0,0,0,0,0,0,0,0,0,0,0,0,0,0,0],"sum_hessian":[4.7425198E2,2.0871275E2,2.6553925E2,1.5217706E2,5.653568E1,6.1110638E1,2.044286E2,9.495899E1,5.7218082E1,3.27899E1,2.3745779E1,4.5000526E1,1.6110111E1,1.679947E2,3.643391E1],"tree_param":{"num_deleted":"0","num_feature":"14","num_nodes":"15","size_leaf_vector":"0"}},{"base_weights":[3.4240962E-3,-4.80309E-1,1.9591857E-1,-6.4464855E-1,-1.9576283E-1,3.336477E-2,5.789561E-1,-0E0,-6.7974484E-1,-3.8174972E-1,-0E0,-8.703313E-2,5.839704E-1,1.6183539E-1,7.7067935E-1],"categories":[],"categories_nodes":[],"categories_segments":[],"categories_sizes":[],"default_left":[1,1,1,1,1,1,1,0,0,0,0,0,0,0,0],"id":23,"left_children":[1,3,5,7,9,11,13,-1,-1,-1,-1,-1,-1,-1,-1],"loss_changes":[4.4192944E1,4.2901497E0,2.0334124E1,1.6562653E0,2.6537037E0,1.765716E1,5.8111954E0,0E0,0E0,0E0,0E0,0E0,0E0,0E0,0E0],"parents":[2147483647,0,0,1,1,2,2,3,3,4,4,5,5,6,6],"right_children":[2,4,6,8,10,12,14,-1,-1,-1,-1,-1,-1,-1,-1],"split_conditions":[7.035565E1,5E-1,5E-1,1.8535238E1,5.5E0,1.7868076E2,3.5E0,-0E0,-1.8500555E-1,-1.03900485E-1,-0E0,-2.368773E-2,1.589387E-1,4.4046596E-2,2.0975512E-1],"split_indices":[11,9,9,1,4,11,7,0,0,0,0,0,0,0,0],"split_type":[0,0,0,0,0,0,0,0,0,0,0,0,0,0,0],"sum_hessian":[4.7540973E2,1.3133612E2,3.4407364E2,7.68223E1,5.4513817E1,2.4711687E2,9.695675E1,4.40254E0,7.241976E1,3.064719E1,2.3866627E1,2.0163506E2,4.548182E1,3.5245102E1,6.171165E1],"tree_param":{"num_deleted":"0","num_feature":"14","num_nodes":"15","size_leaf_vector":"0"}},{"base_weights":[-0E0,-2.7456453E-1,2.5977036E-1,-4.2339095E-1,4.1736085E-3,-0E0,4.0170452E-1,-5.3723234E-1,-0E0,-4.472356E-1,1.22528076E-1,-1.2502636E-1,3.4008738E-1,2.5164354E-1,7.9217714E-1],"categories":[],"categories_nodes":[],"categories_segments":[],"categories_sizes":[],"default_left":[1,1,1,1,1,1,1,0,0,0,0,0,0,0,0],"id":24,"left_children":[1,3,5,7,9,11,13,-1,-1,-1,-1,-1,-1,-1,-1],"loss_changes":[3.281865E1,9.981131E0,9.6142845E0,7.045105E0,3.5002291E0,3.204123E0,6.808182E0,0E0,0E0,0E0,0E0,0E0,0E0,0E0,0E0],"parents":[2147483647,0,0,1,1,2,2,3,3,4,4,5,5,6,6],"right_children":[2,4,6,8,10,12,14,-1,-1,-1,-1,-1,-1,-1,-1],"split_conditions":[1.084273E2,5E-1,3.5E0,8.5E0,2.2878304E1,5E-1,1.8010376E2,-1.4621805E-1,-0E0,-1.2172372E-1,3.334836E-2,-3.4028314E-2,9.256128E-2,6.8489596E-2,2.1560615E-1],"split_indices":[11,10,6,8,11,10,11,0,0,0,0,0,0,0,0],"split_type":[0,0,0,0,0,0,0,0,0,0,0,0,0,0,0],"sum_hessian":[4.5533957E2,2.1811665E2,2.3722293E2,1.4590692E2,7.2209724E1,7.993802E1,1.5728491E2,1.1405646E2,3.1850464E1,1.0074298E1,6.213542E1,6.377711E1,1.6160908E1,1.2030386E2,3.698104E1],"tree_param":{"num_deleted":"0","num_feature":"14","num_nodes":"15","size_leaf_vector":"0"}},{"base_weights":[1.3068912E-3,-4.7854263E-1,1.0310407E-1,-6.510965E-1,-1.707484E-1,-1.4611433E-1,2.4552348E-1,-7.1292126E-1,-0E0,-3.138906E-1,3.882295E-2,-4.7847566E-1,-0E0,1.4940536E-1,7.318888E-1],"categories":[],"categories_nodes":[],"categories_segments":[],"categories_sizes":[],"default_left":[1,1,1,1,1,1,1,0,0,0,0,0,0,0,0],"id":25,"left_children":[1,3,5,7,9,11,13,-1,-1,-1,-1,-1,-1,-1,-1],"loss_changes":[2.1774601E1,2.207924E0,1.3899639E1,1.271944E0,1.630316E0,6.0109797E0,9.67937E0,0E0,0E0,0E0,0E0,0E0,0E0,0E0,0E0],"parents":[2147483647,0,0,1,1,2,2,3,3,4,4,5,5,6,6],"right_children":[2,4,6,8,10,12,14,-1,-1,-1,-1,-1,-1,-1,-1],"split_conditions":[4.7127426E1,5E-1,3.5E0,9.5E0,7.5E0,2.5E0,1.7868076E2,-1.9403514E-1,-0E0,-8.543133E-2,1.0566408E-2,-1.302263E-1,-0E0,4.0663525E-2,1.9919752E-1],"split_indices":[11,9,7,7,4,4,11,0,0,0,0,0,0,0,0],"split_type":[0,0,0,0,0,0,0,0,0,0,0,0,0,0,0],"sum_hessian":[4.5565503E2,7.470994E1,3.809451E2,4.195246E1,3.2757477E1,1.3350302E2,2.4744206E2,3.706708E1,4.8853807E0,2.4257866E1,8.499611E0,3.6370937E1,9.713209E1,2.1278499E2,3.4657074E1],"tree_param":{"num_deleted":"0","num_feature":"14","num_nodes":"15","size_leaf_vector":"0"}},{"base_weights":[8.9003015E-3,-2.2397259E-1,1.3759229E-1,-3.756106E-1,8.73909E-2,-0E0,3.6012623E-1,-4.925514E-1,-0E0,-9.367361E-2,2.7051082E-1,-1.8075375E-1,1.1228061E-1,-0E0,4.4632313E-1],"categories":[],"categories_nodes":[],"categories_segments":[],"categories_sizes":[],"default_left":[1,1,1,1,1,1,1,0,0,0,0,0,0,0,0],"id":26,"left_children":[1,3,5,7,9,11,13,-1,-1,-1,-1,-1,-1,-1,-1],"loss_changes":[1.35109E1,8.066366E0,9.723167E0,4.72165E0,2.0465813E0,3.877005E0,3.9593296E0,0E0,0E0,0E0,0E0,0E0,0E0,0E0,0E0],"parents":[2147483647,0,0,1,1,2,2,3,3,4,4,5,5,6,6],"right_children":[2,4,6,8,10,12,14,-1,-1,-1,-1,-1,-1,-1,-1],"split_conditions":[3.5E0,7.5E0,1.2890125E2,1.576354E2,3.5E0,4.5E0,1.5E0,-1.3405727E-1,-0E0,-2.5495064E-2,7.362469E-2,-4.9195588E-2,3.0559313E-2,-0E0,1.2147537E-1],"split_indices":[6,7,11,11,4,4,8,0,0,0,0,0,0,0,0],"split_type":[0,0,0,0,0,0,0,0,0,0,0,0,0,0,0],"sum_hessian":[4.512573E2,1.5451791E2,2.9673938E2,1.0778682E2,4.6731094E1,1.8064975E2,1.16089615E2,8.106608E1,2.6720741E1,1.8748886E1,2.7982208E1,7.3909355E1,1.06740395E2,2.1532806E1,9.455681E1],"tree_param":{"num_deleted":"0","num_feature":"14","num_nodes":"15","size_leaf_vector":"0"}},{"base_weights":[-6.560156E-4,-3.8335365E-1,2.0154235E-1,-6.7288893E-1,-1.0440243E-1,9.5391184E-2,7.461505E-1,-7.037985E-1,-0E0,-4.140488E-1,4.876824E-1,-9.183612E-2,4.4437388E-1],"categories":[],"categories_nodes":[],"categories_segments":[],"categories_sizes":[],"default_left":[1,1,1,1,1,1,0,0,0,0,0,0,0],"id":27,"left_children":[1,3,5,7,9,11,-1,-1,-1,-1,-1,-1,-1],"loss_changes":[3.5503887E1,1.1248503E1,1.5155254E1,8.5173035E-1,1.6540949E1,1.7253504E1,0E0,0E0,0E0,0E0,0E0,0E0,0E0],"parents":[2147483647,0,0,1,1,2,2,3,3,4,4,5,5],"right_children":[2,4,6,8,10,12,-1,-1,-1,-1,-1,-1,-1],"split_conditions":[7.887063E0,1.405333E2,1.5719373E2,7.455168E0,5E-1,1.5918108E1,2.0307912E-1,-1.915522E-1,-0E0,-1.1269129E-1,1.327321E-1,-2.4994954E-2,1.2094484E-1],"split_indices":[12,11,11,12,9,12,0,0,0,0,0,0,0],"split_type":[0,0,0,0,0,0,0,0,0,0,0,0,0],"sum_hessian":[4.4907056E2,1.5779652E2,2.9127405E2,7.2198135E1,8.55984E1,2.4930507E2,4.1968964E1,6.749412E1,4.7040167E0,5.8886192E1,2.6712202E1,1.5983585E2,8.946923E1],"tree_param":{"num_deleted":"0","num_feature":"14","num_nodes":"13","size_leaf_vector":"0"}},{"base_weights":[-1.4413842E-2,-1.5651932E-1,3.347276E-1,-3.6916497E-1,1.7694904E-1,-5.6115646E-2,4.6147487E-1,-5.593133E-1,-2.2405924E-2,-2.1943827E-1,3.580403E-1,-2.2525494E-1,1.0221284E-1,1.4280872E-1,6.712127E-1],"categories":[],"categories_nodes":[],"categories_segments":[],"categories_sizes":[],"default_left":[1,1,1,1,1,1,1,0,0,0,0,0,0,0,0],"id":28,"left_children":[1,3,5,7,9,11,13,-1,-1,-1,-1,-1,-1,-1,-1],"loss_changes":[2.1295195E1,2.2801113E1,6.9166126E0,1.175605E1,9.113905E0,1.0621023E0,4.599148E0,0E0,0E0,0E0,0E0,0E0,0E0,0E0,0E0],"parents":[2147483647,0,0,1,1,2,2,3,3,4,4,5,5,6,6],"right_children":[2,4,6,8,10,12,14,-1,-1,-1,-1,-1,-1,-1,-1],"split_conditions":[5E-1,1.3362257E1,4.4809184E0,5E-1,2.5E0,5E-1,4.5E0,-1.522278E-1,-6.0982006E-3,-5.972432E-2,9.7447515E-2,-6.1307438E-2,2.7819177E-2,3.886812E-2,1.8268336E-1],"split_indices":[10,12,12,9,5,9,5,0,0,0,0,0,0,0,0],"split_type":[0,0,0,0,0,0,0,0,0,0,0,0,0,0,0],"sum_hessian":[4.309549E2,3.1128903E2,1.19665886E2,1.9349947E2,1.1778956E2,2.5868984E1,9.37969E1,1.2030159E2,7.3197876E1,3.337318E1,8.4416374E1,1.796549E1,7.903495E0,4.265687E1,5.1140026E1],"tree_param":{"num_deleted":"0","num_feature":"14","num_nodes":"15","size_leaf_vector":"0"}},{"base_weights":[1.6004017E-2,-2.0811014E-1,1.689014E-1,-5.737294E-1,-5.4771185E-2,-7.4116394E-2,3.2510135E-1,-6.9847584E-1,5.191457E-2,-5.7713246E-1,4.8849337E-2,-2.6809642E-1,5.7410765E-2,4.3794427E-2,4.6678752E-1],"categories":[],"categories_nodes":[],"categories_segments":[],"categories_sizes":[],"default_left":[1,1,1,1,1,1,1,0,0,0,0,0,0,0,0],"id":29,"left_children":[1,3,5,7,9,11,13,-1,-1,-1,-1,-1,-1,-1,-1],"loss_changes":[1.4679304E1,8.19175E0,1.046264E1,4.953891E0,7.931023E0,2.986566E0,5.4949093E0,0E0,0E0,0E0,0E0,0E0,0E0,0E0,0E0],"parents":[2147483647,0,0,1,1,2,2,3,3,4,4,5,5,6,6],"right_children":[2,4,6,8,10,12,14,-1,-1,-1,-1,-1,-1,-1,-1],"split_conditions":[9.310539E1,2.5E0,3.5E0,9.5E0,2.7471584E1,4.5E0,3.5E0,-1.9010355E-1,1.4129542E-2,-1.5707763E-1,1.3295281E-2,-7.296757E-2,1.5625438E-2,1.191949E-2,1.2704514E-1],"split_indices":[11,5,4,4,11,5,5,0,0,0,0,0,0,0,0],"split_type":[0,0,0,0,0,0,0,0,0,0,0,0,0,0,0],"sum_hessian":[4.2541345E2,1.6695197E2,2.584615E2,4.346837E1,1.23483604E2,9.674764E1,1.6171385E2,3.860369E1,4.864677E0,2.1623562E1,1.0186005E2,4.4032703E1,5.2714935E1,5.992956E1,1.01784294E2],"tree_param":{"num_deleted":"0","num_feature":"14","num_nodes":"15","size_leaf_vector":"0"}},{"base_weights":[9.864485E-3,-2.382585E-1,2.0621508E-1,-4.0301087E-1,1.0830374E-2,-1.3120706E-1,3.4776416E-1,-4.9133867E-1,-0E0,-1.3095964E-1,2.943745E-1,-2.7920014E-1,1.1605982E-1,2.0833617E-1,6.6873914E-1],"categories":[],"categories_nodes":[],"categories_segments":[],"categories_sizes":[],"default_left":[1,1,1,1,1,1,1,0,0,0,0,0,0,0,0],"id":30,"left_children":[1,3,5,7,9,11,13,-1,-1,-1,-1,-1,-1,-1,-1],"loss_changes":[2.0322546E1,8.186402E0,1.1905418E1,3.6269836E0,3.2185924E0,2.8948069E0,5.6382217E0,0E0,0E0,0E0,0E0,0E0,0E0,0E0,0E0],"parents":[2147483647,0,0,1,1,2,2,3,3,4,4,5,5,6,6],"right_children":[2,4,6,8,10,12,14,-1,-1,-1,-1,-1,-1,-1,-1],"split_conditions":[9.30748E0,5E-1,2.5E0,8.5E0,6.5E0,5E-1,5E-1,-1.3372721E-1,-0E0,-3.564317E-2,8.011965E-2,-7.5989656E-2,3.15879E-2,5.6702673E-2,1.8201014E-1],"split_indices":[12,9,8,5,4,9,9,0,0,0,0,0,0,0,0],"split_type":[0,0,0,0,0,0,0,0,0,0,0,0,0,0,0],"sum_hessian":[4.13255E2,1.7790785E2,2.3534714E2,1.10859436E2,6.7048416E1,6.551576E1,1.6983138E2,8.876522E1,2.2094213E1,4.1013397E1,2.6035017E1,4.5735203E1,1.9780558E1,1.2561611E2,4.4215267E1],"tree_param":{"num_deleted":"0","num_feature":"14","num_nodes":"15","size_leaf_vector":"0"}},{"base_weights":[1.805952E-2,-4.9261796E-1,9.236273E-2,-6.151483E-1,-0E0,-1.6857477E-1,2.8745815E-1,-7.549689E-1,-6.0485816E-3,-0E0,3.0948365E-1,-3.5016444E-1,1.9849493E-1,1.5503699E-1,7.6763505E-1],"categories":[],"categories_nodes":[],"categories_segments":[],"categories_sizes":[],"default_left":[1,1,1,1,1,1,1,0,0,0,0,0,0,0,0],"id":31,"left_children":[1,3,5,7,9,11,13,-1,-1,-1,-1,-1,-1,-1,-1],"loss_changes":[1.4865551E1,4.140465E0,1.8830748E1,2.1077824E0,5.6472546E-1,1.0645639E1,1.1421658E1,0E0,0E0,0E0,0E0,0E0,0E0,0E0,0E0],"parents":[2147483647,0,0,1,1,2,2,3,3,4,4,5,5,6,6],"right_children":[2,4,6,8,10,12,14,-1,-1,-1,-1,-1,-1,-1,-1],"split_conditions":[3.0802066E0,1.89202E2,9.132537E1,8.5E0,1.4176812E0,1.675765E1,5E-1,-2.054792E-1,-1.6462371E-3,-0E0,8.423189E-2,-9.5303945E-2,5.402419E-2,4.2196278E-2,2.0892654E-1],"split_indices":[12,11,11,6,12,12,10,0,0,0,0,0,0,0,0],"split_type":[0,0,0,0,0,0,0,0,0,0,0,0,0,0,0],"sum_hessian":[4.0677493E2,4.6476837E1,3.602981E2,3.9823868E1,6.6529675E0,1.499917E2,2.1030638E2,2.927083E1,1.055304E1,3.3315215E0,3.3214462E0,1.03999985E2,4.5991722E1,1.7071443E2,3.9591957E1],"tree_param":{"num_deleted":"0","num_feature":"14","num_nodes":"15","size_leaf_vector":"0"}},{"base_weights":[-6.4606685E-3,-1.1090395E-1,2.577884E-1,-2.5748643E-1,1.12567745E-1,9.986618E-2,5.659767E-1,-6.142649E-1,-1.580152E-1,-0E0,3.1989002E-1,-3.0571021E-2,2.5601524E-1],"categories":[],"categories_nodes":[],"categories_segments":[],"categories_sizes":[],"default_left":[1,1,1,1,1,1,0,0,0,0,0,0,0],"id":32,"left_children":[1,3,5,7,9,11,-1,-1,-1,-1,-1,-1,-1],"loss_changes":[1.0894756E1,1.0041744E1,3.8782125E0,4.7877083E0,2.1341023E0,2.085648E0,0E0,0E0,0E0,0E0,0E0,0E0,0E0],"parents":[2147483647,0,0,1,1,2,2,3,3,4,4,5,5],"right_children":[2,4,6,8,10,12,-1,-1,-1,-1,-1,-1,-1],"split_conditions":[5E-1,6.5E0,5E-1,1.5E0,5E-1,4.5E0,1.5404136E-1,-1.6718394E-1,-4.300686E-2,-0E0,8.7064184E-2,-8.320488E-3,6.967944E-2],"split_indices":[10,4,9,6,9,5,0,0,0,0,0,0,0],"split_type":[0,0,0,0,0,0,0,0,0,0,0,0,0],"sum_hessian":[3.99939E2,2.9303006E2,1.06908936E2,1.8201654E2,1.1101352E2,7.714544E1,2.9763496E1,3.2483047E1,1.495335E2,7.866732E1,3.23462E1,3.632369E1,4.082175E1],"tree_param":{"num_deleted":"0","num_feature":"14","num_nodes":"13","size_leaf_vector":"0"}},{"base_weights":[-1.3574816E-3,-1.2827574E-1,3.1310704E-1,-3.3782434E-1,2.3304696E-1,1.0847599E-1,7.8831375E-1,-5.44999E-1,-9.603402E-2,1.2168642E-2,6.579159E-1,-2.3776663E-2,4.5708102E-1],"categories":[],"categories_nodes":[],"categories_segments":[],"categories_sizes":[],"default_left":[1,1,1,1,1,1,0,0,0,0,0,0,0],"id":33,"left_children":[1,3,5,7,9,11,-1,-1,-1,-1,-1,-1,-1],"loss_changes":[1.545342E1,2.2118713E1,8.671391E0,7.9249687E0,8.364637E0,4.676758E0,0E0,0E0,0E0,0E0,0E0,0E0,0E0],"parents":[2147483647,0,0,1,1,2,2,3,3,4,4,5,5],"right_children":[2,4,6,8,10,12,-1,-1,-1,-1,-1,-1,-1],"split_conditions":[1.522902E2,1.4806321E1,9.863115E0,5.5E0,9.2059746E1,1.856677E2,2.1455465E-1,-1.483319E-1,-2.6137494E-2,3.3119286E-3,1.7906438E-1,-6.4712735E-3,1.24403335E-1],"split_indices":[11,12,12,8,11,11,0,0,0,0,0,0,0],"split_type":[0,0,0,0,0,0,0,0,0,0,0,0,0],"sum_hessian":[3.9110385E2,2.8416895E2,1.06934906E2,1.833983E2,1.0077066E2,7.9840485E1,2.7094421E1,9.266571E1,9.073259E1,7.107914E1,2.969152E1,5.554548E1,2.4295004E1],"tree_param":{"num_deleted":"0","num_feature":"14","num_nodes":"13","size_leaf_vector":"0"}},{"base_weights":[-0E0,-3.5979623E-1,9.431118E-2,-8.2414377E-1,-1.4519101E-1,-4.414641E-1,1.9706562E-1,-3.596848E-1,1.3610943E-1,-5.2299017E-1,-0E0,5.590843E-2,5.6150424E-1],"categories":[],"categories_nodes":[],"categories_segments":[],"categories_sizes":[],"default_left":[1,1,1,0,1,1,1,0,0,0,0,0,0],"id":34,"left_children":[1,3,5,-1,7,9,11,-1,-1,-1,-1,-1,-1],"loss_changes":[1.3701646E1,6.243266E0,1.660178E1,0E0,4.4263926E0,1.6994085E0,1.2175295E1,0E0,0E0,0E0,0E0,0E0,0E0],"parents":[2147483647,0,0,1,1,2,2,4,4,5,5,6,6],"right_children":[2,4,6,-1,8,10,12,-1,-1,-1,-1,-1,-1],"split_conditions":[5.442113E0,1.1888411E2,3.97472E1,-2.2430648E-1,6.5E0,8.5E0,7.5E0,-9.789509E-2,3.7044782E-2,-1.4234176E-1,-0E0,1.5216548E-2,1.5282412E-1],"split_indices":[12,11,11,0,4,4,5,0,0,0,0,0,0],"split_type":[0,0,0,0,0,0,0,0,0,0,0,0,0],"sum_hessian":[3.8584445E2,8.222981E1,3.0361462E2,2.0793772E1,6.1436043E1,4.4424046E1,2.5919058E2,3.840264E1,2.30334E1,3.7126522E1,7.297524E0,1.9284361E2,6.634697E1],"tree_param":{"num_deleted":"0","num_feature":"14","num_nodes":"13","size_leaf_vector":"0"}},{"base_weights":[-0E0,-1.07666634E-1,2.922507E-1,-2.3176716E-1,2.0308672E-1,-8.311284E-2,3.8329178E-1,-3.9431727E-1,-2.035666E-3,-5.60679E-2,3.832432E-1,-2.5612938E-1,-0E0,1.9353876E-1,6.873054E-1],"categories":[],"categories_nodes":[],"categories_segments":[],"categories_sizes":[],"default_left":[1,1,1,1,1,1,1,0,0,0,0,0,0,0,0],"id":35,"left_children":[1,3,5,7,9,11,13,-1,-1,-1,-1,-1,-1,-1,-1],"loss_changes":[1.2443333E1,1.085896E1,4.364293E0,6.825801E0,4.2406316E0,6.5783983E-1,3.2188377E0,0E0,0E0,0E0,0E0,0E0,0E0,0E0,0E0],"parents":[2147483647,0,0,1,1,2,2,3,3,4,4,5,5,6,6],"right_children":[2,4,6,8,10,12,14,-1,-1,-1,-1,-1,-1,-1,-1],"split_conditions":[7.5E0,5E-1,4.4276512E1,1.3091846E2,6.4336E1,5E-1,5E-1,-1.0732098E-1,-5.5404543E-4,-1.525995E-2,1.04306966E-1,-6.971051E-2,-0E0,5.267527E-2,1.8706329E-1],"split_indices":[7,10,11,11,11,10,9,0,0,0,0,0,0,0,0],"split_type":[0,0,0,0,0,0,0,0,0,0,0,0,0,0,0],"sum_hessian":[3.7992557E2,2.744037E2,1.0552186E2,2.0106721E2,7.333648E1,1.6439812E1,8.908205E1,1.11675125E2,8.93921E1,2.6340994E1,4.6995487E1,9.455254E0,6.984559E0,6.1411182E1,2.7670864E1],"tree_param":{"num_deleted":"0","num_feature":"14","num_nodes":"15","size_leaf_vector":"0"}},{"base_weights":[1.3855927E-3,-2.4256562E-1,1.3378198E-1,-3.9018053E-1,-0E0,1.50838E-2,3.7818143E-1,-4.5570588E-1,-0E0,-1.571411E-1,2.0643187E-1,-3.1924346E-1,1.390708E-1,-7.163992E-2,4.4471824E-1],"categories":[],"categories_nodes":[],"categories_segments":[],"categories_sizes":[],"default_left":[1,1,1,1,1,1,1,0,0,0,0,0,0,0,0],"id":36,"left_children":[1,3,5,7,9,11,13,-1,-1,-1,-1,-1,-1,-1,-1],"loss_changes":[1.1940306E1,5.304821E0,6.4410753E0,2.924057E0,1.6626074E0,7.046406E0,3.0856485E0,0E0,0E0,0E0,0E0,0E0,0E0,0E0,0E0],"parents":[2147483647,0,0,1,1,2,2,3,3,4,4,5,5,6,6],"right_children":[2,4,6,8,10,12,14,-1,-1,-1,-1,-1,-1,-1,-1],"split_conditions":[3.5E0,5E-1,5E-1,1.8454907E2,4.5E0,2.5E0,5E-1,-1.2402906E-1,-0E0,-4.2768955E-2,5.6184378E-2,-8.688821E-2,3.7850775E-2,-1.9498173E-2,1.2103857E-1],"split_indices":[6,9,9,11,8,8,5,0,0,0,0,0,0,0,0],"split_type":[0,0,0,0,0,0,0,0,0,0,0,0,0,0,0],"sum_hessian":[3.7112762E2,1.24599396E2,2.4652823E2,8.1420555E1,4.317884E1,1.7317398E2,7.335425E1,7.308251E1,8.338042E0,1.957009E1,2.360875E1,4.1475864E1,1.3169812E2,5.6317244E0,6.772252E1],"tree_param":{"num_deleted":"0","num_feature":"14","num_nodes":"15","size_leaf_vector":"0"}},{"base_weights":[-0E0,-1.9651166E-1,2.1420397E-1,-5.467294E-1,2.169207E-2,6.7792144E-3,4.852792E-1,-6.4393145E-1,-6.717824E-2,-9.184791E-2,4.0746266E-1,-6.0919855E-2,5.715424E-1,-0E0,5.581325E-1],"categories":[],"categories_nodes":[],"categories_segments":[],"categories_sizes":[],"default_left":[1,1,1,1,1,1,1,0,0,0,0,0,0,0,0],"id":37,"left_children":[1,3,5,7,9,11,13,-1,-1,-1,-1,-1,-1,-1,-1],"loss_changes":[1.5861664E1,1.604672E1,9.183929E0,2.169735E0,5.9649053E0,5.2592154E0,3.2408772E0,0E0,0E0,0E0,0E0,0E0,0E0,0E0,0E0],"parents":[2147483647,0,0,1,1,2,2,3,3,4,4,5,5,6,6],"right_children":[2,4,6,8,10,12,14,-1,-1,-1,-1,-1,-1,-1,-1],"split_conditions":[1.104644E1,1.26909515E2,9.306598E1,8.5E0,5E-1,1.9006212E1,5E-1,-1.7525825E-1,-1.8283842E-2,-2.4998164E-2,1.1089875E-1,-1.6580503E-2,1.5555619E-1,-0E0,1.5190643E-1],"split_indices":[12,11,11,4,9,12,4,0,0,0,0,0,0,0,0],"split_type":[0,0,0,0,0,0,0,0,0,0,0,0,0,0,0],"sum_hessian":[3.716057E2,1.9354605E2,1.7805968E2,7.625728E1,1.1728877E2,1.0646305E2,7.159663E1,5.9273907E1,1.6983368E1,8.8208954E1,2.9079815E1,9.4019806E1,1.2443237E1,7.6957755E0,6.3900856E1],"tree_param":{"num_deleted":"0","num_feature":"14","num_nodes":"15","size_leaf_vector":"0"}},{"base_weights":[3.826084E-3,-2.3124129E-1,1.5524407E-1,-4.14421E-1,6.6564746E-2,2.2892231E-2,4.729511E-1,-6.099838E-1,-5.3894106E-2,-6.4241774E-2,2.4648875E-1,-7.091811E-2,3.6168325E-1,-0E0,5.7923806E-1],"categories":[],"categories_nodes":[],"categories_segments":[],"categories_sizes":[],"default_left":[1,1,1,1,1,1,1,0,0,0,0,0,0,0,0],"id":38,"left_children":[1,3,5,7,9,11,13,-1,-1,-1,-1,-1,-1,-1,-1],"loss_changes":[1.2722098E1,8.205572E0,8.460272E0,4.890793E0,1.5787778E0,5.9075847E0,2.3243484E0,0E0,0E0,0E0,0E0,0E0,0E0,0E0,0E0],"parents":[2147483647,0,0,1,1,2,2,3,3,4,4,5,5,6,6],"right_children":[2,4,6,8,10,12,14,-1,-1,-1,-1,-1,-1,-1,-1],"split_conditions":[8.43465E0,5E-1,5E-1,6.5E0,4.5E0,5E-1,1.5E0,-1.6601875E-1,-1.4668311E-2,-1.7484628E-2,6.708662E-2,-1.930172E-2,9.843901E-2,-0E0,1.5765071E-1],"split_indices":[12,10,9,7,8,10,5,0,0,0,0,0,0,0,0],"split_type":[0,0,0,0,0,0,0,0,0,0,0,0,0,0,0],"sum_hessian":[3.5644113E2,1.3404506E2,2.2239607E2,8.6445015E1,4.7600044E1,1.6329718E2,5.9098896E1,5.136557E1,3.507944E1,2.2214088E1,2.5385954E1,1.24950264E2,3.8346912E1,1.3629255E1,4.5469643E1],"tree_param":{"num_deleted":"0","num_feature":"14","num_nodes":"15","size_leaf_vector":"0"}},{"base_weights":[1.645421E-2,-5.910768E-2,3.697551E-1,-2.739034E-1,1.2905996E-1,-5.3566046E-2,5.927472E-1,-6.571623E-1,-1.413573E-1,-4.4437438E-1,2.2734264E-1,-3.1050006E-1,1.2811492E-1,-0E0,6.564193E-1],"categories":[],"categories_nodes":[],"categories_segments":[],"categories_sizes":[],"default_left":[1,1,1,1,1,1,1,0,0,0,0,0,0,0,0],"id":39,"left_children":[1,3,5,7,9,11,13,-1,-1,-1,-1,-1,-1,-1,-1],"loss_changes":[1.0266116E1,1.2254734E1,7.5847692E0,5.457322E0,8.489385E0,1.528372E0,7.7422523E-1,0E0,0E0,0E0,0E0,0E0,0E0,0E0,0E0],"parents":[2147483647,0,0,1,1,2,2,3,3,4,4,5,5,6,6],"right_children":[2,4,6,8,10,12,14,-1,-1,-1,-1,-1,-1,-1,-1],"split_conditions":[1.6554218E1,1.1883298E2,4.070849E1,7.455168E0,1.8303375E0,6.5E0,1.6936623E1,-1.7885928E-1,-3.8473092E-2,-1.20944984E-1,6.1875645E-2,-8.450852E-2,3.4868926E-2,-0E0,1.7865705E-1],"split_indices":[12,11,11,12,12,7,12,0,0,0,0,0,0,0,0],"split_type":[0,0,0,0,0,0,0,0,0,0,0,0,0,0,0],"sum_hessian":[3.5706958E2,2.9135382E2,6.5715775E1,1.4036575E2,1.5098805E2,2.0316269E1,4.5399506E1,2.9651932E1,1.1071382E2,1.784803E1,1.3314003E2,1.2126926E1,8.189343E0,7.0586925E0,3.8340813E1],"tree_param":{"num_deleted":"0","num_feature":"14","num_nodes":"15","size_leaf_vector":"0"}},{"base_weights":[-1.2612331E-2,-2.1361963E-1,1.3511959E-1,-3.357017E-1,5.4535363E-2,-2.0374224E-2,3.458294E-1,-4.5551535E-1,-0E0,-6.539113E-2,3.9634413E-1,-1.0971119E-1,4.6063992E-1,-0E0,4.9096495E-1],"categories":[],"categories_nodes":[],"categories_segments":[],"categories_sizes":[],"default_left":[1,1,1,1,1,1,1,0,0,0,0,0,0,0,0],"id":40,"left_children":[1,3,5,7,9,11,13,-1,-1,-1,-1,-1,-1,-1,-1],"loss_changes":[1.06160755E1,5.6659846E0,7.129678E0,5.3265247E0,2.5854385E0,4.202465E0,5.17966E0,0E0,0E0,0E0,0E0,0E0,0E0,0E0,0E0],"parents":[2147483647,0,0,1,1,2,2,3,3,4,4,5,5,6,6],"right_children":[2,4,6,8,10,12,14,-1,-1,-1,-1,-1,-1,-1,-1],"split_conditions":[4.5E0,5E-1,5.5E0,1.644588E2,1.2093977E1,1.7692228E1,7.1068085E1,-1.2397721E-1,-0E0,-1.7797446E-2,1.0787263E-1,-2.9859997E-2,1.2537196E-1,-0E0,1.3362549E-1],"split_indices":[8,10,5,11,12,12,11,0,0,0,0,0,0,0,0],"split_type":[0,0,0,0,0,0,0,0,0,0,0,0,0,0,0],"sum_hessian":[3.4724396E2,1.5223126E2,1.950127E2,1.0918311E2,4.3048153E1,1.0819527E2,8.681743E1,8.379469E1,2.538842E1,2.916449E1,1.3883663E1,9.636002E1,1.1835242E1,2.355096E1,6.326647E1],"tree_param":{"num_deleted":"0","num_feature":"14","num_nodes":"15","size_leaf_vector":"0"}},{"base_weights":[1.2938187E-3,-4.0211302E-1,8.884931E-2,-5.5663556E-1,-0E0,-1.2249204E-1,2.0891665E-1,-6.539227E-1,-0E0,-1.7839497E-1,1.413178E-1,-5.496535E-1,-0E0,1.355152E-1,7.787035E-1],"categories":[],"categories_nodes":[],"categories_segments":[],"categories_sizes":[],"default_left":[1,1,1,1,1,1,1,0,0,0,0,0,0,0,0],"id":41,"left_children":[1,3,5,7,9,11,13,-1,-1,-1,-1,-1,-1,-1,-1],"loss_changes":[1.1550353E1,2.8232517E0,7.516369E0,2.661458E0,6.419667E-1,4.9312243E0,5.876791E0,0E0,0E0,0E0,0E0,0E0,0E0,0E0,0E0],"parents":[2147483647,0,0,1,1,2,2,3,3,4,4,5,5,6,6],"right_children":[2,4,6,8,10,12,14,-1,-1,-1,-1,-1,-1,-1,-1],"split_conditions":[1.5E0,5E-1,3.5E0,9.5E0,6.5E0,1.5E0,9.5E0,-1.7797756E-1,-0E0,-4.85536E-2,3.846234E-2,-1.495987E-1,-0E0,3.6883052E-2,2.1193904E-1],"split_indices":[7,9,6,5,13,4,8,0,0,0,0,0,0,0,0],"split_type":[0,0,0,0,0,0,0,0,0,0,0,0,0,0,0],"sum_hessian":[3.3921713E2,5.4853146E1,2.8436398E2,3.6506535E1,1.8346611E1,9.709145E1,1.8727254E2,3.1966944E1,4.539591E0,1.1997444E1,6.349166E0,1.8697285E1,7.8394165E1,1.7177075E2,1.5501778E1],"tree_param":{"num_deleted":"0","num_feature":"14","num_nodes":"15","size_leaf_vector":"0"}},{"base_weights":[-0E0,-1.2426989E-1,2.2186254E-1,-2.38279E-1,1.3502868E-1,8.712045E-2,5.1456016E-1,-3.7086633E-1,-0E0,-0E0,3.134167E-1,-3.323059E-2,1.7580839E-1,-0E0,5.576953E-1],"categories":[],"categories_nodes":[],"categories_segments":[],"categories_sizes":[],"default_left":[1,1,1,1,1,1,1,0,0,0,0,0,0,1,1],"id":42,"left_children":[1,3,5,7,9,11,-1,-1,-1,-1,-1,-1,-1,-1,-1],"loss_changes":[9.645336E0,6.6449366E0,3.771719E0,5.163905E0,1.5550294E0,1.3153574E0,1.0840416E-1,0E0,0E0,0E0,0E0,0E0,0E0,0E0,0E0],"parents":[2147483647,0,0,1,1,2,2,3,3,4,4,5,5,6,6],"right_children":[2,4,6,8,10,12,-1,-1,-1,-1,-1,-1,-1,-1,-1],"split_conditions":[6.5E0,5E-1,5E-1,5E-1,6.5E0,3.5E0,1.4004739E-1,-1.0093836E-1,-0E0,-0E0,8.5302345E-2,-9.044341E-3,4.784961E-2,-0E0,1.5178744E-1],"split_indices":[4,10,9,9,6,6,6,0,0,0,0,0,0,2147483647,2147483647],"split_type":[0,0,0,0,0,0,0,0,0,0,0,0,0,0,0],"sum_hessian":[3.384389E2,2.1255568E2,1.2588321E2,1.5303497E2,5.9520706E1,9.307332E1,3.280989E1,9.920484E1,5.383013E1,3.473915E1,2.4781557E1,3.0796314E1,6.2277008E1,4.9134393E0,2.789645E1],"tree_param":{"num_deleted":"2","num_feature":"14","num_nodes":"15","size_leaf_vector":"0"}},{"base_weights":[-1.0889919E-2,-6.706105E-2,5.315301E-1,-2.4252948E-1,1.3940138E-1,-0E0,6.369108E-1,-4.4460568E-1,6.1961073E-2,-2.3589695E-2,4.319806E-1],"categories":[],"categories_nodes":[],"categories_segments":[],"categories_sizes":[],"default_left":[1,1,1,1,1,0,0,0,0,0,0],"id":43,"left_children":[1,3,5,7,9,-1,-1,-1,-1,-1,-1],"loss_changes":[9.592399E0,1.170768E1,2.333252E0,1.1678024E1,7.5652704E0,0E0,0E0,0E0,0E0,0E0,0E0],"parents":[2147483647,0,0,1,1,2,2,3,3,4,4],"right_children":[2,4,6,8,10,-1,-1,-1,-1,-1,-1],"split_conditions":[1.8565536E2,1.212076E1,1.5444826E0,5E-1,9.1337326E1,-0E0,1.7334744E-1,-1.21007934E-1,1.686389E-2,-6.4203865E-3,1.1757178E-1],"split_indices":[11,12,12,9,11,0,0,0,0,0,0],"split_type":[0,0,0,0,0,0,0,0,0,0,0],"sum_hessian":[3.3911823E2,3.1261407E2,2.6504162E1,1.738792E2,1.3873486E2,3.0746553E0,2.3429506E1,1.07672806E2,6.620639E1,8.631786E1,5.2417007E1],"tree_param":{"num_deleted":"0","num_feature":"14","num_nodes":"11","size_leaf_vector":"0"}},{"base_weights":[2.0472713E-2,-3.3580822E-1,1.22079454E-1,-6.276033E-1,-1.0057392E-1,-5.6899628E-3,3.8746846E-1,-0E0,-6.701907E-1,-3.30957E-1,3.7729032E-2,-1.4277773E-1,2.5974852E-1,8.810286E-2,6.0793126E-1],"categories":[],"categories_nodes":[],"categories_segments":[],"categories_sizes":[],"default_left":[1,1,1,1,1,1,1,1,1,0,0,0,0,0,0],"id":44,"left_children":[1,3,5,-1,9,11,13,-1,-1,-1,-1,-1,-1,-1,-1],"loss_changes":[1.172374E1,3.228496E0,9.735952E0,1.4573574E-1,2.0611856E0,6.283723E0,4.511092E0,0E0,0E0,0E0,0E0,0E0,0E0,0E0,0E0],"parents":[2147483647,0,0,1,1,2,2,3,3,4,4,5,5,6,6],"right_children":[2,4,6,-1,10,12,14,-1,-1,-1,-1,-1,-1,-1,-1],"split_conditions":[5.442113E0,1.4626955E2,1.2288811E2,-1.7081423E-1,1.25E1,7.5E0,4.5E0,-0E0,-1.824052E-1,-9.0076275E-2,1.0268677E-2,-3.8859688E-2,7.069553E-2,2.3978878E-2,1.6546011E-1],"split_indices":[12,11,11,3,3,7,7,2147483647,2147483647,0,0,0,0,0,0],"split_type":[0,0,0,0,0,0,0,0,0,0,0,0,0,0,0],"sum_hessian":[3.299348E2,6.7617004E1,2.623178E2,2.4545135E1,4.307187E1,1.7378557E2,8.853226E1,3.0126886E0,2.1532446E1,2.0127121E1,2.2944746E1,1.2025256E2,5.3533E1,4.2845177E1,4.568708E1],"tree_param":{"num_deleted":"2","num_feature":"14","num_nodes":"15","size_leaf_vector":"0"}},{"base_weights":[4.3788855E-3,-1.0405423E-1,3.1522912E-1,-2.4272187E-1,1.2837051E-1,-1.7772694E-3,5.1045847E-1,-3.8113925E-1,5.9370343E-2,-4.1351475E-2,4.6548045E-1,-3.6042413E-1,4.0711802E-1,-0E0,5.8374965E-1],"categories":[],"categories_nodes":[],"categories_segments":[],"categories_sizes":[],"default_left":[1,1,1,1,1,1,1,0,0,0,0,0,0,0,0],"id":45,"left_children":[1,3,5,7,9,11,13,-1,-1,-1,-1,-1,-1,-1,-1],"loss_changes":[1.1591708E1,8.080248E0,6.5956516E0,7.2655344E0,5.833108E0,5.1557636E0,2.3821888E0,0E0,0E0,0E0,0E0,0E0,0E0,0E0,0E0],"parents":[2147483647,0,0,1,1,2,2,3,3,4,4,5,5,6,6],"right_children":[2,4,6,8,10,12,14,-1,-1,-1,-1,-1,-1,-1,-1],"split_conditions":[5E-1,1.39472885E1,6.349401E1,1.679014E2,9.2505226E1,1.5018404E1,1.8290236E0,-1.0373433E-1,1.6158773E-2,-1.1254595E-2,1.266894E-1,-9.809632E-2,1.1080495E-1,-0E0,1.5887862E-1],"split_indices":[10,12,11,11,11,12,12,0,0,0,0,0,0,0,0],"split_type":[0,0,0,0,0,0,0,0,0,0,0,0,0,0,0],"sum_hessian":[3.265443E2,2.38691E2,8.78533E1,1.547076E2,8.39834E1,3.0630379E1,5.7222923E1,1.1008178E2,4.462582E1,5.349598E1,3.0487417E1,1.9033539E1,1.159684E1,7.0820985E0,5.0140823E1],"tree_param":{"num_deleted":"0","num_feature":"14","num_nodes":"15","size_leaf_vector":"0"}},{"base_weights":[-0E0,-8.147865E-2,3.0446276E-1,-2.0642821E-1,1.663535E-1,-0E0,4.3559957E-1,-3.1699818E-1,4.4107784E-2,-2.9679602E-2,3.4943908E-1,-1.6773194E-1,1.4030662E-1,-0E0,4.7019896E-1],"categories":[],"categories_nodes":[],"categories_segments":[],"categories_sizes":[],"default_left":[1,1,1,1,1,1,1,0,0,0,0,0,0,0,0],"id":46,"left_children":[1,3,5,7,9,11,13,-1,-1,-1,-1,-1,-1,-1,-1],"loss_changes":[7.9401994E0,8.07859E0,2.8618908E0,5.4534855E0,3.589347E0,5.878806E-1,6.381216E-1,0E0,0E0,0E0,0E0,0E0,0E0,0E0,0E0],"parents":[2147483647,0,0,1,1,2,2,3,3,4,4,5,5,6,6],"right_children":[2,4,6,8,10,12,14,-1,-1,-1,-1,-1,-1,-1,-1],"split_conditions":[8.5E0,5E-1,5.5538826E0,5E-1,8.264248E0,5.5E0,5E-1,-8.627711E-2,1.2004776E-2,-8.077871E-3,9.510653E-2,-4.5651454E-2,3.8187128E-2,-0E0,1.2797363E-1],"split_indices":[6,9,12,10,12,13,8,0,0,0,0,0,0,0,0],"split_type":[0,0,0,0,0,0,0,0,0,0,0,0,0,0,0],"sum_hessian":[3.1770056E2,2.5291573E2,6.4784836E1,1.7368576E2,7.922996E1,1.9369501E1,4.5415337E1,1.2545639E2,4.8229374E1,3.413494E1,4.5095016E1,9.878686E0,9.490815E0,3.9164987E0,4.1498837E1],"tree_param":{"num_deleted":"0","num_feature":"14","num_nodes":"15","size_leaf_vector":"0"}},{"base_weights":[1.1565675E-2,-1.8458357E-1,1.7288303E-1,-3.9979398E-1,-0E0,-3.076954E-1,2.6162112E-1,-5.507434E-1,-2.3940017E-2,-3.0373746E-1,1.4103232E-1,-4.0069735E-1,-0E0,-8.368749E-2,3.3853638E-1],"categories":[],"categories_nodes":[],"categories_segments":[],"categories_sizes":[],"default_left":[1,1,1,1,1,1,1,0,0,0,0,0,0,0,0],"id":47,"left_children":[1,3,5,7,9,11,13,-1,-1,-1,-1,-1,-1,-1,-1],"loss_changes":[1.0324317E1,5.8742204E0,7.998819E0,2.644287E0,3.3455913E0,1.2640545E0,4.844391E0,0E0,0E0,0E0,0E0,0E0,0E0,0E0,0E0],"parents":[2147483647,0,0,1,1,2,2,3,3,4,4,5,5,6,6],"right_children":[2,4,6,8,10,12,14,-1,-1,-1,-1,-1,-1,-1,-1],"split_conditions":[4.5E0,4.5E0,3.9776447E1,1.444153E2,2.272805E1,9.5E0,1.5E0,-1.4989534E-1,-6.5157334E-3,-8.2667954E-2,3.8384642E-2,-1.0905744E-1,-0E0,-2.2777151E-2,9.213915E-2],"split_indices":[7,5,11,11,1,8,8,0,0,0,0,0,0,0,0],"split_type":[0,0,0,0,0,0,0,0,0,0,0,0,0,0,0],"sum_hessian":[3.2183585E2,1.3958836E2,1.822475E2,6.448112E1,7.510725E1,2.3974243E1,1.5827325E2,4.1430218E1,2.3050898E1,2.1597958E1,5.3509293E1,2.0953318E1,3.0209248E0,2.4149649E1,1.341236E2],"tree_param":{"num_deleted":"0","num_feature":"14","num_nodes":"15","size_leaf_vector":"0"}},{"base_weights":[-7.862158E-3,-1.9739704E-1,8.900304E-2,-2.8458664E-1,1.3121815E-1,-3.397236E-1,1.4561582E-1,-5.01508E-1,-7.814535E-2,-1.1992971E-1,3.6310676E-1,-5.211522E-1,-0E0,-0E0,4.1986555E-1],"categories":[],"categories_nodes":[],"categories_segments":[],"categories_sizes":[],"default_left":[1,1,1,1,1,1,1,0,0,0,0,0,0,0,0],"id":48,"left_children":[1,3,5,7,9,11,13,-1,-1,-1,-1,-1,-1,-1,-1],"loss_changes":[6.028554E0,3.6616879E0,4.6728983E0,3.043621E0,1.8084099E0,1.6701949E0,7.131337E0,0E0,0E0,0E0,0E0,0E0,0E0,0E0,0E0],"parents":[2147483647,0,0,1,1,2,2,3,3,4,4,5,5,6,6],"right_children":[2,4,6,8,10,12,14,-1,-1,-1,-1,-1,-1,-1,-1],"split_conditions":[3.5E0,1.6940218E1,2.466374E0,1.0837805E2,4.677185E1,8.5E0,1.3488582E2,-1.36495E-1,-2.126875E-2,-3.264116E-2,9.8826446E-2,-1.4184153E-1,-0E0,-0E0,1.14274435E-1],"split_indices":[5,12,12,11,11,6,11,0,0,0,0,0,0,0,0],"split_type":[0,0,0,0,0,0,0,0,0,0,0,0,0,0,0],"sum_hessian":[3.117564E2,1.1137967E2,2.0037672E2,9.3010086E1,1.8369581E1,1.7833601E1,1.8254312E2,3.893071E1,5.407938E1,5.3584275E0,1.3011153E1,1.2247021E1,5.58658E0,1.2239864E2,6.0144485E1],"tree_param":{"num_deleted":"0","num_feature":"14","num_nodes":"15","size_leaf_vector":"0"}},{"base_weights":[7.1334103E-3,-9.5259555E-2,2.4820362E-1,-3.795979E-1,4.140272E-3,6.290773E-2,4.374097E-1,-4.4162524E-1,-0E0,-1.3493732E-1,2.0486327E-1,-0E0,3.2558513E-1,-0E0,5.51709E-1],"categories":[],"categories_nodes":[],"categories_segments":[],"categories_sizes":[],"default_left":[1,1,1,1,1,1,1,0,0,0,0,0,0,0,0],"id":49,"left_children":[1,3,5,7,9,11,13,-1,-1,-1,-1,-1,-1,-1,-1],"loss_changes":[8.008479E0,6.7774153E0,2.4120955E0,2.2640429E0,4.555484E0,1.5926522E0,2.3668413E0,0E0,0E0,0E0,0E0,0E0,0E0,0E0,0E0],"parents":[2147483647,0,0,1,1,2,2,3,3,4,4,5,5,6,6],"right_children":[2,4,6,8,10,12,14,-1,-1,-1,-1,-1,-1,-1,-1],"split_conditions":[5E-1,2.5E0,1.0537712E1,1.877644E1,1.2133078E1,5E-1,1.5E0,-1.2019675E-1,-0E0,-3.672577E-2,5.575745E-2,-0E0,8.861422E-2,-0E0,1.5015815E-1],"split_indices":[9,4,12,12,12,10,8,0,0,0,0,0,0,0,0],"split_type":[0,0,0,0,0,0,0,0,0,0,0,0,0,0,0],"sum_hessian":[3.0725867E2,2.1104646E2,9.6212204E1,5.789419E1,1.5315227E2,5.557424E1,4.0637966E1,5.3709583E1,4.184606E0,8.5199745E1,6.795252E1,4.095384E1,1.4620402E1,8.274388E0,3.236358E1],"tree_param":{"num_deleted":"0","num_feature":"14","num_nodes":"15","size_leaf_vector":"0"}},{"base_weights":[-6.036976E-3,-1.6748576E-1,1.1174104E-1,-2.6385912E-1,6.391639E-2,-7.8545636E-5,3.1929925E-1,-3.811993E-1,-0E0,-1.01841696E-1,4.5926413E-1,-2.3138016E-1,1.3517456E-1,-1.1160647E-2,4.3086508E-1],"categories":[],"categories_nodes":[],"categories_segments":[],"categories_sizes":[],"default_left":[1,1,1,1,1,1,1,0,0,0,0,0,0,0,0],"id":50,"left_children":[1,3,5,7,9,11,13,-1,-1,-1,-1,-1,-1,-1,-1],"loss_changes":[6.1037216E0,3.5562928E0,4.6950397E0,3.769072E0,3.2614388E0,3.7224302E0,3.3243632E0,0E0,0E0,0E0,0E0,0E0,0E0,0E0,0E0],"parents":[2147483647,0,0,1,1,2,2,3,3,4,4,5,5,6,6],"right_children":[2,4,6,8,10,12,14,-1,-1,-1,-1,-1,-1,-1,-1],"split_conditions":[4.5E0,1.5842122E2,6.5E0,7.5E0,8.476376E0,9.966643E1,4.8180876E0,-1.03750676E-1,-0E0,-2.7718164E-2,1.2499751E-1,-6.2974535E-2,3.679034E-2,-3.0375833E-3,1.1726817E-1],"split_indices":[6,11,8,5,12,11,12,0,0,0,0,0,0,0,0],"split_type":[0,0,0,0,0,0,0,0,0,0,0,0,0,0,0],"sum_hessian":[3.1013968E2,1.3737683E2,1.7276286E2,1.0270858E2,3.4668243E1,1.0781243E2,6.4950424E1,7.380581E1,2.8902777E1,2.2281082E1,1.2387162E1,4.4452045E1,6.3360386E1,1.2544794E1,5.2405632E1],"tree_param":{"num_deleted":"0","num_feature":"14","num_nodes":"15","size_leaf_vector":"0"}},{"base_weights":[-0E0,-8.450243E-2,2.093985E-1,-1.4514323E-1,3.1187108E-1,-2.974218E-1,2.907497E-1,-2.4268965E-1,5.0957292E-2,-0E0,4.6712363E-1,-0E0,3.7765038E-1],"categories":[],"categories_nodes":[],"categories_segments":[],"categories_sizes":[],"default_left":[1,1,1,1,1,0,1,0,0,0,0,0,0],"id":51,"left_children":[1,3,5,7,9,-1,11,-1,-1,-1,-1,-1,-1],"loss_changes":[5.234804E0,5.2325993E0,3.6114929E0,4.279981E0,1.8628409E0,0E0,1.5933428E0,0E0,0E0,0E0,0E0,0E0,0E0],"parents":[2147483647,0,0,1,1,2,2,3,3,4,4,6,6],"right_children":[2,4,6,8,10,-1,12,-1,-1,-1,-1,-1,-1],"split_conditions":[5E-1,9.5E0,2.2878304E1,7.5E0,6.711908E1,-8.094903E-2,2.5E0,-6.605263E-2,1.3869001E-2,-0E0,1.2713662E-1,-0E0,1.0278477E-1],"split_indices":[10,7,11,6,11,0,7,0,0,0,0,0,0],"split_type":[0,0,0,0,0,0,0,0,0,0,0,0,0],"sum_hessian":[3.038E2,2.2386452E2,7.9935455E1,1.9986337E2,2.400115E1,6.7784934E0,7.315697E1,1.3973581E2,6.012756E1,6.192612E0,1.7808538E1,1.9671057E1,5.348591E1],"tree_param":{"num_deleted":"0","num_feature":"14","num_nodes":"13","size_leaf_vector":"0"}},{"base_weights":[-0E0,-1.8174185E-1,1.23410724E-1,-3.208155E-1,8.804504E-3,1.3967374E-2,4.6411592E-1,-4.4235954E-1,5.2524425E-2,-4.3667907E-1,2.4488616E-1,-6.548218E-2,3.8057345E-1,-0E0,6.745217E-1],"categories":[],"categories_nodes":[],"categories_segments":[],"categories_sizes":[],"default_left":[1,1,1,1,1,1,1,0,0,0,0,0,0,0,0],"id":52,"left_children":[1,3,5,7,9,11,13,-1,-1,-1,-1,-1,-1,-1,-1],"loss_changes":[6.9627495E0,3.98773E0,5.812339E0,4.4315615E0,5.179139E0,4.8858414E0,3.7119045E0,0E0,0E0,0E0,0E0,0E0,0E0,0E0,0E0],"parents":[2147483647,0,0,1,1,2,2,3,3,4,4,5,5,6,6],"right_children":[2,4,6,8,10,12,14,-1,-1,-1,-1,-1,-1,-1,-1],"split_conditions":[9.309223E0,5E-1,1.2950424E2,1.8526575E2,9.0199776E1,1.7910028E1,2.5E0,-1.203966E-1,1.4295526E-2,-1.1885055E-1,6.665045E-2,-1.7822227E-2,1.0358034E-1,-0E0,1.8358397E-1],"split_indices":[12,9,11,11,11,12,6,0,0,0,0,0,0,0,0],"split_type":[0,0,0,0,0,0,0,0,0,0,0,0,0,0,0],"sum_hessian":[3.034342E2,1.2455875E2,1.7887547E2,7.693239E1,4.762636E1,1.4176782E2,3.710765E1,6.1638416E1,1.5293969E1,1.2863945E1,3.4762417E1,1.13861565E2,2.7906258E1,1.2736861E1,2.4370789E1],"tree_param":{"num_deleted":"0","num_feature":"14","num_nodes":"15","size_leaf_vector":"0"}},{"base_weights":[-3.69728E-3,-2.3223859E-1,1.1962714E-1,-3.3039188E-1,-0E0,-0E0,2.6996136E-1,-4.3056327E-1,-2.5246091E-2,-9.783415E-2,8.938921E-2,-9.604263E-2,1.9192502E-1,-0E0,3.2231778E-1],"categories":[],"categories_nodes":[],"categories_segments":[],"categories_sizes":[],"default_left":[1,1,1,1,1,1,1,0,0,1,1,0,0,0,0],"id":53,"left_children":[1,3,5,7,-1,11,13,-1,-1,-1,-1,-1,-1,-1,-1],"loss_changes":[8.654553E0,2.6519995E0,3.552853E0,1.4892797E0,3.1771383E-1,1.9379926E0,1.2068138E0,0E0,0E0,0E0,0E0,0E0,0E0,0E0,0E0],"parents":[2147483647,0,0,1,1,2,2,3,3,4,4,5,5,6,6],"right_children":[2,4,6,8,-1,12,14,-1,-1,-1,-1,-1,-1,-1,-1],"split_conditions":[3.5E0,7.5E0,5.5E0,5E-1,-0E0,5E-1,1.5E0,-1.17186025E-1,-6.871206E-3,-2.6627433E-2,2.4328982E-2,-2.6139839E-2,5.223606E-2,-0E0,8.772495E-2],"split_indices":[4,7,5,9,13,9,13,0,0,2147483647,2147483647,0,0,0,0],"split_type":[0,0,0,0,0,0,0,0,0,0,0,0,0,0,0],"sum_hessian":[2.9412326E2,1.07858765E2,1.8626451E2,7.628479E1,3.1573977E1,1.0300847E2,8.325604E1,5.1800045E1,2.4484743E1,1.27816105E1,1.8792366E1,7.152692E1,3.148155E1,1.40030775E1,6.925296E1],"tree_param":{"num_deleted":"2","num_feature":"14","num_nodes":"15","size_leaf_vector":"0"}},{"base_weights":[3.5045266E-3,-3.9949257E-2,4.7269616E-1,-1.2432685E-1,1.7043906E-1,5.621983E-1,-0E0,-4.038134E-1,-0E0,-7.528417E-2,2.236442E-1,-0E0,6.292717E-1],"categories":[],"categories_nodes":[],"categories_segments":[],"categories_sizes":[],"default_left":[1,1,1,1,1,1,0,0,0,0,0,0,0],"id":54,"left_children":[1,3,5,7,9,11,-1,-1,-1,-1,-1,-1,-1],"loss_changes":[7.030805E0,4.826794E0,1.5142174E0,6.506482E0,1.2864687E0,4.8516464E-1,0E0,0E0,0E0,0E0,0E0,0E0,0E0],"parents":[2147483647,0,0,1,1,2,2,3,3,4,4,5,5],"right_children":[2,4,6,8,10,12,-1,-1,-1,-1,-1,-1,-1],"split_conditions":[9.5E0,5E-1,1.45E1,7.7722263E0,1.8296285E0,1.5E0,-0E0,-1.0990553E-1,-0E0,-2.0490026E-2,6.086904E-2,-0E0,1.7126831E-1],"split_indices":[8,10,3,12,12,6,0,0,0,0,0,0,0],"split_type":[0,0,0,0,0,0,0,0,0,0,0,0,0],"sum_hessian":[2.9829434E2,2.7134293E2,2.6951408E1,2.0107004E2,7.02729E1,2.3089449E1,3.8619595E0,5.6630222E1,1.4443982E2,5.7619224E0,6.451098E1,3.9542208E0,1.9135227E1],"tree_param":{"num_deleted":"0","num_feature":"14","num_nodes":"13","size_leaf_vector":"0"}},{"base_weights":[1.0500599E-2,-4.0698457E-1,5.184738E-2,-4.5887148E-1,-0E0,-2.0966738E-1,1.1586043E-1,-3.2066435E-1,-0E0,-1.3393655E-1,1.8014568E-1],"categories":[],"categories_nodes":[],"categories_segments":[],"categories_sizes":[],"default_left":[1,1,1,1,1,1,1,0,0,0,0],"id":55,"left_children":[1,-1,5,-1,-1,7,9,-1,-1,-1,-1],"loss_changes":[4.436947E0,3.570714E-1,4.469802E0,0E0,0E0,1.7127194E0,3.8139663E0,0E0,0E0,0E0,0E0],"parents":[2147483647,0,0,1,1,2,2,5,5,6,6],"right_children":[2,-1,6,-1,-1,8,10,-1,-1,-1,-1],"split_conditions":[2.2799652E0,-1.1076863E-1,1.5E0,-1.2489065E-1,-0E0,1.5905897E1,1.5E0,-8.727493E-2,-0E0,-3.6453392E-2,4.903009E-2],"split_indices":[12,6,7,2147483647,2147483647,12,5,0,0,0,0],"split_type":[0,0,0,0,0,0,0,0,0,0,0],"sum_hessian":[2.9163553E2,1.9957592E1,2.7167792E2,1.6845823E1,3.11177E0,4.6251957E1,2.2542598E2,3.495645E1,1.1295505E1,3.9329212E1,1.8609676E2],"tree_param":{"num_deleted":"2","num_feature":"14","num_nodes":"11","size_leaf_vector":"0"}},{"base_weights":[1.1840456E-2,-3.2206205E-1,1.15399174E-1,-4.1131753E-1,-0E0,4.6147835E-2,3.7249672E-1,-0E0,-4.742014E-1,-1.18203074E-1,1.5701596E-1,-2.7043201E-2,2.6792768E-1,-0E0,4.3443674E-1],"categories":[],"categories_nodes":[],"categories_segments":[],"categories_sizes":[],"default_left":[1,1,1,1,1,1,1,0,0,1,1,0,0,0,0],"id":56,"left_children":[1,3,5,7,-1,11,13,-1,-1,-1,-1,-1,-1,-1,-1],"loss_changes":[9.845711E0,2.1479201E0,3.2398412E0,1.810565E0,3.5628957E-1,3.583879E0,1.3475561E0,0E0,0E0,0E0,0E0,0E0,0E0,0E0,0E0],"parents":[2147483647,0,0,1,1,2,2,3,3,4,4,5,5,6,6],"right_children":[2,4,6,8,-1,12,14,-1,-1,-1,-1,-1,-1,-1,-1],"split_conditions":[5.8885353E1,8.5E0,8.5E0,1.9377968E1,-0E0,5E-1,5E-1,-0E0,-1.2906298E-1,-3.2171227E-2,4.2734895E-2,-7.3603243E-3,7.292164E-2,-0E0,1.1824026E-1],"split_indices":[11,7,5,1,11,9,6,0,0,2147483647,2147483647,0,0,0,0],"split_type":[0,0,0,0,0,0,0,0,0,0,0,0,0,0,0],"sum_hessian":[2.9110504E2,6.3146793E1,2.2795827E2,5.0414474E1,1.2732318E1,1.8798251E2,3.9975754E1,5.07023E0,4.5344242E1,5.341692E0,7.390626E0,1.3639473E2,5.1587788E1,4.128396E0,3.5847355E1],"tree_param":{"num_deleted":"2","num_feature":"14","num_nodes":"15","size_leaf_vector":"0"}},{"base_weights":[-1.7022979E-2,-1.5617687E-1,1.2472439E-1,-2.6569304E-1,1.8071141E-2,-0E0,3.1166133E-1,-3.335929E-1,-0E0,-1.5906197E-1,1.4162187E-1,-4.5665848E-1,6.522092E-2,-0E0,3.4423602E-1],"categories":[],"categories_nodes":[],"categories_segments":[],"categories_sizes":[],"default_left":[1,1,1,1,1,1,1,0,0,0,0,0,0,0,0],"id":57,"left_children":[1,3,5,7,9,11,13,-1,-1,-1,-1,-1,-1,-1,-1],"loss_changes":[5.8275156E0,3.4429653E0,3.1548235E0,1.8351598E0,1.2290838E0,2.5590904E0,6.839056E-1,0E0,0E0,0E0,0E0,0E0,0E0,0E0,0E0],"parents":[2147483647,0,0,1,1,2,2,3,3,4,4,5,5,6,6],"right_children":[2,4,6,8,10,12,14,-1,-1,-1,-1,-1,-1,-1,-1],"split_conditions":[5.5E0,1.392551E1,1.2372969E1,8.5E0,2.5E0,2.010239E1,5E-1,-9.0793684E-2,-0E0,-4.3291755E-2,3.85451E-2,-1.24288335E-1,1.775112E-2,-0E0,9.369041E-2],"split_indices":[4,12,12,7,6,1,6,0,0,0,0,0,0,0,0],"split_type":[0,0,0,0,0,0,0,0,0,0,0,0,0,0,0],"sum_hessian":[2.8720062E2,1.517701E2,1.3543051E2,9.927199E1,5.2498116E1,8.34236E1,5.200691E1,7.85222E1,2.0749786E1,1.47501135E1,3.7748E1,8.1082115E0,7.531539E1,4.069794E0,4.7937115E1],"tree_param":{"num_deleted":"0","num_feature":"14","num_nodes":"15","size_leaf_vector":"0"}},{"base_weights":[-0E0,-1.1329363E-1,2.1524441E-1,-3.916643E-1,-0E0,7.769111E-2,7.039286E-1,-5.5468166E-1,-7.392467E-2,-1.0278654E-1,4.0036714E-1,-1.26374E-1,1.993757E-1],"categories":[],"categories_nodes":[],"categories_segments":[],"categories_sizes":[],"default_left":[1,1,1,1,1,1,0,0,0,0,0,0,0],"id":58,"left_children":[1,3,5,7,9,11,-1,-1,-1,-1,-1,-1,-1],"loss_changes":[7.180826E0,6.6660137E0,5.251403E0,1.7267332E0,6.068141E0,2.3534193E0,0E0,0E0,0E0,0E0,0E0,0E0,0E0],"parents":[2147483647,0,0,1,1,2,2,3,3,4,4,5,5],"right_children":[2,4,6,8,10,12,-1,-1,-1,-1,-1,-1,-1],"split_conditions":[1.3491122E2,1.0454351E1,1.0919739E1,1.02795E2,5E-1,3.5E0,1.9158763E-1,-1.5096721E-1,-2.0120012E-2,-2.797532E-2,1.0896757E-1,-3.4395102E-2,5.426391E-2],"split_indices":[11,12,12,11,10,6,0,0,0,0,0,0,0],"split_type":[0,0,0,0,0,0,0,0,0,0,0,0,0],"sum_hessian":[2.855116E2,1.8508295E2,1.0042866E2,5.6582027E1,1.2850092E2,8.382719E1,1.660147E1,3.2050884E1,2.4531143E1,9.997852E1,2.8522392E1,2.5261026E1,5.856616E1],"tree_param":{"num_deleted":"0","num_feature":"14","num_nodes":"13","size_leaf_vector":"0"}},{"base_weights":[2.2372179E-2,-1.3580847E-1,1.8109046E-1,-4.1639933E-1,-1.6846813E-2,-3.9907888E-2,2.9841667E-1,-4.843904E-1,-0E0,-1.8526505E-1,1.2373662E-1,-1.604781E-1,6.7257084E-2,1.02604024E-1,5.006098E-1],"categories":[],"categories_nodes":[],"categories_segments":[],"categories_sizes":[],"default_left":[1,1,1,1,1,1,1,0,0,0,0,0,0,0,0],"id":59,"left_children":[1,3,5,7,9,11,13,-1,-1,-1,-1,-1,-1,-1,-1],"loss_changes":[7.233003E0,3.6908092E0,4.3764834E0,1.2529855E0,2.6296587E0,8.284311E-1,2.7563658E0,0E0,0E0,0E0,0E0,0E0,0E0,0E0,0E0],"parents":[2147483647,0,0,1,1,2,2,3,3,4,4,5,5,6,6],"right_children":[2,4,6,8,10,12,14,-1,-1,-1,-1,-1,-1,-1,-1],"split_conditions":[1.0614657E2,1.0457028E1,5.1347885E0,1.0102911E2,5.5E0,1.7871994E2,5.5E0,-1.318361E-1,-0E0,-5.0423425E-2,3.3677287E-2,-4.367718E-2,1.8305302E-2,2.7925646E-2,1.3625053E-1],"split_indices":[11,12,12,11,6,11,8,0,0,0,0,0,0,0,0],"split_type":[0,0,0,0,0,0,0,0,0,0,0,0,0,0,0],"sum_hessian":[2.7946564E2,1.3397224E2,1.454934E2,3.306734E1,1.009049E2,4.5252045E1,1.00241356E2,2.9104025E1,3.963318E0,5.1877228E1,4.9027668E1,2.929633E1,1.5955717E1,5.7819466E1,4.2421886E1],"tree_param":{"num_deleted":"0","num_feature":"14","num_nodes":"15","size_leaf_vector":"0"}},{"base_weights":[-0E0,-8.52214E-2,2.292088E-1,-1.9835994E-1,7.4365586E-2,-0E0,3.2862392E-1,-2.733635E-1,4.591362E-2,1.674518E-1,-1.1541661E-1,-3.6007393E-2,2.0108332E-3,-0E0,3.9145067E-1],"categories":[],"categories_nodes":[],"categories_segments":[],"categories_sizes":[],"default_left":[1,1,1,1,1,1,1,0,0,0,0,1,1,0,0],"id":60,"left_children":[1,3,5,7,9,-1,13,-1,-1,-1,-1,-1,-1,-1,-1],"loss_changes":[5.582056E0,4.049468E0,1.9635248E0,2.8601856E0,1.5875039E0,2.2612544E-2,1.5771103E0,0E0,0E0,0E0,0E0,0E0,0E0,0E0,0E0],"parents":[2147483647,0,0,1,1,2,2,3,3,4,4,5,5,6,6],"right_children":[2,4,6,8,10,-1,14,-1,-1,-1,-1,-1,-1,-1,-1],"split_conditions":[5E-1,6.5E0,2.5E0,3.1729843E1,3.75E1,-0E0,2.380968E0,-7.44011E-2,1.2496269E-2,4.557521E-2,-3.1412836E-2,-9.800101E-3,5.472867E-4,-0E0,1.06540784E-1],"split_indices":[10,4,4,1,0,13,12,0,0,0,0,2147483647,2147483647,0,0],"split_type":[0,0,0,0,0,0,0,0,0,0,0,0,0,0,0],"sum_hessian":[2.8096674E2,2.0614403E2,7.482271E1,1.27445755E2,7.869827E1,2.1563295E1,5.3259415E1,1.03409744E2,2.4036013E1,5.993124E1,1.876703E1,1.4837165E1,6.7261305E0,6.1919703E0,4.7067448E1],"tree_param":{"num_deleted":"2","num_feature":"14","num_nodes":"15","size_leaf_vector":"0"}},{"base_weights":[-0E0,-9.929131E-2,2.1980125E-1,-1.4480364E-1,2.3734918E-1,-0E0,3.4875864E-1,-1.9159366E-1,1.7645621E-1,-0E0,4.1033897E-1,-3.877108E-2,1.642507E-1,-0E0,4.4159898E-1],"categories":[],"categories_nodes":[],"categories_segments":[],"categories_sizes":[],"default_left":[1,1,1,1,1,1,1,0,0,0,0,1,1,0,0],"id":61,"left_children":[1,3,5,7,9,-1,13,-1,-1,-1,-1,-1,-1,-1,-1],"loss_changes":[6.0509562E0,2.8234444E0,2.2567887E0,2.7382708E0,1.4665302E0,3.155162E-1,1.4959588E0,0E0,0E0,0E0,0E0,0E0,0E0,0E0,0E0],"parents":[2147483647,0,0,1,1,2,2,3,3,4,4,5,5,6,6],"right_children":[2,4,6,8,10,-1,14,-1,-1,-1,-1,-1,-1,-1,-1],"split_conditions":[5E-1,9.5E0,7.525631E0,9.5E0,5.564152E0,-0E0,1.5E0,-5.2145876E-2,4.8025932E-2,-0E0,1.11681595E-1,-1.0552291E-2,4.4703968E-2,-0E0,1.201896E-1],"split_indices":[9,6,12,4,12,6,4,0,0,0,0,2147483647,2147483647,0,0],"split_type":[0,0,0,0,0,0,0,0,0,0,0,0,0,0,0],"sum_hessian":[2.7159854E2,1.8776912E2,8.382941E1,1.7182713E2,1.5941982E1,3.3530113E1,5.0299297E1,1.5621425E2,1.5612896E1,3.6117103E0,1.2330273E1,2.600178E1,7.5283327E0,1.2223875E1,3.807542E1],"tree_param":{"num_deleted":"2","num_feature":"14","num_nodes":"15","size_leaf_vector":"0"}},{"base_weights":[5.903257E-3,-1.5002051E-1,1.3855065E-1,-2.0575348E-1,3.4303477E-1,-1.0231621E-1,2.0190567E-1,-3.3453345E-1,3.281557E-2,-2.4498214E-1,-0E0,9.66733E-2,4.202239E-1],"categories":[],"categories_nodes":[],"categories_segments":[],"categories_sizes":[],"default_left":[1,1,1,1,0,1,1,0,0,0,0,0,0],"id":62,"left_children":[1,3,5,7,-1,9,11,-1,-1,-1,-1,-1,-1],"loss_changes":[5.714493E0,3.2310605E0,2.6381845E0,4.1119313E0,0E0,8.378059E-1,1.8989944E0,0E0,0E0,0E0,0E0,0E0,0E0],"parents":[2147483647,0,0,1,1,2,2,3,3,5,5,6,6],"right_children":[2,4,6,8,-1,10,12,-1,-1,-1,-1,-1,-1],"split_conditions":[4.5E0,1.8964851E1,1.5E0,5E-1,9.336347E-2,5E-1,1.4142715E1,-9.104967E-2,8.931384E-3,-6.667657E-2,-0E0,2.6311487E-2,1.1437196E-1],"split_indices":[8,12,6,9,0,9,12,0,0,0,0,0,0],"split_type":[0,0,0,0,0,0,0,0,0,0,0,0,0],"sum_hessian":[2.7221564E2,1.1818346E2,1.540322E2,1.1109986E2,7.0835905E0,2.5306429E1,1.2872577E2,7.6814E1,3.428586E1,1.6248316E1,9.058114E0,9.5421844E1,3.3303925E1],"tree_param":{"num_deleted":"0","num_feature":"14","num_nodes":"13","size_leaf_vector":"0"}},{"base_weights":[1.6673268E-3,-3.1950366E-2,3.627121E-1,-1.0020941E-1,1.273949E-1,5.2057797E-1,-0E0,-3.8092837E-1,-2.1229817E-2,-0E0,2.1267317E-1,-0E0,5.964426E-1,-2.20242E-2,-0E0],"categories":[],"categories_nodes":[],"categories_segments":[],"categories_sizes":[],"default_left":[1,1,1,1,1,1,1,0,0,0,0,1,1,1,1],"id":63,"left_children":[1,3,5,7,9,-1,-1,-1,-1,-1,-1,-1,-1,-1,-1],"loss_changes":[4.0853662E0,2.7446623E0,2.3647768E0,3.3598874E0,1.1636062E0,4.4392872E-1,2.7894487E-3,0E0,0E0,0E0,0E0,0E0,0E0,0E0,0E0],"parents":[2147483647,0,0,1,1,2,2,3,3,4,4,5,5,6,6],"right_children":[2,4,6,8,10,-1,-1,-1,-1,-1,-1,-1,-1,-1,-1],"split_conditions":[9.5E0,5E-1,3.75E1,1.5E0,2.5E0,1.4168525E-1,-0E0,-1.0367694E-1,-5.7781003E-3,-0E0,5.788307E-2,-0E0,1.6233325E-1,-5.994307E-3,-0E0],"split_indices":[8,10,0,4,7,4,0,0,0,0,0,2147483647,2147483647,2147483647,2147483647],"split_type":[0,0,0,0,0,0,0,0,0,0,0,0,0,0,0],"sum_hessian":[2.7815543E2,2.5164346E2,2.6511984E1,1.8545377E2,6.618968E1,2.0271803E1,6.240182E0,3.311114E1,1.5234264E2,1.8363678E1,4.7826008E1,4.1943955E0,1.6077406E1,3.1760504E0,3.0641313E0],"tree_param":{"num_deleted":"4","num_feature":"14","num_nodes":"15","size_leaf_vector":"0"}},{"base_weights":[2.4122174E-3,-3.2671446E-1,7.684681E-2,-3.724918E-1,-0E0,-2.2449182E-2,2.4780145E-1,-0E0,-4.1369346E-1,-1.4733642E-1,1.6597278E-1,-0E0,3.189986E-1],"categories":[],"categories_nodes":[],"categories_segments":[],"categories_sizes":[],"default_left":[1,1,1,1,0,1,1,0,0,0,0,0,0],"id":64,"left_children":[1,3,5,7,-1,9,11,-1,-1,-1,-1,-1,-1],"loss_changes":[6.371911E0,9.6142244E-1,4.414706E0,8.156028E-1,0E0,3.38282E0,1.935319E0,0E0,0E0,0E0,0E0,0E0,0E0],"parents":[2147483647,0,0,1,1,2,2,3,3,5,5,6,6],"right_children":[2,4,6,8,-1,10,12,-1,-1,-1,-1,-1,-1],"split_conditions":[4.885591E1,3.3706047E1,6.5E0,1.8777287E1,-0E0,6.5E0,7.636915E1,-0E0,-1.1259458E-1,-4.0100425E-2,4.5172665E-2,-0E0,8.682157E-2],"split_indices":[11,1,6,1,0,5,11,0,0,0,0,0,0],"split_type":[0,0,0,0,0,0,0,0,0,0,0,0,0],"sum_hessian":[2.7486868E2,4.4232647E1,2.3063605E2,4.0363995E1,3.8686535E0,1.4005893E2,9.057711E1,3.361359E0,3.7002636E1,9.082271E1,4.9236225E1,1.792232E1,7.265479E1],"tree_param":{"num_deleted":"0","num_feature":"14","num_nodes":"13","size_leaf_vector":"0"}},{"base_weights":[6.223603E-3,-1.9581975E-1,9.762617E-2,-4.926033E-1,7.2701E-3,-6.514132E-2,2.4705577E-1,-5.3595793E-1,-0E0,-1.16755955E-1,2.3281954E-1,-2.0975654E-1,1.5668464E-1,-7.046407E-2,3.4784245E-1],"categories":[],"categories_nodes":[],"categories_segments":[],"categories_sizes":[],"default_left":[1,1,1,1,1,1,1,0,0,0,0,0,0,0,0],"id":65,"left_children":[1,3,5,7,9,11,13,-1,-1,-1,-1,-1,-1,-1,-1],"loss_changes":[4.84076E0,5.676174E0,5.1216564E0,6.07852E-1,1.5582156E0,3.0346708E0,4.065095E0,0E0,0E0,0E0,0E0,0E0,0E0,0E0,0E0],"parents":[2147483647,0,0,1,1,2,2,3,3,4,4,5,5,6,6],"right_children":[2,4,6,8,10,12,14,-1,-1,-1,-1,-1,-1,-1,-1],"split_conditions":[7.335326E1,1.4946266E1,8.23056E0,6.919538E1,5.5E0,5E-1,1.5E0,-1.4587119E-1,-0E0,-3.1777363E-2,6.336629E-2,-5.708925E-2,4.264472E-2,-1.9178143E-2,9.467197E-2],"split_indices":[11,12,12,11,4,10,7,0,0,0,0,0,0,0,0],"split_type":[0,0,0,0,0,0,0,0,0,0,0,0,0,0,0],"sum_hessian":[2.6730615E2,7.566642E1,1.9163974E2,3.3171055E1,4.2495365E1,8.614439E1,1.05495346E2,2.9737991E1,3.4330647E0,2.2613928E1,1.9881435E1,5.7580227E1,2.8564157E1,2.091998E1,8.457537E1],"tree_param":{"num_deleted":"0","num_feature":"14","num_nodes":"15","size_leaf_vector":"0"}},{"base_weights":[-3.5995778E-3,-1.751607E-1,7.589226E-2,-2.939097E-1,4.847654E-3,-1.18290916E-1,1.6065907E-1,-3.8011816E-1,-0E0,-1.4994106E-1,2.6790342E-1,-2.5482324E-1,1.8648345E-2,-0E0,2.9143777E-1],"categories":[],"categories_nodes":[],"categories_segments":[],"categories_sizes":[],"default_left":[1,1,1,1,1,1,1,0,0,0,0,0,0,0,0],"id":66,"left_children":[1,3,5,7,9,11,13,-1,-1,-1,-1,-1,-1,-1,-1],"loss_changes":[3.8511093E0,2.5513618E0,3.0207639E0,1.8268881E0,1.6707095E0,1.3685426E0,2.6397934E0,0E0,0E0,0E0,0E0,0E0,0E0,0E0,0E0],"parents":[2147483647,0,0,1,1,2,2,3,3,4,4,5,5,6,6],"right_children":[2,4,6,8,10,12,14,-1,-1,-1,-1,-1,-1,-1,-1],"split_conditions":[3.5E0,1.338475E1,2.5E0,8.5E0,4.5E0,6.5E0,4.5E0,-1.0345642E-1,-0E0,-4.0809326E-2,7.291503E-2,-6.935501E-2,5.0755036E-3,-0E0,7.932036E-2],"split_indices":[7,12,5,4,5,4,8,0,0,0,0,0,0,0,0],"split_type":[0,0,0,0,0,0,0,0,0,0,0,0,0,0,0],"sum_hessian":[2.6303848E2,9.0111404E1,1.7292708E2,5.9871952E1,3.0239452E1,4.5214317E1,1.2771277E2,4.7402637E1,1.2469316E1,1.504449E1,1.5194962E1,2.8696735E1,1.6517582E1,5.961433E1,6.8098434E1],"tree_param":{"num_deleted":"0","num_feature":"14","num_nodes":"15","size_leaf_vector":"0"}},{"base_weights":[-0E0,-9.520379E-2,2.6389822E-1,-2.5708193E-1,1.7844449E-1,-0E0,3.3957085E-1,-3.023008E-1,8.507536E-3,1.6456543E-2,4.9517414E-1,-6.479075E-2,-0E0,-0E0,3.813816E-1],"categories":[],"categories_nodes":[],"categories_segments":[],"categories_sizes":[],"default_left":[1,1,1,1,1,1,1,0,0,0,0,1,1,0,0],"id":67,"left_children":[1,3,5,7,9,-1,13,-1,-1,-1,-1,-1,-1,-1,-1],"loss_changes":[7.0278363E0,8.795039E0,1.9555655E0,2.100871E0,2.4925354E0,5.120495E-2,1.2425528E0,0E0,0E0,0E0,0E0,0E0,0E0,0E0,0E0],"parents":[2147483647,0,0,1,1,2,2,3,3,4,4,5,5,6,6],"right_children":[2,4,6,8,10,-1,14,-1,-1,-1,-1,-1,-1,-1,-1],"split_conditions":[1.5034052E2,5E-1,1.5E0,9.5E0,5E-1,-0E0,5E-1,-8.227694E-2,2.3154884E-3,4.4789626E-3,1.3477111E-1,-1.763404E-2,-0E0,-0E0,1.0380029E-1],"split_indices":[11,9,5,4,10,4,8,0,0,0,0,2147483647,2147483647,0,0],"split_type":[0,0,0,0,0,0,0,0,0,0,0,0,0,0,0],"sum_hessian":[2.6312292E2,1.898244E2,7.329852E1,1.2386712E2,6.5957275E1,1.3088939E1,6.0209587E1,1.1184679E2,1.2020336E1,4.952415E1,1.6433123E1,9.623311E0,3.4656274E0,4.4687457E0,5.574084E1],"tree_param":{"num_deleted":"2","num_feature":"14","num_nodes":"15","size_leaf_vector":"0"}},{"base_weights":[-2.1227505E-3,-9.979075E-2,1.9280109E-1,-2.9642823E-1,-3.222734E-4,-2.8734881E-2,2.9898646E-1,-3.6571556E-1,-0E0,-8.0162264E-2,1.8461683E-1,-1.570662E-1,4.8598094E-4,-0E0,3.6204147E-1],"categories":[],"categories_nodes":[],"categories_segments":[],"categories_sizes":[],"default_left":[1,1,1,1,1,1,1,0,0,0,0,1,1,0,0],"id":68,"left_children":[1,3,5,7,9,-1,13,-1,-1,-1,-1,-1,-1,-1,-1],"loss_changes":[4.918025E0,3.0393672E0,2.498052E0,1.1574864E0,1.7845393E0,3.93951E-1,9.5011187E-1,0E0,0E0,0E0,0E0,0E0,0E0,0E0,0E0],"parents":[2147483647,0,0,1,1,2,2,3,3,4,4,5,5,6,6],"right_children":[2,4,6,8,10,-1,14,-1,-1,-1,-1,-1,-1,-1,-1],"split_conditions":[5E-1,8.08996E1,5.1418457E1,8.5E0,7.5E0,-7.820747E-3,1.5E0,-9.953648E-2,-0E0,-2.1817692E-2,5.0247E-2,-4.2748567E-2,1.3226901E-4,-0E0,9.853651E-2],"split_indices":[9,11,11,5,5,10,4,0,0,0,0,2147483647,2147483647,0,0],"split_type":[0,0,0,0,0,0,0,0,0,0,0,0,0,0,0],"sum_hessian":[2.627265E2,1.8256224E2,8.016427E1,5.29961E1,1.2956615E2,2.0603008E1,5.956126E1,4.2588486E1,1.0407614E1,9.891732E1,3.0648825E1,1.4170016E1,6.432992E0,1.2510349E1,4.705091E1],"tree_param":{"num_deleted":"2","num_feature":"14","num_nodes":"15","size_leaf_vector":"0"}},{"base_weights":[4.57516E-3,-1.7915198E-1,1.0511311E-1,-2.8961137E-1,7.1636416E-2,2.1344634E-2,5.230765E-1,-4.6202388E-1,-0E0,-8.9585446E-2,3.1223226E-1,-3.6457038E-1,8.492729E-2,-0E0,5.774677E-1],"categories":[],"categories_nodes":[],"categories_segments":[],"categories_sizes":[],"default_left":[1,1,1,1,1,1,1,0,0,0,0,0,0,1,1],"id":69,"left_children":[1,3,5,7,9,11,-1,-1,-1,-1,-1,-1,-1,-1,-1],"loss_changes":[4.77134E0,2.897986E0,5.166197E0,3.0658174E0,1.4129947E0,3.3491778E0,6.463337E-2,0E0,0E0,0E0,0E0,0E0,0E0,0E0,0E0],"parents":[2147483647,0,0,1,1,2,2,3,3,4,4,5,5,6,6],"right_children":[2,4,6,8,10,12,-1,-1,-1,-1,-1,-1,-1,-1,-1],"split_conditions":[7.8480105E0,1.800972E2,1.5214528E2,5E-1,4.5E0,2.7650747E1,1.4236526E-1,-1.2574863E-1,-0E0,-2.4382392E-2,8.4979974E-2,-9.92248E-2,2.3114586E-2,-0E0,1.5716887E-1],"split_indices":[12,11,11,10,5,11,12,0,0,0,0,0,0,2147483647,2147483647],"split_type":[0,0,0,0,0,0,0,0,0,0,0,0,0,0,0],"sum_hessian":[2.6096286E2,8.46908E1,1.7627206E2,6.3942673E1,2.0748133E1,1.5300194E2,2.3270123E1,3.792333E1,2.6019342E1,8.514001E0,1.2234131E1,1.5558948E1,1.37443E2,4.4454827E0,1.882464E1],"tree_param":{"num_deleted":"2","num_feature":"14","num_nodes":"15","size_leaf_vector":"0"}},{"base_weights":[-0E0,-6.593956E-2,2.5709334E-1,-2.895792E-1,2.7723607E-2,-0E0,4.1622934E-1,-3.590314E-1,-0E0,-6.778137E-2,2.0795125E-1,4.172332E-2,-1.756432E-1,-0E0,4.6817812E-1],"categories":[],"categories_nodes":[],"categories_segments":[],"categories_sizes":[],"default_left":[1,1,1,1,1,1,1,0,0,0,0,1,1,0,0],"id":70,"left_children":[1,3,5,7,9,-1,13,-1,-1,-1,-1,-1,-1,-1,-1],"loss_changes":[4.1598344E0,4.9597745E0,2.5554886E0,1.0391722E0,2.8084886E0,3.2862535E-1,7.900233E-1,0E0,0E0,0E0,0E0,0E0,0E0,0E0,0E0],"parents":[2147483647,0,0,1,1,2,2,3,3,4,4,5,5,6,6],"right_children":[2,4,6,8,10,-1,14,-1,-1,-1,-1,-1,-1,-1,-1],"split_conditions":[1.6554218E1,3.5E0,4.5236977E1,3.85E1,1.4035901E2,-0E0,5E-1,-9.771726E-2,-0E0,-1.8447995E-2,5.6597907E-2,1.1355799E-2,-4.7804657E-2,-0E0,1.2742363E-1],"split_indices":[12,6,11,0,11,1,5,0,0,0,0,2147483647,2147483647,0,0],"split_type":[0,0,0,0,0,0,0,0,0,0,0,0,0,0,0],"sum_hessian":[2.5518207E2,2.0872092E2,4.6461143E1,6.61976E1,1.4252332E2,1.5577121E1,3.0884024E1,5.022566E1,1.5971942E1,8.710074E1,5.5422573E1,8.102021E0,7.4751005E0,3.4088893E0,2.7475134E1],"tree_param":{"num_deleted":"2","num_feature":"14","num_nodes":"15","size_leaf_vector":"0"}},{"base_weights":[-0E0,-9.20542E-2,2.3326756E-1,-1.9862379E-1,1.07083976E-1,-1.2816728E-2,2.8663757E-1,-3.1600592E-1,-0E0,-0E0,4.193086E-1,9.2527576E-2,6.020347E-1],"categories":[],"categories_nodes":[],"categories_segments":[],"categories_sizes":[],"default_left":[1,1,1,1,1,0,1,0,0,0,0,0,0],"id":71,"left_children":[1,3,5,7,9,-1,11,-1,-1,-1,-1,-1,-1],"loss_changes":[5.4446554E0,4.3049855E0,1.4678562E0,3.0886822E0,2.5341463E0,0E0,2.434051E0,0E0,0E0,0E0,0E0,0E0,0E0],"parents":[2147483647,0,0,1,1,2,2,3,3,4,4,6,6],"right_children":[2,4,6,8,10,-1,12,-1,-1,-1,-1,-1,-1],"split_conditions":[5E-1,5E-1,2.1548206E1,1.4406229E1,1.3820362E1,-3.4883176E-3,1.1989615E1,-8.600705E-2,-0E0,-0E0,1.1412285E-1,2.5183149E-2,1.6385524E-1],"split_indices":[10,9,11,12,12,0,12,0,0,0,0,0,0],"split_type":[0,0,0,0,0,0,0,0,0,0,0,0,0],"sum_hessian":[2.5685938E2,1.8924643E2,6.7612946E1,1.2968968E2,5.9556744E1,5.8549204E0,6.1758026E1,8.060902E1,4.908067E1,4.366582E1,1.589092E1,4.4137135E1,1.7620892E1],"tree_param":{"num_deleted":"0","num_feature":"14","num_nodes":"13","size_leaf_vector":"0"}},{"base_weights":[-2.4762793E-4,-1.7772105E-1,8.008617E-2,-2.9216653E-1,-0E0,-3.734982E-2,2.4013919E-1,-3.5126293E-1,-0E0,-2.4498102E-1,8.9474894E-2,-2.5685057E-1,8.177336E-2,-0E0,3.7561235E-1],"categories":[],"categories_nodes":[],"categories_segments":[],"categories_sizes":[],"default_left":[1,1,1,1,1,1,1,0,0,0,0,0,0,0,0],"id":72,"left_children":[1,3,5,7,9,11,13,-1,-1,-1,-1,-1,-1,-1,-1],"loss_changes":[3.8413067E0,1.8388355E0,3.590263E0,1.3830862E0,8.1439805E-1,2.814164E0,3.2725077E0,0E0,0E0,0E0,0E0,0E0,0E0,0E0,0E0],"parents":[2147483647,0,0,1,1,2,2,3,3,4,4,5,5,6,6],"right_children":[2,4,6,8,10,12,14,-1,-1,-1,-1,-1,-1,-1,-1],"split_conditions":[3.5E0,6.5E0,1.12750565E2,1.7807638E1,5.802509E0,1.2683952E1,4.4716043E0,-9.560292E-2,-0E0,-6.667627E-2,2.4352303E-2,-6.990679E-2,2.2256184E-2,-0E0,1.0223008E-1],"split_indices":[7,6,11,12,12,12,12,0,0,0,0,0,0,0,0],"split_type":[0,0,0,0,0,0,0,0,0,0,0,0,0,0,0],"sum_hessian":[2.5086613E2,8.479951E1,1.6606662E2,5.1296734E1,3.3502777E1,8.986211E1,7.620452E1,4.5904392E1,5.3923397E0,7.1342874E0,2.6368488E1,3.635212E1,5.3509987E1,2.338366E1,5.2820858E1],"tree_param":{"num_deleted":"0","num_feature":"14","num_nodes":"15","size_leaf_vector":"0"}},{"base_weights":[3.2041968E-5,-8.121848E-2,1.6023633E-1,-3.5137555E-1,-0E0,-1.1780199E-1,2.453358E-1,-4.4474548E-1,-0E0,-1.365216E-1,1.4925192E-1,-2.0370305E-1,-0E0,-1.13720246E-1,3.1055084E-1],"categories":[],"categories_nodes":[],"categories_segments":[],"categories_sizes":[],"default_left":[1,1,1,1,1,1,1,0,0,0,0,1,1,0,0],"id":73,"left_children":[1,3,5,7,9,-1,13,-1,-1,-1,-1,-1,-1,-1,-1],"loss_changes":[3.4936163E0,2.886599E0,2.5586002E0,1.1582305E0,2.7302103E0,3.161288E-1,2.3155236E0,0E0,0E0,0E0,0E0,0E0,0E0,0E0,0E0],"parents":[2147483647,0,0,1,1,2,2,3,3,4,4,5,5,6,6],"right_children":[2,4,6,8,10,-1,14,-1,-1,-1,-1,-1,-1,-1,-1],"split_conditions":[6.5E0,1.5E0,4.6129517E1,8.5E0,1.20026865E1,-3.206206E-2,2.2862077E0,-1.21045984E-1,-0E0,-3.715696E-2,4.0621765E-2,-5.5441678E-2,-0E0,-3.0951139E-2,8.4522344E-2],"split_indices":[8,5,11,7,12,12,12,0,0,0,0,2147483647,2147483647,0,0],"split_type":[0,0,0,0,0,0,0,0,0,0,0,0,0,0,0],"sum_hessian":[2.5135062E2,1.594964E2,9.185422E1,2.9464409E1,1.3003198E2,1.5897321E1,7.59569E1,2.327958E1,6.18483E0,7.469457E1,5.5337414E1,1.1221518E1,4.675803E0,6.762232E0,6.9194664E1],"tree_param":{"num_deleted":"2","num_feature":"14","num_nodes":"15","size_leaf_vector":"0"}},{"base_weights":[-6.511814E-3,-9.320064E-2,1.6225761E-1,-1.3798255E-1,1.9896783E-1,-0E0,2.8907928E-1,-2.14486E-1,1.0695672E-2,3.2257053E-1,-0E0,-1.7633218E-1,1.5335771E-1,-0E0,3.2260075E-1],"categories":[],"categories_nodes":[],"categories_segments":[],"categories_sizes":[],"default_left":[1,1,1,1,1,1,1,0,0,0,0,0,0,1,1],"id":74,"left_children":[1,3,5,7,9,11,-1,-1,-1,-1,-1,-1,-1,-1,-1],"loss_changes":[3.5519922E0,2.228465E0,1.4671221E0,2.2053397E0,8.4488463E-1,1.0964338E0,2.1699071E-1,0E0,0E0,0E0,0E0,0E0,0E0,0E0,0E0],"parents":[2147483647,0,0,1,1,2,2,3,3,4,4,5,5,6,6],"right_children":[2,4,6,8,10,12,-1,-1,-1,-1,-1,-1,-1,-1,-1],"split_conditions":[5E-1,9.5E0,4.5E0,7.5E0,3.75E1,4.5E0,7.867845E-2,-5.8376465E-2,2.9110315E-3,8.779374E-2,-0E0,-4.7992174E-2,4.1739233E-2,-0E0,8.780196E-2],"split_indices":[9,8,13,7,0,4,3,0,0,0,0,0,0,2147483647,2147483647],"split_type":[0,0,0,0,0,0,0,0,0,0,0,0,0,0,0],"sum_hessian":[2.4679504E2,1.7147871E2,7.531634E1,1.5568248E2,1.5796222E1,3.5795322E1,3.9521015E1,1.1074079E2,4.4941696E1,1.2534721E1,3.2615001E0,1.504721E1,2.0748114E1,6.2087765E0,3.331224E1],"tree_param":{"num_deleted":"2","num_feature":"14","num_nodes":"15","size_leaf_vector":"0"}},{"base_weights":[-0E0,-7.562969E-2,2.2661194E-1,-2.4206312E-1,-0E0,-0E0,2.769754E-1,-3.363522E-1,-0E0,-4.5645546E-2,2.7785906E-1,-2.7531771E-2,-0E0,3.060923E-1,-0E0],"categories":[],"categories_nodes":[],"categories_segments":[],"categories_sizes":[],"default_left":[1,1,1,1,1,1,1,0,0,0,0,1,1,0,0],"id":75,"left_children":[1,3,5,7,9,-1,13,-1,-1,-1,-1,-1,-1,-1,-1],"loss_changes":[4.5098925E0,1.8316928E0,1.2044344E0,6.735916E-1,1.3124001E0,4.7446326E-3,7.432685E-1,0E0,0E0,0E0,0E0,0E0,0E0,0E0,0E0],"parents":[2147483647,0,0,1,1,2,2,3,3,4,4,5,5,6,6],"right_children":[2,4,6,8,10,-1,14,-1,-1,-1,-1,-1,-1,-1,-1],"split_conditions":[5E-1,2.5E0,5E-1,1.35E1,9.5E0,-0E0,4.25E1,-9.154468E-2,-0E0,-1.2423308E-2,7.562465E-2,-7.4932976E-3,-0E0,8.330887E-2,-0E0],"split_indices":[10,6,8,3,5,0,0,0,0,0,0,2147483647,2147483647,0,0],"split_type":[0,0,0,0,0,0,0,0,0,0,0,0,0,0,0],"sum_hessian":[2.4284601E2,1.7767603E2,6.516998E1,4.628145E1,1.3139458E2,6.6965733E0,5.8473408E1,2.8683256E1,1.7598192E1,1.2028602E2,1.1108556E1,3.684808E0,3.0117652E0,5.534453E1,3.1288779E0],"tree_param":{"num_deleted":"2","num_feature":"14","num_nodes":"15","size_leaf_vector":"0"}},{"base_weights":[3.0410008E-3,-1.6853334E-1,7.296421E-2,-2.7392122E-1,-0E0,-7.281828E-2,1.4303815E-1,-3.257813E-1,-0E0,-2.3114704E-2,6.297961E-2,-1.592361E-1,1.4906508E-2,2.2374685E-1,-1.1225751E-1],"categories":[],"categories_nodes":[],"categories_segments":[],"categories_sizes":[],"default_left":[1,1,1,1,1,1,1,0,0,1,1,0,0,0,0],"id":76,"left_children":[1,3,5,7,-1,11,13,-1,-1,-1,-1,-1,-1,-1,-1],"loss_changes":[2.8331883E0,1.4448392E0,2.0737853E0,1.0001945E0,8.086649E-2,6.930399E-1,3.0890405E0,0E0,0E0,0E0,0E0,0E0,0E0,0E0,0E0],"parents":[2147483647,0,0,1,1,2,2,3,3,4,4,5,5,6,6],"right_children":[2,4,6,8,-1,12,14,-1,-1,-1,-1,-1,-1,-1,-1],"split_conditions":[2.5E0,5E-1,2.5E0,9.5E0,-0E0,3.05E1,3.146191E1,-8.86676E-2,-0E0,-6.291108E-3,1.7141104E-2,-4.333915E-2,4.057091E-3,6.089698E-2,-3.0553028E-2],"split_indices":[8,9,4,4,1,2,1,0,0,2147483647,2147483647,0,0,0,0],"split_type":[0,0,0,0,0,0,0,0,0,0,0,0,0,0,0],"sum_hessian":[2.4655447E2,6.2221607E1,1.8433287E2,4.120992E1,2.1011686E1,5.0729248E1,1.3360362E2,3.780353E1,3.406387E0,4.097307E0,1.691438E1,3.5750755E1,1.4978493E1,1.0758576E2,2.6017866E1],"tree_param":{"num_deleted":"2","num_feature":"14","num_nodes":"15","size_leaf_vector":"0"}},{"base_weights":[-0E0,-4.8009455E-2,3.0349097E-1,-1.3293827E-1,1.0232317E-1,-0E0,3.565306E-1,-1.8220657E-1,1.2880412E-1,-1.53266685E-2,1.8681185E-1,-0E0,4.2184806E-1],"categories":[],"categories_nodes":[],"categories_segments":[],"categories_sizes":[],"default_left":[1,1,1,1,1,0,1,0,0,0,0,1,1],"id":77,"left_children":[1,3,5,7,9,-1,-1,-1,-1,-1,-1,-1,-1],"loss_changes":[3.2157998E0,2.8730762E0,6.38427E-1,2.079917E0,1.0558617E0,0E0,3.1509185E-1,0E0,0E0,0E0,0E0,0E0,0E0],"parents":[2147483647,0,0,1,1,2,2,3,3,4,4,6,6],"right_children":[2,4,6,8,10,-1,-1,-1,-1,-1,-1,-1,-1],"split_conditions":[1.7846437E2,5E-1,2.0011417E1,9.5E0,2.5E0,-0E0,9.703662E-2,-4.9591E-2,3.50565E-2,-4.171446E-3,5.0844416E-2,-0E0,1.1481401E-1],"split_indices":[11,9,1,5,6,0,6,0,0,0,0,2147483647,2147483647],"split_type":[0,0,0,0,0,0,0,0,0,0,0,0,0],"sum_hessian":[2.4190685E2,2.150126E2,2.6894247E1,1.4591351E2,6.909908E1,3.0932744E0,2.3800972E1,1.297581E2,1.6155415E1,2.006804E1,4.903104E1,5.7648497E0,1.8036123E1],"tree_param":{"num_deleted":"2","num_feature":"14","num_nodes":"13","size_leaf_vector":"0"}},{"base_weights":[-1.6067067E-2,-9.560802E-2,2.1797852E-1,-2.1574049E-1,9.473596E-2,-0E0,5.3574765E-1,-3.828482E-1,-1.7510556E-2,-2.4280854E-1,2.116689E-1,-3.7252462E-1,1.0794475E-1],"categories":[],"categories_nodes":[],"categories_segments":[],"categories_sizes":[],"default_left":[1,1,1,1,1,1,0,0,0,0,0,0,0],"id":78,"left_children":[1,3,5,7,9,11,-1,-1,-1,-1,-1,-1,-1],"loss_changes":[4.402161E0,4.6798973E0,3.3659382E0,3.332314E0,2.8248959E0,1.3605583E0,0E0,0E0,0E0,0E0,0E0,0E0,0E0],"parents":[2147483647,0,0,1,1,2,2,3,3,4,4,5,5],"right_children":[2,4,6,8,10,12,-1,-1,-1,-1,-1,-1,-1],"split_conditions":[1.5891441E1,1.4974573E2,8.063617E1,5.5E0,2.220719E0,1.5E0,1.4581396E-1,-1.04199454E-1,-4.7658323E-3,-6.608498E-2,5.7609737E-2,-1.013897E-1,2.9379226E-2],"split_indices":[12,11,11,4,12,6,0,0,0,0,0,0,0],"split_type":[0,0,0,0,0,0,0,0,0,0,0,0,0],"sum_hessian":[2.4389374E2,1.89416E2,5.4477734E1,1.2222647E2,6.718953E1,3.5880856E1,1.8596878E1,5.965438E1,6.257209E1,1.226234E1,5.4927193E1,4.3672924E0,3.1513561E1],"tree_param":{"num_deleted":"0","num_feature":"14","num_nodes":"13","size_leaf_vector":"0"}},{"base_weights":[3.4032427E-3,-6.1884012E-2,2.1193556E-1,-2.4831928E-1,-0E0,-0E0,3.2487673E-1,-3.2126233E-1,-0E0,-6.2982686E-2,1.4322047E-1,-2.1281155E-2,1.3130226E-2,-0E0,3.9838868E-1],"categories":[],"categories_nodes":[],"categories_segments":[],"categories_sizes":[],"default_left":[1,1,1,1,1,1,1,0,0,0,0,1,1,0,0],"id":79,"left_children":[1,3,5,7,9,-1,13,-1,-1,-1,-1,-1,-1,-1,-1],"loss_changes":[3.656301E0,2.4404578E0,1.6352372E0,1.2870486E0,1.3346562E0,9.080956E-3,1.5730863E0,0E0,0E0,0E0,0E0,0E0,0E0,0E0,0E0],"parents":[2147483647,0,0,1,1,2,2,3,3,4,4,5,5,6,6],"right_children":[2,4,6,8,10,-1,14,-1,-1,-1,-1,-1,-1,-1,-1],"split_conditions":[5E-1,7.69361E1,6.349401E1,3.95E1,6.5E0,-0E0,1.940033E1,-8.743768E-2,-0E0,-1.7141942E-2,3.898019E-2,-5.792073E-3,3.573642E-3,-0E0,1.084291E-1],"split_indices":[10,11,11,0,8,8,1,0,0,0,0,2147483647,2147483647,0,0],"split_type":[0,0,0,0,0,0,0,0,0,0,0,0,0,0,0],"sum_hessian":[2.4190646E2,1.7845053E2,6.3455933E1,4.824588E1,1.3020465E2,2.2436674E1,4.101926E1,4.0258327E1,7.987554E0,8.456419E1,4.564045E1,1.2845362E1,9.591312E0,4.692366E0,3.6326893E1],"tree_param":{"num_deleted":"2","num_feature":"14","num_nodes":"15","size_leaf_vector":"0"}},{"base_weights":[1.9095683E-2,-2.06722E-1,1.2033304E-1,-3.5846257E-1,-0E0,-0E0,3.2047257E-1,-4.6294048E-1,-0E0,-5.8458686E-2,1.0615103E-1,-8.2943745E-2,2.1158572E-1,1.18787095E-1,5.158452E-1],"categories":[],"categories_nodes":[],"categories_segments":[],"categories_sizes":[],"default_left":[1,1,1,1,1,1,1,0,0,1,1,0,0,0,0],"id":80,"left_children":[1,3,5,7,-1,11,13,-1,-1,-1,-1,-1,-1,-1,-1],"loss_changes":[5.4608583E0,2.276173E0,3.9952493E0,9.430094E-1,2.2263548E-1,2.1519067E0,1.1077075E0,0E0,0E0,0E0,0E0,0E0,0E0,0E0,0E0],"parents":[2147483647,0,0,1,1,2,2,3,3,4,4,5,5,6,6],"right_children":[2,4,6,8,-1,12,14,-1,-1,-1,-1,-1,-1,-1,-1],"split_conditions":[7.120344E0,1.6579353E2,1.1152258E2,8.5E0,-0E0,5E-1,1.1466686E1,-1.259981E-1,-0E0,-1.5910648E-2,2.889103E-2,-2.2574725E-2,5.75871E-2,3.2330178E-2,1.4039713E-1],"split_indices":[12,11,11,6,7,10,12,0,0,2147483647,2147483647,0,0,0,0],"split_type":[0,0,0,0,0,0,0,0,0,0,0,0,0,0,0],"sum_hessian":[2.4089941E2,6.7746414E1,1.73153E2,3.852623E1,2.922018E1,1.12050674E2,6.1102333E1,2.6468204E1,1.2058026E1,1.8397028E1,1.0823153E1,7.91106E1,3.2940075E1,3.703789E1,2.4064442E1],"tree_param":{"num_deleted":"2","num_feature":"14","num_nodes":"15","size_leaf_vector":"0"}},{"base_weights":[3.0228342E-3,-1.9240314E-1,7.1296774E-2,-2.679764E-1,-0E0,-0E0,2.820902E-1,-3.2709315E-1,-0E0,-0E0,1.15615875E-1,-1.18185274E-1,1.8080577E-1,-0E0,3.479289E-1],"categories":[],"categories_nodes":[],"categories_segments":[],"categories_sizes":[],"default_left":[1,1,1,1,1,1,1,0,0,1,1,0,0,0,0],"id":81,"left_children":[1,3,5,7,-1,11,13,-1,-1,-1,-1,-1,-1,-1,-1],"loss_changes":[2.9794014E0,1.1250086E0,3.1628864E0,1.1419535E0,9.170272E-2,2.9001646E0,1.3681297E0,0E0,0E0,0E0,0E0,0E0,0E0,0E0,0E0],"parents":[2147483647,0,0,1,1,2,2,3,3,4,4,5,5,6,6],"right_children":[2,4,6,8,-1,12,14,-1,-1,-1,-1,-1,-1,-1,-1],"split_conditions":[5.907323E0,8.5E0,7.5E0,9.5E0,-0E0,1.2093614E2,3.3231285E1,-8.9024656E-2,-0E0,-0E0,3.146707E-2,-3.216638E-2,4.9209747E-2,-0E0,9.46955E-2],"split_indices":[12,8,7,13,9,11,11,0,0,2147483647,2147483647,0,0,0,0],"split_type":[0,0,0,0,0,0,0,0,0,0,0,0,0,0,0],"sum_hessian":[2.3586696E2,5.2424557E1,1.8344241E2,4.144379E1,1.0980765E1,1.3438698E2,4.9055424E1,3.7643887E1,3.7999022E0,6.6950135E0,4.285752E0,8.616004E1,4.8226948E1,6.389402E0,4.266602E1],"tree_param":{"num_deleted":"2","num_feature":"14","num_nodes":"15","size_leaf_vector":"0"}},{"base_weights":[1.1070958E-2,-9.631314E-2,1.6036572E-1,-1.5464637E-1,1.9895996E-1,-6.0440622E-2,2.6566964E-1,-3.580776E-1,-0E0,-0E0,3.3428055E-1,-3.583444E-1,1.1294638E-2,-0E0,3.3392265E-1],"categories":[],"categories_nodes":[],"categories_segments":[],"categories_sizes":[],"default_left":[1,1,1,1,1,1,1,0,0,0,0,0,0,0,0],"id":82,"left_children":[1,3,5,7,9,11,13,-1,-1,-1,-1,-1,-1,-1,-1],"loss_changes":[3.9403114E0,2.2475953E0,2.9340541E0,3.5022383E0,7.2534406E-1,1.3460559E0,1.7684093E0,0E0,0E0,0E0,0E0,0E0,0E0,0E0,0E0],"parents":[2147483647,0,0,1,1,2,2,3,3,4,4,5,5,6,6],"right_children":[2,4,6,8,10,12,14,-1,-1,-1,-1,-1,-1,-1,-1],"split_conditions":[5.5E0,1.7908083E1,5.9582367E0,1.0852138E2,3.9600082E1,1.3370567E2,3.9713943E1,-9.745766E-2,-0E0,-0E0,9.098084E-2,-9.7530276E-2,3.0740516E-3,-0E0,9.0883434E-2],"split_indices":[5,12,12,11,11,11,11,0,0,0,0,0,0,0,0],"split_type":[0,0,0,0,0,0,0,0,0,0,0,0,0,0,0],"sum_hessian":[2.3289532E2,1.2835817E2,1.0453716E2,1.1374911E2,1.4609058E1,2.8101076E1,7.643609E1,4.6436462E1,6.7312645E1,4.605215E0,1.0003843E1,8.758711E0,1.9342365E1,1.3138698E1,6.329739E1],"tree_param":{"num_deleted":"0","num_feature":"14","num_nodes":"15","size_leaf_vector":"0"}},{"base_weights":[-1.3270432E-2,-1.6447091E-1,5.037906E-2,-2.7030116E-1,4.1557726E-2,-4.839547E-2,1.5202299E-1,-3.798729E-1,-0E0,-8.991414E-2,1.9495013E-1,-2.310679E-1,8.912314E-3,-3.3076748E-3,2.3714314E-1],"categories":[],"categories_nodes":[],"categories_segments":[],"categories_sizes":[],"default_left":[1,1,1,1,1,1,1,0,0,0,0,0,0,0,0],"id":83,"left_children":[1,3,5,7,9,11,13,-1,-1,-1,-1,-1,-1,-1,-1],"loss_changes":[2.4717317E0,2.1838422E0,1.7850922E0,1.7278495E0,7.049156E-1,1.1853106E0,1.6122472E0,0E0,0E0,0E0,0E0,0E0,0E0,0E0,0E0],"parents":[2147483647,0,0,1,1,2,2,3,3,4,4,5,5,6,6],"right_children":[2,4,6,8,10,12,14,-1,-1,-1,-1,-1,-1,-1,-1],"split_conditions":[3.5E0,1.6066113E1,4.5E0,7.5E0,1.5E0,3.5E0,2.5E0,-1.03389665E-1,-0E0,-2.4471853E-2,5.3059407E-2,-6.2889546E-2,2.4256564E-3,-9.002469E-4,6.454304E-2],"split_indices":[6,12,7,7,4,8,5,0,0,0,0,0,0,0,0],"split_type":[0,0,0,0,0,0,0,0,0,0,0,0,0,0,0],"sum_hessian":[2.2881145E2,7.569835E1,1.531131E2,5.576298E1,1.9935364E1,6.855895E1,8.4554146E1,3.8936207E1,1.6826777E1,4.4292455E0,1.5506119E1,2.2673653E1,4.5885296E1,2.2658546E1,6.18956E1],"tree_param":{"num_deleted":"0","num_feature":"14","num_nodes":"15","size_leaf_vector":"0"}},{"base_weights":[-0E0,-9.002676E-2,2.1723904E-1,-1.6687705E-1,6.139643E-2,-0E0,2.8984013E-1,-2.2805361E-1,5.5651255E-2,-2.1666262E-2,1.9324973E-1,-6.392813E-2,3.7539702E-2,3.4869808E-1,-0E0],"categories":[],"categories_nodes":[],"categories_segments":[],"categories_sizes":[],"default_left":[1,1,1,1,1,1,1,0,0,0,0,1,1,0,0],"id":84,"left_children":[1,3,5,7,9,-1,13,-1,-1,-1,-1,-1,-1,-1,-1],"loss_changes":[4.8385296E0,2.1097794E0,1.1332536E0,1.9531567E0,8.682402E-1,5.4406352E-2,6.2952566E-1,0E0,0E0,0E0,0E0,0E0,0E0,0E0,0E0],"parents":[2147483647,0,0,1,1,2,2,3,3,4,4,5,5,6,6],"right_children":[2,4,6,8,10,-1,14,-1,-1,-1,-1,-1,-1,-1,-1],"split_conditions":[5E-1,5E-1,5.1418457E1,1.8059592E2,7.976127E1,-0E0,3.1424507E1,