{"learner":{"attributes":{"best_iteration":"77","best_msg":"[78]\ttrain-logloss:0.112249\ttest-logloss:0.352272","best_ntreelimit":"78","best_score":"0.35227233923049034","niter":"97"},"feature_names":[],"feature_types":[],"gradient_booster":{"model":{"gbtree_model_param":{"num_parallel_tree":"1","num_trees":"98","size_leaf_vector":"0"},"tree_info":[0,0,0,0,0,0,0,0,0,0,0,0,0,0,0,0,0,0,0,0,0,0,0,0,0,0,0,0,0,0,0,0,0,0,0,0,0,0,0,0,0,0,0,0,0,0,0,0,0,0,0,0,0,0,0,0,0,0,0,0,0,0,0,0,0,0,0,0,0,0,0,0,0,0,0,0,0,0,0,0,0,0,0,0,0,0,0,0,0,0,0,0,0,0,0,0,0,0],"trees":[{"base_weights":[-5.902579E-1,5.151515E-1,-1.239819E0,-7.924528E-1,1.3253012E0,-1.548387E0,3.5897437E-1,-1.3513514E0,4E-1,4.7619048E-1,1.5151515E0,-2.857143E-1,-1.6136364E0,-3.3333334E-1,1.1578947E0,-0E0,-1.6129032E0,9.3333334E-1,-6.666667E-1,1.1428572E0,-5.4545456E-1,1.6E0,4E-1,-8E-1,5E-1,-9.714286E-1,-1.7241379E0,8.5714287E-1,-1.4285715E0,1.4285715E0,2.2222222E-1],"categories":[],"categories_nodes":[],"categories_segments":[],"categories_sizes":[],"default_left":[1,1,1,1,1,1,1,1,1,1,1,1,1,1,1,0,0,0,0,0,0,0,0,0,0,0,0,0,0,0,0],"id":0,"left_children":[1,3,5,7,9,11,13,15,17,19,21,23,25,27,29,-1,-1,-1,-1,-1,-1,-1,-1,-1,-1,-1,-1,-1,-1,-1,-1],"loss_changes":[6.32869E1,3.600896E1,2.7812675E1,9.371136E0,2.6234818E0,3.3700256E0,5.7786775E0,3.2693996E0,3.4666665E0,4.199135E0,9.2121506E-1,1.8142856E0,1.4475784E0,9.047619E0,8.8554716E-1,0E0,0E0,0E0,0E0,0E0,0E0,0E0,0E0,0E0,0E0,0E0,0E0,0E0,0E0,0E0,0E0],"parents":[2147483647,0,0,1,1,2,2,3,3,4,4,5,5,6,6,7,7,8,8,9,9,10,10,11,11,12,12,13,13,14,14],"right_children":[2,4,6,8,10,12,14,16,18,20,22,24,26,28,30,-1,-1,-1,-1,-1,-1,-1,-1,-1,-1,-1,-1,-1,-1,-1,-1],"split_conditions":[-6.0468143E-1,1.03063814E-1,1.2492685E0,4.5932853E-1,4.8294038E-1,-1.3353777E0,2.1862173E0,-2.8932505E0,-8.761631E-1,3.6346525E-1,1.0332128E0,-1.5520546E0,-7.654149E-1,1.2523317E0,7.725448E-1,-0E0,-1.6129033E-1,9.3333334E-2,-6.666667E-2,1.1428572E-1,-5.454546E-2,1.6000001E-1,4.0000003E-2,-8.0000006E-2,5E-2,-9.714286E-2,-1.724138E-1,8.571429E-2,-1.4285715E-1,1.4285715E-1,2.2222223E-2],"split_indices":[0,1,1,8,1,9,1,0,0,1,4,9,10,0,4,0,0,0,0,0,0,0,0,0,0,0,0,0,0,0,0],"split_type":[0,0,0,0,0,0,0,0,0,0,0,0,0,0,0,0,0,0,0,0,0,0,0,0,0,0,0,0,0,0,0],"sum_hessian":[8.625E1,3.2E1,5.425E1,1.225E1,1.975E1,4.55E1,8.75E0,8.25E0,4E0,4.25E0,1.55E1,2.5E0,4.3E1,5E0,3.75E0,1.5E0,6.75E0,2.75E0,1.25E0,2.5E0,1.75E0,1.4E1,1.5E0,1.5E0,1E0,7.75E0,3.525E1,2.5E0,2.5E0,2.5E0,1.25E0],"tree_param":{"num_deleted":"0","num_feature":"11","num_nodes":"31","size_leaf_vector":"0"}},{"base_weights":[-5.729359E-1,-9.7046685E-1,9.924288E-1,-1.2576852E0,-4.4614607E-1,1.203045E0,1.9508182E-1,-1.3875232E0,-7.3030514E-1,7.999898E-1,-7.735572E-1,1.3247507E0,3.0548394E-1,-4.6737084E-1,9.056358E-1,-1.4512374E0,-1.1302434E-1,1.1421179E0,-1.0880259E0,-4.0369937E-1,1.2911522E0,1.1142064E0,-9.455903E-1,1.4385201E0,1.7958637E-1],"categories":[],"categories_nodes":[],"categories_segments":[],"categories_sizes":[],"default_left":[1,1,1,1,1,1,1,1,1,1,1,1,0,0,0,0,0,0,0,0,0,0,0,0,0],"id":1,"left_children":[1,3,5,7,9,11,13,15,17,19,21,23,-1,-1,-1,-1,-1,-1,-1,-1,-1,-1,-1,-1,-1],"loss_changes":[5.5281525E1,9.998093E0,2.8170853E0,2.0509949E0,1.1375864E1,1.144495E0,2.7724395E0,2.6618042E0,8.578458E0,4.055171E0,7.9994574E0,1.3296585E0,0E0,0E0,0E0,0E0,0E0,0E0,0E0,0E0,0E0,0E0,0E0,0E0,0E0],"parents":[2147483647,0,0,1,1,2,2,3,3,4,4,5,5,6,6,7,7,8,8,9,9,10,10,11,11],"right_children":[2,4,6,8,10,12,14,16,18,20,22,24,-1,-1,-1,-1,-1,-1,-1,-1,-1,-1,-1,-1,-1],"split_conditions":[1.2116635E0,1.318575E-1,7.814367E-1,8.5955083E-1,-7.592323E-1,9.203912E-1,2.3902214E-1,2.793964E0,9.2004013E-1,-1.3172522E0,-1.9331245E0,1.6036873E0,3.0548394E-2,-4.6737086E-2,9.056358E-2,-1.4512375E-1,-1.1302434E-2,1.1421179E-1,-1.08802594E-1,-4.036994E-2,1.2911522E-1,1.1142065E-1,-9.4559036E-2,1.4385201E-1,1.7958637E-2],"split_indices":[1,1,4,7,6,7,5,2,7,5,3,3,0,0,0,0,0,0,0,0,0,0,0,0,0],"split_type":[0,0,0,0,0,0,0,0,0,0,0,0,0,0,0,0,0,0,0,0,0,0,0,0,0],"sum_hessian":[8.628921E1,6.911675E1,1.7172453E1,4.3751415E1,2.5365341E1,1.3181736E1,3.990716E0,3.3799255E1,9.952157E0,4.9774904E0,2.038785E1,1.1188656E1,1.9930807E0,2.2423797E0,1.7483363E0,3.2057953E1,1.7413028E0,1.2446263E0,8.707531E0,1.4940658E0,3.483425E0,1.2453718E0,1.9142479E1,9.944521E0,1.2441347E0],"tree_param":{"num_deleted":"0","num_feature":"11","num_nodes":"25","size_leaf_vector":"0"}},{"base_weights":[-5.165312E-1,8.178163E-1,-9.91085E-1,1.0976422E0,1.3841411E-1,-5.544943E-1,-1.2275729E0,1.3086599E0,-2.9319677E-1,-7.770271E-1,6.942328E-1,-8.331319E-1,7.372789E-2,2.2943105E-1,-1.2790191E0,1.6525401E-1,1.4031255E0,-1.0386637E0,-1.6521007E-1,-2.2554386E-1,1.0177182E0,3.6922917E-2,-9.8316926E-1,6.038449E-1,-3.7120613E-1,-1.3388561E0,-4.5689225E-1],"categories":[],"categories_nodes":[],"categories_segments":[],"categories_sizes":[],"default_left":[1,1,1,1,1,1,1,1,0,1,1,1,1,0,1,0,0,0,0,0,0,0,0,0,0,0,0],"id":2,"left_children":[1,3,5,7,9,11,13,15,-1,17,19,21,23,-1,25,-1,-1,-1,-1,-1,-1,-1,-1,-1,-1,-1,-1],"loss_changes":[5.553804E1,4.262823E0,5.9484673E0,5.1685123E0,4.5685186E0,4.3295264E0,3.3534355E0,1.3168621E0,0E0,3.827927E-1,1.8526335E0,2.251875E0,2.2078915E0,0E0,1.3355179E0,0E0,0E0,0E0,0E0,0E0,0E0,0E0,0E0,0E0,0E0,0E0,0E0],"parents":[2147483647,0,0,1,1,2,2,3,3,4,4,5,5,6,6,7,7,9,9,10,10,11,11,12,12,14,14],"right_children":[2,4,6,8,10,12,14,16,-1,18,20,22,24,-1,26,-1,-1,-1,-1,-1,-1,-1,-1,-1,-1,-1,-1],"split_conditions":[-1.2041934E0,4.6788695E-1,2.4334316E-1,1.1238875E0,8.9923406E-1,6.6040254E-1,-1.3613801E0,-1.9303975E0,-2.9319678E-2,5.110362E-1,-6.655023E-1,-9.320462E-1,-5.637199E-2,2.2943106E-2,1.1967617E0,1.65254E-2,1.4031255E-1,-1.03866376E-1,-1.6521007E-2,-2.2554386E-2,1.01771824E-1,3.6922917E-3,-9.831693E-2,6.038449E-2,-3.7120614E-2,-1.338856E-1,-4.5689225E-2],"split_indices":[0,6,0,9,6,8,9,8,0,3,9,6,5,0,8,0,0,0,0,0,0,0,0,0,0,0,0],"split_type":[0,0,0,0,0,0,0,0,0,0,0,0,0,0,0,0,0,0,0,0,0,0,0,0,0,0,0],"sum_hessian":[8.542738E1,2.222157E1,6.320582E1,1.5303079E1,6.91849E0,2.3382696E1,3.982312E1,1.3338458E1,1.9646207E0,2.463343E0,4.455147E0,1.59722805E1,7.4104156E0,1.2401907E0,3.858293E1,1.2277088E0,1.2110749E1,1.2367783E0,1.2265648E0,1.2379662E0,3.2171807E0,2.4601235E0,1.35121565E1,3.2185345E0,4.191881E0,3.5379383E1,3.2035463E0],"tree_param":{"num_deleted":"0","num_feature":"11","num_nodes":"27","size_leaf_vector":"0"}},{"base_weights":[-3.8229853E-1,-8.8137805E-1,8.874658E-1,5.619401E-1,-1.1981909E0,1.3296561E0,-1.7870812E-1,-8.762959E-1,1.4751325E0,-5.812377E-1,-1.3932742E0,1.4626213E0,1.306467E-1,-7.6442164E-1,9.8864573E-1,-1.2937472E0,6.0819786E-2,5.6432116E-1,-8.631091E-1,-1.5407008E0,-7.447459E-1,1.5124217E-1,1.570396E0,-1.99233E-2,-1.2408386E0],"categories":[],"categories_nodes":[],"categories_segments":[],"categories_sizes":[],"default_left":[1,1,1,1,1,1,1,1,0,1,1,1,0,1,0,0,0,0,0,0,0,0,0,0,0],"id":3,"left_children":[1,3,5,7,9,11,13,15,-1,17,19,21,-1,23,-1,-1,-1,-1,-1,-1,-1,-1,-1,-1,-1],"loss_changes":[5.1527206E1,2.7187191E1,1.1124216E1,1.58942375E1,4.9512634E0,2.4299793E0,5.987026E0,2.0131276E0,0E0,4.754266E0,2.2612E0,1.8402767E0,0E0,1.9823787E0,0E0,0E0,0E0,0E0,0E0,0E0,0E0,0E0,0E0,0E0,0E0],"parents":[2147483647,0,0,1,1,2,2,3,3,4,4,5,5,6,6,7,7,9,9,10,10,11,11,13,13],"right_children":[2,4,6,8,10,12,14,16,-1,18,20,22,-1,24,-1,-1,-1,-1,-1,-1,-1,-1,-1,-1,-1],"split_conditions":[9.651332E-1,-1.6500356E0,9.991162E-1,-3.2660413E-1,-6.8597114E-1,1.1599684E0,2.2990026E0,7.9413885E-1,1.4751326E-1,-8.91146E-1,6.6040254E-1,-1.0958381E0,1.306467E-2,1.8544829E-1,9.886458E-2,-1.2937473E-1,6.081979E-3,5.6432117E-2,-8.6310916E-2,-1.5407008E-1,-7.4474595E-2,1.5124217E-2,1.570396E-1,-1.99233E-3,-1.2408387E-1],"split_indices":[1,0,0,1,10,7,1,7,0,6,8,5,0,6,0,0,0,0,0,0,0,0,0,0,0],"split_type":[0,0,0,0,0,0,0,0,0,0,0,0,0,0,0,0,0,0,0,0,0,0,0,0,0],"sum_hessian":[7.907566E1,5.6984024E1,2.2091637E1,1.0117511E1,4.6866512E1,1.5440596E1,6.6510406E0,3.9448917E0,6.1726193E0,1.2215206E1,3.4651306E1,1.3701319E1,1.7392776E0,4.65872E0,1.9923205E0,2.4658718E0,1.4790199E0,2.2142365E0,1.000097E1,2.7112314E1,7.5389915E0,1.2230322E0,1.2478286E1,2.2244241E0,2.434296E0],"tree_param":{"num_deleted":"0","num_feature":"11","num_nodes":"25","size_leaf_vector":"0"}},{"base_weights":[-4.6496472E-1,4.6119297E-1,-9.7046816E-1,-5.385898E-1,1.0812093E0,-1.1737081E0,5.056539E-1,5.85376E-1,-8.2658464E-1,1.1768527E0,-6.528529E-2,1.4293303E-1,-1.2577212E0,1.0709794E0,-2.920018E-1,-1.2365446E0,-2.4308431E-1,1.274265E0,2.3967399E-1,-5.772906E-1,6.7414474E-1,-1.3074751E0,-7.466078E-1,1.9805206E-1,1.3212825E0,5.1499546E-1,-8.394165E-1],"categories":[],"categories_nodes":[],"categories_segments":[],"categories_sizes":[],"default_left":[1,1,1,1,1,1,1,0,1,1,0,1,1,1,1,0,0,0,0,0,0,0,0,0,0,0,0],"id":4,"left_children":[1,3,5,7,9,11,13,-1,15,17,-1,19,21,23,25,-1,-1,-1,-1,-1,-1,-1,-1,-1,-1,-1,-1],"loss_changes":[4.16855E1,2.0281345E1,1.7784916E1,4.6373835E0,2.2641258E0,5.7845993E0,3.755114E0,0E0,2.2419734E0,1.3802013E0,0E0,1.8955094E0,2.3765564E-1,7.6127577E-1,2.1781745E0,0E0,0E0,0E0,0E0,0E0,0E0,0E0,0E0,0E0,0E0,0E0,0E0],"parents":[2147483647,0,0,1,1,2,2,3,3,4,4,5,5,6,6,8,8,9,9,11,11,12,12,13,13,14,14],"right_children":[2,4,6,8,10,12,14,-1,16,18,-1,20,22,24,26,-1,-1,-1,-1,-1,-1,-1,-1,-1,-1,-1,-1],"split_conditions":[-6.8307644E-1,1.03063814E-1,1.7327813E0,-9.5110416E-1,1.5932026E0,-1.3353777E0,7.4653015E-2,5.8537602E-2,4.4179434E-1,1.3784103E0,-6.528529E-3,5.051116E-1,9.5146024E-1,-8.7521034E-1,-7.689775E-1,-1.2365446E-1,-2.4308432E-2,1.274265E-1,2.3967398E-2,-5.772906E-2,6.741448E-2,-1.3074751E-1,-7.466078E-2,1.9805206E-2,1.3212825E-1,5.1499546E-2,-8.394165E-2],"split_indices":[0,1,1,5,3,9,2,0,3,4,0,2,1,4,6,0,0,0,0,0,0,0,0,0,0,0,0],"split_type":[0,0,0,0,0,0,0,0,0,0,0,0,0,0,0,0,0,0,0,0,0,0,0,0,0,0,0],"sum_hessian":[8.708213E1,3.0778673E1,5.630346E1,1.1831533E1,1.894714E1,4.9669575E1,6.633885E0,2.2026386E0,9.628895E0,1.7463789E1,1.4833513E0,2.9371834E0,4.673239E1,3.6818066E0,2.9520783E0,4.998104E0,4.6307898E0,1.5493662E1,1.9701269E0,1.2099606E0,1.7272228E0,4.1166943E1,5.56545E0,1.219628E0,2.4621785E0,1.2170819E0,1.7349964E0],"tree_param":{"num_deleted":"0","num_feature":"11","num_nodes":"27","size_leaf_vector":"0"}},{"base_weights":[-4.380822E-1,-8.083522E-1,6.4218336E-1,4.1590172E-1,-1.128881E0,1.0416665E0,-3.084907E-1,-4.2255893E-1,1.1839485E0,3.0261022E-1,-1.188257E0,-1.8510379E-1,1.2352153E0,5.076309E-1,-1.2182032E0,-8.803423E-1,6.357698E-1,1.3721818E0,3.5988003E-1,-5.952122E-1,-1.3168113E0,1.3400692E0,1.0624072E-1,-1.9272798E-1,1.1430835E0],"categories":[],"categories_nodes":[],"categories_segments":[],"categories_sizes":[],"default_left":[1,1,1,1,1,1,1,1,1,0,1,0,1,1,0,0,0,0,0,0,0,0,0,0,0],"id":5,"left_children":[1,3,5,7,9,11,13,15,17,-1,19,-1,21,23,-1,-1,-1,-1,-1,-1,-1,-1,-1,-1,-1],"loss_changes":[3.289159E1,2.4295212E1,8.378967E0,9.083809E0,4.472355E0,3.8300285E0,5.8518853E0,4.0040593E0,6.2606335E-1,0E0,2.7737808E0,0E0,1.4238796E0,2.188085E0,0E0,0E0,0E0,0E0,0E0,0E0,0E0,0E0,0E0,0E0,0E0],"parents":[2147483647,0,0,1,1,2,2,3,3,4,4,5,5,6,6,7,7,8,8,10,10,12,12,13,13],"right_children":[2,4,6,8,10,12,14,16,18,-1,20,-1,22,24,-1,-1,-1,-1,-1,-1,-1,-1,-1,-1,-1],"split_conditions":[9.651332E-1,-1.626677E0,9.486433E-1,-3.2660413E-1,-1.3334236E0,-1.1070395E0,2.3905969E-1,5.85559E-1,-2.2872245E0,3.0261023E-2,-7.654149E-1,-1.8510379E-2,1.2281429E0,1.6149834E-2,-1.2182032E-1,-8.8034235E-2,6.357698E-2,1.3721818E-1,3.5988003E-2,-5.9521224E-2,-1.3168113E-1,1.3400692E-1,1.06240725E-2,-1.9272799E-2,1.1430835E-1],"split_indices":[1,0,0,1,9,9,9,4,0,0,10,0,4,10,0,0,0,0,0,0,0,0,0,0,0],"split_type":[0,0,0,0,0,0,0,0,0,0,0,0,0,0,0,0,0,0,0,0,0,0,0,0,0],"sum_hessian":[7.993324E1,5.971659E1,2.021665E1,1.2328925E1,4.7387665E1,1.4167573E1,6.049076E0,6.1093273E0,6.2195983E0,1.7241344E0,4.566353E1,1.9365803E0,1.2230993E1,3.421535E0,2.627541E0,4.3820395E0,1.7272879E0,4.5216374E0,1.6979606E0,9.138059E0,3.652547E1,1.1020483E1,1.2105103E0,1.9590696E0,1.4624653E0],"tree_param":{"num_deleted":"0","num_feature":"11","num_nodes":"25","size_leaf_vector":"0"}},{"base_weights":[-3.647796E-1,-7.921253E-1,2.1825367E-1,-8.6032706E-1,5.2244943E-1,5.560536E-1,-2.133746E-1,-1.0446019E0,-1.7176819E-1,8.393047E-1,-2.8509703E-1,-6.706447E-1,5.218775E-1,-1.1583419E0,-5.1662654E-1,8.828913E-1,-6.7840296E-1,-1.4291191E-2,1.1367265E0,3.703439E-1,-7.653095E-1,5.649877E-1,-8.9014477E-1,7.6318014E-1,-3.187372E-1],"categories":[],"categories_nodes":[],"categories_segments":[],"categories_sizes":[],"default_left":[1,1,1,1,0,1,1,1,1,1,1,1,1,0,0,0,0,0,0,0,0,0,0,0,0],"id":6,"left_children":[1,3,5,7,-1,9,11,13,15,17,19,21,23,-1,-1,-1,-1,-1,-1,-1,-1,-1,-1,-1,-1],"loss_changes":[2.003897E1,4.593899E0,5.15E0,5.4445114E0,0E0,4.917497E0,5.686462E0,1.4895134E0,6.2385025E0,3.809785E0,2.0752401E0,3.2758446E0,1.5918815E0,0E0,0E0,0E0,0E0,0E0,0E0,0E0,0E0,0E0,0E0,0E0,0E0],"parents":[2147483647,0,0,1,1,2,2,3,3,5,5,6,6,7,7,8,8,9,9,10,10,11,11,12,12],"right_children":[2,4,6,8,-1,10,12,14,16,18,20,22,24,-1,-1,-1,-1,-1,-1,-1,-1,-1,-1,-1,-1],"split_conditions":[4.2719433E-1,2.793964E0,6.331862E-3,8.5955083E-1,5.2244943E-2,6.805877E-1,1.3210819E0,8.697762E-1,1.0791907E0,-5.7843804E-1,-1.8896647E-1,5.717002E-1,6.093947E-1,-1.1583419E-1,-5.1662654E-2,8.8289134E-2,-6.78403E-2,-1.429119E-3,1.1367265E-1,3.703439E-2,-7.6530956E-2,5.6498773E-2,-8.901448E-2,7.631802E-2,-3.187372E-2],"split_indices":[1,2,4,7,0,7,1,3,7,2,6,1,3,0,0,0,0,0,0,0,0,0,0,0,0],"split_type":[0,0,0,0,0,0,0,0,0,0,0,0,0,0,0,0,0,0,0,0,0,0,0,0,0],"sum_hessian":[7.8733284E1,4.5225636E1,3.350765E1,4.3323505E1,1.9021305E0,1.8635168E1,1.487248E1,3.3769024E1,9.554482E0,1.3942373E1,4.692795E0,9.223837E0,5.6486435E0,2.6801363E1,6.967661E0,2.8594074E0,6.695075E0,3.8486779E0,1.0093696E1,2.081099E0,2.6116958E0,1.1539466E0,8.06989E0,4.460385E0,1.1882585E0],"tree_param":{"num_deleted":"0","num_feature":"11","num_nodes":"25","size_leaf_vector":"0"}},{"base_weights":[-3.7099543E-1,6.933826E-1,-7.4334025E-1,-2.1174514E-1,1.2106836E0,-1.0739155E0,1.8459988E-1,-5.843692E-1,5.6948113E-1,1.3210257E0,4.76392E-2,-1.116294E0,-8.861826E-3,6.8574643E-1,-4.313431E-1,-8.9567417E-1,3.8388687E-1,-1.146924E0,-1.4071403E-1,8.8546526E-1,-3.479369E-1,7.397278E-1,-8.1084365E-1],"categories":[],"categories_nodes":[],"categories_segments":[],"categories_sizes":[],"default_left":[1,1,1,1,1,1,1,1,0,0,0,1,0,1,1,0,0,0,0,0,0,0,0],"id":7,"left_children":[1,3,5,7,9,11,13,15,-1,-1,-1,17,-1,19,21,-1,-1,-1,-1,-1,-1,-1,-1],"loss_changes":[3.120079E1,9.894015E0,1.7941856E1,2.7596657E0,1.6370468E0,1.9217262E0,5.2491493E0,2.1939945E0,0E0,0E0,0E0,1.0682678E0,0E0,2.2144432E0,4.0720067E0,0E0,0E0,0E0,0E0,0E0,0E0,0E0,0E0],"parents":[2147483647,0,0,1,1,2,2,3,3,4,4,5,5,6,6,7,7,11,11,13,13,14,14],"right_children":[2,4,6,8,10,12,14,16,-1,-1,-1,18,-1,20,22,-1,-1,-1,-1,-1,-1,-1,-1],"split_conditions":[-1.2041934E0,-2.8017458E-1,8.8559735E-1,5.85559E-1,1.3284104E0,2.7488937E0,9.486433E-1,1.5177517E0,5.6948114E-2,1.3210258E-1,4.76392E-3,2.010148E0,-8.861826E-4,1.385443E0,-8.523567E-1,-8.9567415E-2,3.8388688E-2,-1.14692405E-1,-1.4071404E-2,8.854653E-2,-3.479369E-2,7.3972784E-2,-8.108436E-2],"split_indices":[0,1,1,4,4,2,0,3,0,0,0,3,0,3,6,0,0,0,0,0,0,0,0],"split_type":[0,0,0,0,0,0,0,0,0,0,0,0,0,0,0,0,0,0,0,0,0,0,0],"sum_hessian":[7.642659E1,1.958346E1,5.6843132E1,7.336817E0,1.2246644E1,4.1796112E1,1.5047019E1,5.1380763E0,2.1987405E0,1.1061377E1,1.1852671E0,4.0150414E1,1.6456991E0,8.234168E0,6.812852E0,3.9447556E0,1.1933208E0,3.8757908E1,1.392504E0,7.021019E0,1.2131488E0,1.4351184E0,5.377733E0],"tree_param":{"num_deleted":"0","num_feature":"11","num_nodes":"23","size_leaf_vector":"0"}},{"base_weights":[-3.239139E-1,3.5113427E-1,-7.669819E-1,-5.8799714E-1,1.0033104E0,-9.2006266E-1,1.049048E0,-8.965176E-1,7.411841E-1,1.2701181E0,4.839661E-1,-1.0225548E0,-3.1647342E-1,-3.170594E-1,-1.1622027E0,-5.26703E-1,7.317153E-1,-7.326645E-2,-1.0797803E0,3.044263E-1,-9.271061E-1],"categories":[],"categories_nodes":[],"categories_segments":[],"categories_sizes":[],"default_left":[1,1,1,1,1,1,0,1,0,0,1,1,1,0,0,0,0,0,0,0,0],"id":8,"left_children":[1,3,5,7,9,11,-1,13,-1,-1,15,17,19,-1,-1,-1,-1,-1,-1,-1,-1],"loss_changes":[2.2968184E1,1.9429409E1,1.3790178E1,6.0926294E0,1.9518852E0,2.341423E0,0E0,1.3551369E0,0E0,0E0,2.3639674E0,1.897068E0,3.2021832E0,0E0,0E0,0E0,0E0,0E0,0E0,0E0,0E0],"parents":[2147483647,0,0,1,1,2,2,3,3,4,4,5,5,7,7,10,10,11,11,12,12],"right_children":[2,4,6,8,10,12,-1,14,-1,-1,16,18,20,-1,-1,-1,-1,-1,-1,-1,-1],"split_conditions":[-5.2305925E-1,1.03063814E-1,2.1862173E0,1.5468037E0,1.8936238E-1,8.772581E-1,1.0490479E-1,-2.1224433E-1,7.411841E-2,1.2701182E-1,3.1319103E-1,-1.7244881E0,2.979182E-2,-3.1705942E-2,-1.1622027E-1,-5.26703E-2,7.317153E-2,-7.326645E-3,-1.0797804E-1,3.044263E-2,-9.271061E-2],"split_indices":[0,1,1,4,6,7,0,5,0,0,6,4,5,0,0,0,0,0,0,0,0],"split_type":[0,0,0,0,0,0,0,0,0,0,0,0,0,0,0,0,0,0,0,0,0],"sum_hessian":[7.489254E1,2.975936E1,4.513318E1,1.2236807E1,1.752255E1,4.2079487E1,3.0536907E0,1.019575E1,2.0410564E0,1.0620673E1,6.901878E0,3.537802E1,6.701469E0,3.894729E0,6.3010216E0,1.1371266E0,5.7647514E0,2.14107E0,3.323695E1,3.5714386E0,3.1300304E0],"tree_param":{"num_deleted":"0","num_feature":"11","num_nodes":"21","size_leaf_vector":"0"}},{"base_weights":[-3.506384E-1,5.111977E-1,-6.406571E-1,1.2115362E0,2.030779E-1,-1.7648906E-2,-7.7147007E-1,3.8856304E-1,-4.4013214E-1,-9.5219094E-1,1.8607181E-1,2.5303158E-1,-8.416947E-1,7.9216754E-1,-3.079836E-1,-9.365037E-1,4.447399E-1,-2.5804305E-1,4.991489E-1,7.602112E-1,-2.640891E-1,-2.9520258E-1,-9.4356954E-1],"categories":[],"categories_nodes":[],"categories_segments":[],"categories_sizes":[],"default_left":[1,1,1,0,1,1,1,1,1,0,1,1,1,0,0,0,0,0,0,0,0,0,0],"id":9,"left_children":[1,3,5,-1,7,9,11,13,15,-1,17,19,21,-1,-1,-1,-1,-1,-1,-1,-1,-1,-1],"loss_changes":[1.9455719E1,4.0319386E0,4.6890965E0,0E0,1.9569155E0,2.2784467E0,3.642374E0,3.6596055E0,2.094068E0,0E0,1.5050579E0,1.2043777E0,2.217884E0,0E0,0E0,0E0,0E0,0E0,0E0,0E0,0E0,0E0,0E0],"parents":[2147483647,0,0,1,1,2,2,4,4,5,5,6,6,7,7,8,8,10,10,11,11,12,12],"right_children":[2,4,6,-1,8,10,12,14,16,-1,18,20,22,-1,-1,-1,-1,-1,-1,-1,-1,-1,-1],"split_conditions":[-1.2126412E0,-3.3506217E0,-8.8188326E-1,1.21153615E-1,8.2239497E-1,-1.3534184E0,-1.3334236E0,4.7091854E-1,3.3798742E-1,-9.52191E-2,-4.5294163E-1,-2.7430123E-1,-6.0282147E-1,7.9216756E-2,-3.079836E-2,-9.365037E-2,4.447399E-2,-2.5804305E-2,4.9914893E-2,7.602113E-2,-2.640891E-2,-2.9520258E-2,-9.4356954E-2],"split_indices":[0,0,6,0,9,5,9,6,6,0,3,7,0,0,0,0,0,0,0,0,0,0,0],"split_type":[0,0,0,0,0,0,0,0,0,0,0,0,0,0,0,0,0,0,0,0,0,0,0],"sum_hessian":[7.552861E1,1.8824884E1,5.6703728E1,4.85583E0,1.3969054E1,1.0036922E1,4.6666805E1,1.1149676E1,2.8193777E0,1.1388044E0,8.898118E0,2.8266E0,4.3840206E1,6.972359E0,4.1773176E0,1.7688094E0,1.0505681E0,3.7517977E0,5.14632E0,1.1896929E0,1.6369071E0,7.500831E0,3.6339375E1],"tree_param":{"num_deleted":"0","num_feature":"11","num_nodes":"23","size_leaf_vector":"0"}},{"base_weights":[-2.4576472E-1,-6.084264E-1,4.971269E-1,3.2858214E-1,-8.599096E-1,8.557648E-1,1.6981548E-2,-5.917211E-1,8.3804435E-1,-1.1436002E0,-2.849938E-1,-1.16716914E-1,9.5108587E-1,-3.9691672E-1,1.1246037E0,2.8045464E-1,-1.0759301E0,1.181862E0,-2.9133484E-1,9.153756E-2,-1.2021028E0,2.848674E-1,-6.405483E-1,1.0529335E0,-3.3227235E-2,5.2264524E-1,-7.1102804E-1],"categories":[],"categories_nodes":[],"categories_segments":[],"categories_sizes":[],"default_left":[1,1,1,1,1,1,1,1,1,1,1,0,1,1,0,0,0,0,0,0,0,0,0,0,0,0,0],"id":10,"left_children":[1,3,5,7,9,11,13,15,17,19,21,-1,23,25,-1,-1,-1,-1,-1,-1,-1,-1,-1,-1,-1,-1,-1],"loss_changes":[1.9166782E1,1.1475464E1,4.035402E0,5.5475674E0,5.827009E0,1.3571253E0,5.5242023E0,2.1706364E0,3.1979609E0,1.9113426E0,2.9779067E0,0E0,1.2732782E0,2.9141192E0,0E0,0E0,0E0,0E0,0E0,0E0,0E0,0E0,0E0,0E0,0E0,0E0,0E0],"parents":[2147483647,0,0,1,1,2,2,3,3,4,4,5,5,6,6,7,7,8,8,9,9,10,10,12,12,13,13],"right_children":[2,4,6,8,10,12,14,16,18,20,22,-1,24,26,-1,-1,-1,-1,-1,-1,-1,-1,-1,-1,-1,-1,-1],"split_conditions":[8.621595E-1,-1.4291875E0,1.00916564E-1,-1.2714729E0,5.108992E-1,-1.3782794E0,2.2465532E0,-7.83002E-1,8.381201E-1,-1.6908677E0,7.659712E-1,-1.1671691E-2,1.5242686E0,-9.8532623E-1,1.12460375E-1,2.8045464E-2,-1.07593015E-1,1.181862E-1,-2.9133484E-2,9.153756E-3,-1.2021028E-1,2.8486742E-2,-6.405483E-2,1.0529335E-1,-3.3227236E-3,5.2264523E-2,-7.1102805E-2],"split_indices":[1,0,0,1,8,8,1,8,9,8,8,0,3,3,0,0,0,0,0,0,0,0,0,0,0,0,0],"split_type":[0,0,0,0,0,0,0,0,0,0,0,0,0,0,0,0,0,0,0,0,0,0,0,0,0,0,0],"sum_hessian":[6.9018684E1,4.6499672E1,2.2519012E1,9.774394E0,3.672528E1,1.2442761E1,1.007625E1,3.4253347E0,6.3490596E0,2.392861E1,1.2796668E1,1.0907084E0,1.1352053E1,7.802316E0,2.273934E0,1.3730117E0,2.052323E0,4.8316784E0,1.5173813E0,1.0565912E0,2.2872019E1,4.9929996E0,7.803669E0,1.0224412E1,1.1276414E0,1.8175493E0,5.984767E0],"tree_param":{"num_deleted":"0","num_feature":"11","num_nodes":"27","size_leaf_vector":"0"}},{"base_weights":[-3.122205E-1,2.0655124E-1,-6.8831915E-1,9.463925E-1,-2.9745763E-2,3.1701922E-1,-7.716916E-1,1.112706E0,-2.2158368E-2,1.6556713E-1,-9.175708E-1,7.7774876E-1,-3.8598326E-1,-8.889536E-1,-2.1673024E-1,-9.460395E-1,2.8386357E-1,-1.0915879E0,-1.6895531E-1,-2.7742124E-1,-9.551701E-1,4.4077697E-1,-6.9342995E-1],"categories":[],"categories_nodes":[],"categories_segments":[],"categories_sizes":[],"default_left":[1,1,1,1,1,1,1,0,0,1,1,0,0,1,1,0,0,0,0,0,0,0,0],"id":11,"left_children":[1,3,5,7,9,11,13,-1,-1,15,17,-1,-1,19,21,-1,-1,-1,-1,-1,-1,-1,-1],"loss_changes":[1.3427747E1,5.1657376E0,3.5726566E0,1.175497E0,4.1823564E0,1.5146126E0,2.212286E0,0E0,0E0,2.8852477E0,3.814826E-1,0E0,0E0,9.5739746E-1,2.7407093E0,0E0,0E0,0E0,0E0,0E0,0E0,0E0,0E0],"parents":[2147483647,0,0,1,1,2,2,3,3,4,4,5,5,6,6,9,9,10,10,13,13,14,14],"right_children":[2,4,6,8,10,12,14,-1,-1,16,18,-1,-1,20,22,-1,-1,-1,-1,-1,-1,-1,-1],"split_conditions":[-3.5522068E-1,-2.8627756E0,-1.3353777E0,8.9699924E-1,1.0718231E0,1.6410473E-1,8.4182966E-1,1.112706E-1,-2.215837E-3,-2.6072025E0,2.2040993E-1,7.7774875E-2,-3.8598325E-2,-1.1665328E0,-7.2668564E-1,-9.460395E-2,2.8386358E-2,-1.0915879E-1,-1.689553E-2,-2.7742123E-2,-9.551701E-2,4.40777E-2,-6.934299E-2],"split_indices":[0,0,9,9,7,4,7,0,0,0,9,0,0,6,3,0,0,0,0,0,0,0,0],"split_type":[0,0,0,0,0,0,0,0,0,0,0,0,0,0,0,0,0,0,0,0,0,0,0],"sum_hessian":[6.7092964E1,2.8387486E1,3.870548E1,6.144398E0,2.2243088E1,2.74942E0,3.595606E1,5.1169176E0,1.0274806E0,1.8899004E1,3.3440835E0,1.5966759E0,1.152744E0,2.9187069E1,6.7689896E0,1.1447587E0,1.7754246E1,2.3416257E0,1.0024579E0,3.3586216E0,2.5828447E1,2.8766336E0,3.8923557E0],"tree_param":{"num_deleted":"0","num_feature":"11","num_nodes":"23","size_leaf_vector":"0"}},{"base_weights":[-2.5593993E-1,3.7442946E-1,-5.017921E-1,1.144636E0,1.0521503E-1,-1.0031553E-1,-7.321479E-1,9.819094E-1,-1.41099E-1,-9.225941E-1,6.08131E-2,-8.020492E-1,2.384569E-1,-4.8933327E-1,2.8865132E-1,5.8980024E-1,-2.3800898E-1,-1.0417379E0,-3.836693E-1],"categories":[],"categories_nodes":[],"categories_segments":[],"categories_sizes":[],"default_left":[1,1,1,0,1,1,1,0,1,0,1,1,0,0,0,0,0,0,0],"id":12,"left_children":[1,3,5,-1,7,9,11,-1,13,-1,15,17,-1,-1,-1,-1,-1,-1,-1],"loss_changes":[1.0685057E1,3.9389706E0,4.47262E0,0E0,3.508982E0,2.5840962E0,2.2996368E0,0E0,2.0955799E0,0E0,2.810571E0,2.5302486E0,0E0,0E0,0E0,0E0,0E0,0E0,0E0],"parents":[2147483647,0,0,1,1,2,2,4,4,5,5,6,6,8,8,10,10,11,11],"right_children":[2,4,6,-1,8,10,12,-1,14,-1,16,18,-1,-1,-1,-1,-1,-1,-1],"split_conditions":[-1.2126412E0,-3.3506217E0,-3.9636794E-1,1.14463605E-1,-9.7584844E-1,-1.2314365E0,1.8526211E0,9.819094E-2,1.988855E-1,-9.225941E-2,-4.0248144E-1,2.8689504E-1,2.3845691E-2,-4.8933327E-2,2.8865132E-2,5.8980025E-2,-2.3800898E-2,-1.04173794E-1,-3.836693E-2],"split_indices":[0,0,10,0,6,2,3,0,5,0,2,8,0,0,0,0,0,0,0],"split_type":[0,0,0,0,0,0,0,0,0,0,0,0,0,0,0,0,0,0,0],"sum_hessian":[6.6733444E1,1.8577475E1,4.8155968E1,3.9694242E0,1.460805E1,1.8080235E1,3.0075733E1,2.5490212E0,1.2059029E1,2.1880844E0,1.589215E1,2.8217236E1,1.8584976E0,6.5846915E0,5.474337E0,5.385235E0,1.0506915E1,1.6992403E1,1.1224833E1],"tree_param":{"num_deleted":"0","num_feature":"11","num_nodes":"19","size_leaf_vector":"0"}},{"base_weights":[-2.9456672E-1,2.1139042E-1,-4.284005E-1,4.488566E-1,-6.3420606E-1,6.258274E-1,-4.731075E-1,8.382745E-2,8.761191E-1,-9.5683224E-2,-8.369848E-1,-8.442443E-1,-3.1328836E-1,-8.038388E-1,4.3433604E-1,-7.818195E-2,1.1580772E0,-1.26274E-1,-1.0027252E0,2.876458E-1,-4.291044E-1],"categories":[],"categories_nodes":[],"categories_segments":[],"categories_sizes":[],"default_left":[1,1,1,1,1,0,1,1,1,0,0,1,1,0,0,0,0,0,0,0,0],"id":13,"left_children":[1,3,5,7,9,-1,11,13,15,-1,-1,17,19,-1,-1,-1,-1,-1,-1,-1,-1],"loss_changes":[4.46321E0,3.1315494E0,2.7185192E0,1.7442641E0,3.0462372E-1,0E0,2.6938925E0,2.6486979E0,1.5068927E0,0E0,0E0,1.5144701E0,2.660497E0,0E0,0E0,0E0,0E0,0E0,0E0,0E0,0E0],"parents":[2147483647,0,0,1,1,2,2,3,3,4,4,6,6,7,7,8,8,11,11,12,12],"right_children":[2,4,6,8,10,-1,12,14,16,-1,-1,18,20,-1,-1,-1,-1,-1,-1,-1,-1],"split_conditions":[-8.8188326E-1,1.1238875E0,-2.4619925E0,3.0338123E-1,-5.56482E-1,6.258274E-2,-5.3046036E-1,-4.5294163E-1,-7.4313176E-1,-9.568322E-3,-8.369848E-2,-4.799559E-1,-2.515294E-1,-8.038388E-2,4.3433603E-2,-7.818195E-3,1.1580773E-1,-1.26274E-2,-1.0027253E-1,2.876458E-2,-4.2910438E-2],"split_indices":[6,9,3,7,3,0,7,3,4,0,0,9,7,0,0,0,0,0,0,0,0],"split_type":[0,0,0,0,0,0,0,0,0,0,0,0,0,0,0,0,0,0,0,0,0],"sum_hessian":[6.357516E1,1.3177658E1,5.0397503E1,1.0654713E1,2.5229456E0,1.5214747E0,4.8876026E1,6.3908906E0,4.2638226E0,1.0927559E0,1.4301898E0,1.3422768E1,3.545326E1,1.4430367E0,4.9478536E0,1.1372986E0,3.126524E0,2.7520163E0,1.0670752E1,5.488978E0,2.9964281E1],"tree_param":{"num_deleted":"0","num_feature":"11","num_nodes":"21","size_leaf_vector":"0"}},{"base_weights":[-1.7636734E-1,2.9931298E-1,-5.163626E-1,-2.4120416E-2,6.5057987E-1,-4.5111407E-2,-8.062795E-1,2.1367681E-1,-5.551098E-1,8.276303E-1,-5.420405E-1,4.3152443E-1,-3.365449E-1,-9.2258406E-1,5.488786E-1,-3.94124E-1,5.876E-1,2.747501E-1,-8.910314E-1,1.2000747E0,-1.3367182E-1,9.313512E-1,-1.828243E-1,3.8860783E-1,-7.4767315E-1,1.3917299E-2,-1.0356177E0],"categories":[],"categories_nodes":[],"categories_segments":[],"categories_sizes":[],"default_left":[1,1,1,1,1,1,1,1,1,1,0,1,1,1,0,0,0,0,0,0,0,0,0,0,0,0,0],"id":14,"left_children":[1,3,5,7,9,11,13,15,17,19,-1,21,23,25,-1,-1,-1,-1,-1,-1,-1,-1,-1,-1,-1,-1,-1],"loss_changes":[1.0520913E1,3.1230116E0,5.120713E0,2.0383391E0,3.2246094E0,2.2894568E0,4.1803474E0,2.782238E0,1.6332538E0,4.400633E0,0E0,2.1033552E0,3.3139186E0,2.3264027E0,0E0,0E0,0E0,0E0,0E0,0E0,0E0,0E0,0E0,0E0,0E0,0E0,0E0],"parents":[2147483647,0,0,1,1,2,2,3,3,4,4,5,5,6,6,7,7,8,8,9,9,11,11,12,12,13,13],"right_children":[2,4,6,8,10,12,14,16,18,20,-1,22,24,26,-1,-1,-1,-1,-1,-1,-1,-1,-1,-1,-1,-1,-1],"split_conditions":[-5.2305925E-1,2.3056653E-1,-3.2673323E-1,-1.2041934E0,1.5021935E0,-8.1132925E-1,1.4722118E0,-3.3757824E-1,-6.367168E-1,5.621526E-1,-5.4204054E-2,-2.5875372E-1,-6.110136E-1,-1.3533264E0,5.488786E-2,-3.94124E-2,5.876E-2,2.7475012E-2,-8.910314E-2,1.2000747E-1,-1.3367183E-2,9.313512E-2,-1.828243E-2,3.8860783E-2,-7.4767314E-2,1.3917299E-3,-1.03561774E-1],"split_indices":[0,8,10,0,10,5,5,10,10,6,0,2,6,6,0,0,0,0,0,0,0,0,0,0,0,0,0],"split_type":[0,0,0,0,0,0,0,0,0,0,0,0,0,0,0,0,0,0,0,0,0,0,0,0,0,0,0],"sum_hessian":[6.309706E1,2.6350409E1,3.674665E1,1.42036E1,1.214681E1,1.4436367E1,2.2310286E1,1.0222959E1,3.9806418E0,1.0843133E1,1.3036765E0,5.29529E0,9.141076E0,2.0840853E1,1.4694321E0,3.8731866E0,6.3497715E0,1.1995002E0,2.7811418E0,7.636199E0,3.206934E0,2.6352692E0,2.660021E0,3.327236E0,5.8138404E0,2.3389735E0,1.8501879E1],"tree_param":{"num_deleted":"0","num_feature":"11","num_nodes":"27","size_leaf_vector":"0"}},{"base_weights":[-2.2991157E-1,-4.999807E-1,5.933109E-1,7.3172504E-1,-6.485948E-1,7.088479E-1,-3.7839067E-1,-1.550776E-2,1.0010933E0,-3.545784E-1,-8.39123E-1,-4.977019E-2,9.4533795E-1,-7.3806036E-1,7.3430814E-2,-4.2790793E-2,-9.003267E-1,-5.189263E-1,7.081141E-1,1.1072096E0,-1.1237602E-1],"categories":[],"categories_nodes":[],"categories_segments":[],"categories_sizes":[],"default_left":[1,1,1,1,1,1,0,0,0,1,1,1,1,0,0,0,0,0,0,0,0],"id":15,"left_children":[1,3,5,7,9,11,-1,-1,-1,13,15,17,19,-1,-1,-1,-1,-1,-1,-1,-1],"loss_changes":[1.4209281E1,9.19906E0,2.055005E0,1.1429949E0,2.114645E0,2.6613798E0,0E0,0E0,0E0,3.1175275E0,1.1992779E0,1.9366075E0,2.0350132E0,0E0,0E0,0E0,0E0,0E0,0E0,0E0,0E0],"parents":[2147483647,0,0,1,1,2,2,3,3,4,4,5,5,9,9,10,10,11,11,12,12],"right_children":[2,4,6,8,10,12,-1,-1,-1,14,16,18,20,-1,-1,-1,-1,-1,-1,-1,-1],"split_conditions":[1.1135212E0,-2.8627756E0,1.1599684E0,-4.1944054E-1,-4.604398E-1,-8.488469E-1,-3.7839066E-2,-1.5507761E-3,1.0010933E-1,1.100695E-1,-1.1356834E0,2.0809238E0,2.2140648E0,-7.380604E-2,7.3430813E-3,-4.2790794E-3,-9.0032674E-2,-5.1892634E-2,7.081141E-2,1.10720955E-1,-1.1237602E-2],"split_indices":[1,0,7,1,5,7,0,0,0,7,10,1,0,0,0,0,0,0,0,0,0],"split_type":[0,0,0,0,0,0,0,0,0,0,0,0,0,0,0,0,0,0,0,0,0],"sum_hessian":[6.157737E1,4.666195E1,1.491542E1,4.6014805E0,4.2060467E1,1.3572174E1,1.3432462E0,1.4689668E0,3.1325135E0,1.766362E1,2.4396847E1,3.4131E0,1.0159074E1,8.934343E0,8.729277E0,1.8625133E0,2.2534334E1,2.3028524E0,1.1102476E0,8.770108E0,1.3889652E0],"tree_param":{"num_deleted":"0","num_feature":"11","num_nodes":"21","size_leaf_vector":"0"}},{"base_weights":[-2.2672746E-1,-1.14120975E-1,-7.0366013E-1,-2.450761E-1,3.863742E-1,-3.752338E-2,-8.610363E-1,-3.4741774E-1,4.2793456E-1,-3.5839024E-1,1.0240251E0,-4.966781E-1,4.439623E-1,-1.7350292E-2,-1.069483E0,4.7121692E-1,-4.5717576E-1,-1.9705039E-2,9.493064E-1,2.941858E-1,-5.671517E-1,1.398688E0,-1.11802235E-1],"categories":[],"categories_nodes":[],"categories_segments":[],"categories_sizes":[],"default_left":[1,1,1,1,1,1,1,1,1,1,1,0,0,0,0,0,0,0,0,0,0,0,0],"id":16,"left_children":[1,3,5,7,9,11,13,15,17,19,21,-1,-1,-1,-1,-1,-1,-1,-1,-1,-1,-1,-1],"loss_changes":[3.1658816E0,3.3778586E0,1.1577339E0,2.9254916E0,5.484825E0,9.312471E-1,1.5882673E0,3.4093099E0,1.3652272E0,9.4495076E-1,2.7373824E0,0E0,0E0,0E0,0E0,0E0,0E0,0E0,0E0,0E0,0E0,0E0,0E0],"parents":[2147483647,0,0,1,1,2,2,3,3,4,4,5,5,6,6,7,7,8,8,9,9,10,10],"right_children":[2,4,6,8,10,12,14,16,18,20,22,-1,-1,-1,-1,-1,-1,-1,-1,-1,-1,-1,-1],"split_conditions":[8.2239497E-1,4.2297038E-1,-9.575459E-1,1.213952E0,-5.5724442E-2,-1.598439E0,-5.595931E-1,-1.5167077E0,4.5022392E-1,-1.1808474E0,1.8869239E-1,-4.9667813E-2,4.4396233E-2,-1.7350292E-3,-1.0694831E-1,4.7121692E-2,-4.571758E-2,-1.970504E-3,9.493064E-2,2.9418578E-2,-5.671517E-2,1.398688E-1,-1.1180224E-2],"split_indices":[9,9,5,5,7,5,7,3,3,7,3,0,0,0,0,0,0,0,0,0,0,0,0],"split_type":[0,0,0,0,0,0,0,0,0,0,0,0,0,0,0,0,0,0,0,0,0,0,0],"sum_hessian":[5.9443935E1,4.909226E1,1.0351677E1,3.9315617E1,9.776643E0,2.2149098E0,8.136766E0,3.454613E1,4.7694855E0,4.7115693E0,5.0650735E0,1.1175948E0,1.0973148E0,1.8266512E0,6.310116E0,3.6948328E0,3.0851297E1,3.0839083E0,1.6855773E0,1.0427619E0,3.6688075E0,3.6347065E0,1.430367E0],"tree_param":{"num_deleted":"0","num_feature":"11","num_nodes":"23","size_leaf_vector":"0"}},{"base_weights":[-1.7562628E-1,-3.87465E-1,6.7247975E-1,8.977492E-1,-4.8388124E-1,8.3093077E-1,-1.7139426E-1,1.9373582E-1,-6.725655E-1,-4.6905544E-2,9.5889854E-1,1.1060153E0,-3.2263088E-1,-9.1203064E-1,-1.8521887E-1,4.332872E-1,1.2024993E0],"categories":[],"categories_nodes":[],"categories_segments":[],"categories_sizes":[],"default_left":[1,1,1,0,1,1,0,1,1,0,1,0,0,0,0,0,0],"id":17,"left_children":[1,3,5,-1,7,9,-1,11,13,-1,15,-1,-1,-1,-1,-1,-1],"loss_changes":[1.1369319E1,6.643615E0,1.8436561E0,0E0,6.172941E0,1.2674923E0,0E0,5.571641E0,4.1713963E0,0E0,7.010822E-1,0E0,0E0,0E0,0E0,0E0,0E0],"parents":[2147483647,0,0,1,1,2,2,4,4,5,5,7,7,8,8,10,10],"right_children":[2,4,6,-1,8,10,-1,12,14,-1,16,-1,-1,-1,-1,-1,-1],"split_conditions":[1.3503745E0,-3.5238886E0,9.0461344E-1,8.977492E-2,-7.6264024E-1,-1.0855174E0,-1.7139426E-2,-7.3685235E-1,5.8875024E-1,-4.6905545E-3,1.9156201E0,1.1060154E-1,-3.226309E-2,-9.1203064E-2,-1.8521888E-2,4.332872E-2,1.2024993E-1],"split_indices":[1,0,7,0,10,7,0,6,2,0,1,0,0,0,0,0,0],"split_type":[0,0,0,0,0,0,0,0,0,0,0,0,0,0,0,0,0],"sum_hessian":[6.0831524E1,4.910843E1,1.1723094E1,2.847011E0,4.626142E1,9.882779E0,1.8403144E0,1.0070112E1,3.6191307E1,1.3379732E0,8.544806E0,3.2269864E0,6.8431253E0,2.3682924E1,1.2508383E1,3.5860186E0,4.9587874E0],"tree_param":{"num_deleted":"0","num_feature":"11","num_nodes":"17","size_leaf_vector":"0"}},{"base_weights":[-2.1452779E-1,-5.523739E-1,4.1290578E-1,6.2873787E-1,-6.9517744E-1,-7.3253894E-1,5.29874E-1,-1.6025874E-1,9.5640516E-1,-9.102758E-1,-3.4761295E-1,7.9899395E-1,3.271055E-2,-1.8968788E-1,-1.0203052E0,1.9823836E-1,-8.180402E-1,1.043271E0,-6.6242784E-2,-3.6388913E-1,6.656262E-1],"categories":[],"categories_nodes":[],"categories_segments":[],"categories_sizes":[],"default_left":[1,1,1,1,1,0,1,0,0,1,1,1,1,0,0,0,0,0,0,0,0],"id":18,"left_children":[1,3,5,7,9,-1,11,-1,-1,13,15,17,19,-1,-1,-1,-1,-1,-1,-1,-1],"loss_changes":[1.2226059E1,6.7145844E0,3.1189976E0,1.3268948E0,2.2014122E0,0E0,2.5259166E0,0E0,0E0,1.4069195E0,3.8836498E0,2.6756897E0,2.1854522E0,0E0,0E0,0E0,0E0,0E0,0E0,0E0,0E0],"parents":[2147483647,0,0,1,1,2,2,3,3,4,4,6,6,9,9,10,10,11,11,12,12],"right_children":[2,4,6,8,10,-1,12,-1,-1,14,16,18,20,-1,-1,-1,-1,-1,-1,-1,-1],"split_conditions":[8.83909E-1,-2.8627756E0,-1.6191349E0,-1.1622074E0,4.1959816E-1,-7.325389E-2,1.7328337E-1,-1.6025875E-2,9.564052E-2,-1.8741419E0,1.9576043E-1,9.486433E-1,6.0914934E-1,-1.8968789E-2,-1.02030516E-1,1.9823836E-2,-8.180402E-2,1.043271E-1,-6.6242786E-3,-3.6388915E-2,6.656262E-2],"split_indices":[1,0,5,1,8,0,4,0,0,0,2,0,5,0,0,0,0,0,0,0,0],"split_type":[0,0,0,0,0,0,0,0,0,0,0,0,0,0,0,0,0,0,0,0,0],"sum_hessian":[5.5600666E1,3.6218296E1,1.938237E1,3.5396278E0,3.2678665E1,1.3082496E0,1.807412E1,1.1885661E0,2.3510616E0,1.918597E1,1.3492696E1,1.1332572E1,6.741548E0,2.902344E0,1.6283627E1,6.5134907E0,6.979205E0,8.677066E0,2.6555064E0,4.4058185E0,2.3357294E0],"tree_param":{"num_deleted":"0","num_feature":"11","num_nodes":"21","size_leaf_vector":"0"}},{"base_weights":[-4.7307383E-2,-4.9584374E-1,2.0492521E-1,5.8155334E-1,-5.884992E-1,5.790563E-1,-2.5933996E-1,1.0747614E-1,-7.923697E-1,-4.6036518E-1,7.325102E-1,-4.5832095E-1,7.982682E-1,-4.1522026E-1,6.796253E-1,-8.959471E-1,-6.312182E-2,9.312759E-3,-7.2945166E-1,-2.5970715E-1,8.178211E-1,1.8528427E-1,-8.7899244E-1],"categories":[],"categories_nodes":[],"categories_segments":[],"categories_sizes":[],"default_left":[1,1,1,0,1,1,1,1,1,1,1,1,0,0,0,0,0,0,0,0,0,0,0],"id":19,"left_children":[1,3,5,-1,7,9,11,13,15,17,19,21,-1,-1,-1,-1,-1,-1,-1,-1,-1,-1,-1],"loss_changes":[6.6925097E0,2.464675E0,6.7498455E0,0E0,2.9335146E0,3.7425375E0,4.0793624E0,1.9056975E0,1.1252337E0,4.3150836E-1,1.8197517E0,4.3559246E0,0E0,0E0,0E0,0E0,0E0,0E0,0E0,0E0,0E0,0E0,0E0],"parents":[2147483647,0,0,1,1,2,2,4,4,5,5,6,6,7,7,8,8,9,9,10,10,11,11],"right_children":[2,4,6,-1,8,10,12,14,16,18,20,22,-1,-1,-1,-1,-1,-1,-1,-1,-1,-1,-1],"split_conditions":[-3.0427426E-1,-3.7989948E0,1.00916564E-1,5.8155335E-2,-7.6264024E-1,-1.5409763E0,2.2465532E0,-1.0733769E0,1.4917052E0,-7.8179225E-2,-1.5072197E0,-4.0708175E-1,7.9826824E-2,-4.1522026E-2,6.796253E-2,-8.9594714E-2,-6.3121817E-3,9.3127595E-4,-7.294517E-2,-2.5970716E-2,8.178211E-2,1.8528428E-2,-8.7899245E-2],"split_indices":[1,0,0,0,10,8,1,10,4,9,9,10,0,0,0,0,0,0,0,0,0,0,0],"split_type":[0,0,0,0,0,0,0,0,0,0,0,0,0,0,0,0,0,0,0,0,0,0,0],"sum_hessian":[5.7256683E1,2.026116E1,3.6995525E1,1.186621E0,1.907454E1,2.0349497E1,1.6646029E1,4.428682E0,1.4645857E1,2.3605137E0,1.7988983E1,1.4487044E1,2.1589842E0,2.457694E0,1.9709877E0,1.2624209E1,2.0216467E0,1.2114228E0,1.1490909E0,1.2623881E0,1.6726595E1,5.9473953E0,8.539649E0],"tree_param":{"num_deleted":"0","num_feature":"11","num_nodes":"23","size_leaf_vector":"0"}},{"base_weights":[-1.5229633E-1,1.9720945E-1,-4.6941596E-1,-2.5736022E-1,5.3263474E-1,-5.96656E-1,7.7723885E-1,3.5360602E-1,-4.74194E-1,6.302992E-1,9.154633E-2,-1.9879214E-1,-8.5258555E-1,8.3811486E-1,-2.678779E-1,4.804209E-1,-6.522977E-1,1.953485E-1,8.407187E-1,-3.8331938E-1,4.9560338E-1,4.8394445E-1,-5.630183E-1,-1.895222E-2,-9.437934E-1],"categories":[],"categories_nodes":[],"categories_segments":[],"categories_sizes":[],"default_left":[1,1,1,1,1,1,0,1,1,1,1,1,1,0,0,0,0,0,0,0,0,0,0,0,0],"id":20,"left_children":[1,3,5,7,9,11,-1,13,15,17,19,21,23,-1,-1,-1,-1,-1,-1,-1,-1,-1,-1,-1,-1],"loss_changes":[6.5727167E0,4.485215E0,5.3730593E0,1.861065E0,6.632118E-1,2.7476711E0,0E0,1.4051986E0,1.9900064E0,1.074172E0,9.965289E-1,3.3855E0,1.2845783E0,0E0,0E0,0E0,0E0,0E0,0E0,0E0,0E0,0E0,0E0,0E0,0E0],"parents":[2147483647,0,0,1,1,2,2,3,3,4,4,5,5,7,7,8,8,9,9,10,10,11,11,12,12],"right_children":[2,4,6,8,10,12,-1,14,16,18,20,22,24,-1,-1,-1,-1,-1,-1,-1,-1,-1,-1,-1,-1],"split_conditions":[-3.5522068E-1,-1.7386781E-2,2.1862173E0,-8.925359E-1,1.0332128E0,-3.2673323E-1,7.772388E-2,1.4478034E-1,-3.3169417E0,8.858973E-1,-1.7804834E-1,-9.041939E-1,-1.4371079E0,8.3811484E-2,-2.6787791E-2,4.804209E-2,-6.5229766E-2,1.953485E-2,8.407187E-2,-3.8331937E-2,4.956034E-2,4.8394445E-2,-5.6301832E-2,-1.8952221E-3,-9.437934E-2],"split_indices":[0,1,1,6,4,10,0,10,0,1,5,5,6,0,0,0,0,0,0,0,0,0,0,0,0],"split_type":[0,0,0,0,0,0,0,0,0,0,0,0,0,0,0,0,0,0,0,0,0,0,0,0,0],"sum_hessian":[5.7466503E1,2.7517202E1,2.99493E1,1.17823925E1,1.573481E1,2.7648724E1,2.3005776E0,2.921054E0,8.861339E0,1.2531221E1,3.2035882E0,1.1518694E1,1.613003E1,1.4455402E0,1.4755135E0,1.1264229E0,7.7349157E0,4.7144737E0,7.8167477E0,1.4963431E0,1.7072451E0,3.8928714E0,7.6258225E0,1.7098572E0,1.4420172E1],"tree_param":{"num_deleted":"0","num_feature":"11","num_nodes":"25","size_leaf_vector":"0"}},{"base_weights":[-7.166651E-2,-2.3579392E-1,6.462206E-1,9.7617954E-1,-3.216743E-1,9.5470655E-1,-2.1113108E-1,4.3007442E-1,-4.1707343E-1,1.1275223E0,1.514079E-1,-7.773999E-1,4.822102E-1,-3.1021646E-1,1.137273E0,-6.4097273E-1,-5.1707484E-2],"categories":[],"categories_nodes":[],"categories_segments":[],"categories_sizes":[],"default_left":[1,1,1,0,1,1,1,1,1,0,0,0,0,0,0,0,0],"id":21,"left_children":[1,3,5,-1,7,9,11,13,15,-1,-1,-1,-1,-1,-1,-1,-1],"loss_changes":[6.9507804E0,5.2783384E0,3.1119537E0,0E0,3.4274821E0,9.7783375E-1,1.8395879E0,3.2807422E0,3.2962055E0,0E0,0E0,0E0,0E0,0E0,0E0,0E0,0E0],"parents":[2147483647,0,0,1,1,2,2,4,4,5,5,6,6,7,7,8,8],"right_children":[2,4,6,-1,8,10,12,14,16,-1,-1,-1,-1,-1,-1,-1,-1],"split_conditions":[1.3220823E0,-3.5238886E0,1.2523317E0,9.7617954E-2,-1.5407624E0,9.203912E-1,2.306658E0,2.886612E-1,4.8675346E-1,1.1275224E-1,1.514079E-2,-7.773999E-2,4.822102E-2,-3.1021645E-2,1.13727294E-1,-6.409728E-2,-5.1707486E-3],"split_indices":[1,0,0,0,3,7,1,7,3,0,0,0,0,0,0,0,0],"split_type":[0,0,0,0,0,0,0,0,0,0,0,0,0,0,0,0,0],"sum_hessian":[5.6699196E1,4.6695053E1,1.0004143E1,2.4038837E0,4.4291172E1,7.2734947E0,2.7306476E0,4.592663E0,3.969851E1,5.653604E0,1.6198908E0,1.436327E0,1.2943206E0,2.5180886E0,2.0745745E0,2.414681E1,1.5551697E1],"tree_param":{"num_deleted":"0","num_feature":"11","num_nodes":"17","size_leaf_vector":"0"}},{"base_weights":[-9.595334E-2,3.3018163E-1,-2.7098864E-1,4.52063E-1,-6.136219E-1,-9.614272E-1,-1.3132896E-1,-4.449491E-1,5.470438E-1,-4.163528E-2,-7.5665325E-1,6.647369E-1,-1.46684395E-2,3.8625205E-1,-2.0339572E-1,-2.1091467E-1,-8.788368E-1],"categories":[],"categories_nodes":[],"categories_segments":[],"categories_sizes":[],"default_left":[1,1,1,1,0,0,1,0,1,1,1,0,0,0,0,0,0],"id":22,"left_children":[1,3,5,7,-1,-1,9,-1,11,13,15,-1,-1,-1,-1,-1,-1],"loss_changes":[4.26551E0,2.2044091E0,3.7535083E0,1.5564804E0,0E0,0E0,1.9104941E0,0E0,9.6072197E-1,2.247713E0,1.003747E-1,0E0,0E0,0E0,0E0,0E0,0E0],"parents":[2147483647,0,0,1,1,2,2,3,3,6,6,8,8,9,9,10,10],"right_children":[2,4,6,8,-1,-1,10,-1,12,14,16,-1,-1,-1,-1,-1,-1],"split_conditions":[-1.2148219E0,1.549911E0,-1.2299881E0,-1.8788977E0,-6.136219E-2,-9.6142724E-2,2.6022706E0,-4.449491E-2,1.1645947E0,-6.2067837E-1,-9.235593E-1,6.647369E-2,-1.466844E-3,3.8625207E-2,-2.0339573E-2,-2.1091467E-2,-8.788368E-2],"split_indices":[0,9,2,8,0,0,0,0,3,6,5,0,0,0,0,0,0],"split_type":[0,0,0,0,0,0,0,0,0,0,0,0,0,0,0,0,0],"sum_hessian":[5.4987522E1,1.5751963E1,3.923556E1,1.4411857E1,1.3401055E0,5.6112137E0,3.3624348E1,1.0271056E0,1.3384751E1,3.033921E1,3.2851367E0,1.0914476E1,2.4702747E0,7.9423566E0,2.2396854E1,1.099661E0,2.1854756E0],"tree_param":{"num_deleted":"0","num_feature":"11","num_nodes":"17","size_leaf_vector":"0"}},{"base_weights":[-8.543093E-2,-3.2413056E-1,5.4033625E-1,2.453954E-1,-5.175268E-1,-4.1491088E-1,6.5398484E-1,-5.2926654E-1,5.695655E-1,-7.589015E-1,-2.4858044E-2,8.767791E-1,1.736215E-1,4.6704695E-2,-8.0862504E-1,7.345384E-1,-2.0200178E-1,-9.0927774E-1,2.2595625E-1,-2.6000312E-1,9.9706036E-1,4.6874657E-2,1.1299939E0,-2.4706772E-1,6.90528E-1],"categories":[],"categories_nodes":[],"categories_segments":[],"categories_sizes":[],"default_left":[1,1,1,1,1,0,1,1,1,1,1,1,1,0,0,0,0,0,0,0,0,0,0,0,0],"id":23,"left_children":[1,3,5,7,9,-1,11,13,15,17,19,21,23,-1,-1,-1,-1,-1,-1,-1,-1,-1,-1,-1,-1],"loss_changes":[7.8051476E0,4.2685823E0,1.8432922E0,2.8654342E0,3.3573737E0,0E0,1.2741947E0,6.0582525E-1,1.1259024E0,3.022542E0,2.751085E0,1.808558E0,1.360089E0,0E0,0E0,0E0,0E0,0E0,0E0,0E0,0E0,0E0,0E0,0E0,0E0],"parents":[2147483647,0,0,1,1,2,2,3,3,4,4,6,6,7,7,8,8,9,9,10,10,11,11,12,12],"right_children":[2,4,6,8,10,-1,12,14,16,18,20,22,24,-1,-1,-1,-1,-1,-1,-1,-1,-1,-1,-1,-1],"split_conditions":[1.1188821E0,-1.4291875E0,-1.3708038E0,-1.2714729E0,4.788722E-1,-4.1491088E-2,3.8859606E-1,-4.955138E-1,7.522764E-1,1.1058702E0,1.0899572E0,-5.723449E-1,2.561471E-1,4.6704696E-3,-8.086251E-2,7.3453836E-2,-2.0200178E-2,-9.092777E-2,2.2595625E-2,-2.6000312E-2,9.970604E-2,4.6874657E-3,1.12999395E-1,-2.4706772E-2,6.90528E-2],"split_indices":[1,0,5,1,3,0,4,6,5,8,5,2,5,0,0,0,0,0,0,0,0,0,0,0,0],"split_type":[0,0,0,0,0,0,0,0,0,0,0,0,0,0,0,0,0,0,0,0,0,0,0,0,0],"sum_hessian":[5.0081123E1,3.6601475E1,1.347965E1,9.210097E0,2.7391376E1,1.1513569E0,1.2328293E1,2.530452E0,6.6796455E0,1.8021608E1,9.369768E0,7.8583293E0,4.469963E0,1.0984737E0,1.4319783E0,5.5425544E0,1.1370913E0,1.5700993E1,2.320616E0,8.223176E0,1.1465926E0,2.114204E0,5.7441254E0,2.7521367E0,1.7178265E0],"tree_param":{"num_deleted":"0","num_feature":"11","num_nodes":"25","size_leaf_vector":"0"}},{"base_weights":[-1.0927682E-1,-3.5446385E-1,3.9520144E-1,-6.04908E-1,2.3171488E-2,6.581651E-1,-2.301435E-2,7.240805E-2,-8.1820905E-1,7.9563874E-1,-3.127318E-1,5.536165E-2,8.745976E-1,-4.4640538E-1,7.4000025E-1,4.3750557E-1,-6.139998E-1,-3.4539264E-1,-1.0169348E0,8.8654794E-2,1.2067952E0,-8.400479E-1,-3.2477397E-2,5.587977E-1,-5.690097E-1,1.0383079E0,-2.4842076E-2,7.102257E-1,-9.3968624E-1],"categories":[],"categories_nodes":[],"categories_segments":[],"categories_sizes":[],"default_left":[1,1,1,1,1,1,1,1,1,1,1,1,1,1,0,0,0,0,0,0,0,0,0,0,0,0,0,0,0],"id":24,"left_children":[1,3,5,7,9,11,13,15,17,19,21,23,25,27,-1,-1,-1,-1,-1,-1,-1,-1,-1,-1,-1,-1,-1,-1,-1],"loss_changes":[6.3177075E0,3.2425046E0,1.8635657E0,3.0298018E0,4.030606E0,1.3022876E0,2.738583E0,1.7329493E0,1.1256638E0,1.2589798E0,1.579942E0,1.5132669E0,1.1375442E0,3.7586172E0,0E0,0E0,0E0,0E0,0E0,0E0,0E0,0E0,0E0,0E0,0E0,0E0,0E0,0E0,0E0],"parents":[2147483647,0,0,1,1,2,2,3,3,4,4,5,5,6,6,7,7,8,8,9,9,10,10,11,11,12,12,13,13],"right_children":[2,4,6,8,10,12,14,16,18,20,22,24,26,28,-1,-1,-1,-1,-1,-1,-1,-1,-1,-1,-1,-1,-1,-1,-1],"split_conditions":[9.341034E-1,3.79363E-1,1.6188565E-1,-1.186692E0,-6.8415976E-1,-5.723449E-1,2.285383E-1,5.60732E-1,-6.168926E-1,-1.2606028E0,-7.8065306E-2,1.5942822E-1,1.299829E0,-6.215387E-1,7.400002E-2,4.3750558E-2,-6.1399978E-2,-3.4539264E-2,-1.01693474E-1,8.865479E-3,1.2067952E-1,-8.400479E-2,-3.2477397E-3,5.587977E-2,-5.6900974E-2,1.0383079E-1,-2.4842077E-3,7.102257E-2,-9.396862E-2],"split_indices":[1,3,4,3,10,2,10,5,5,1,10,6,7,10,0,0,0,0,0,0,0,0,0,0,0,0,0,0,0],"split_type":[0,0,0,0,0,0,0,0,0,0,0,0,0,0,0,0,0,0,0,0,0,0,0,0,0,0,0,0,0],"sum_hessian":[4.8943783E1,3.313624E1,1.5807542E1,1.9561445E1,1.3574795E1,9.352917E0,6.454625E0,4.843125E0,1.471832E1,3.6991987E0,9.875596E0,2.8026965E0,6.5502205E0,4.4180355E0,2.0365894E0,3.398234E0,1.4448911E0,5.165761E0,9.552559E0,1.8072513E0,1.8919474E0,2.7339852E0,7.141611E0,1.609758E0,1.1929384E0,5.410959E0,1.139262E0,1.1893892E0,3.2286463E0],"tree_param":{"num_deleted":"0","num_feature":"11","num_nodes":"29","size_leaf_vector":"0"}},{"base_weights":[-8.236993E-2,7.78302E-1,-1.5382981E-1,1.5418723E-1,-3.5374177E-1,-3.0361825E-1,4.8069626E-1,-6.0327955E-2,-6.6825545E-1,-7.5393325E-1,2.2917716E-1,7.9639554E-1,-1.3889013E-1,-5.2053803E-1,4.9086675E-1,-9.7673213E-1,-3.4412894E-1],"categories":[],"categories_nodes":[],"categories_segments":[],"categories_sizes":[],"default_left":[1,0,1,1,1,1,1,1,1,0,0,0,0,0,0,0,0],"id":25,"left_children":[1,-1,3,5,7,9,11,13,15,-1,-1,-1,-1,-1,-1,-1,-1],"loss_changes":[3.1287005E0,0E0,2.8875418E0,2.95678E0,2.562388E0,2.1980257E0,2.3332963E0,4.2356443E0,1.0149941E0,0E0,0E0,0E0,0E0,0E0,0E0,0E0,0E0],"parents":[2147483647,0,0,2,2,3,3,4,4,5,5,6,6,7,7,8,8],"right_children":[2,-1,4,6,8,10,12,14,16,-1,-1,-1,-1,-1,-1,-1,-1],"split_conditions":[-3.3506217E0,7.78302E-2,-4.3534625E-1,-7.8860015E-2,2.4334316E-1,-3.6562312E-2,1.0791907E0,4.3773386E-1,1.54318E0,-7.539333E-2,2.2917716E-2,7.9639554E-2,-1.3889014E-2,-5.2053805E-2,4.9086675E-2,-9.7673215E-2,-3.4412894E-2],"split_indices":[0,0,10,7,0,2,7,10,0,0,0,0,0,0,0,0,0],"split_type":[0,0,0,0,0,0,0,0,0,0,0,0,0,0,0,0,0],"sum_hessian":[4.792361E1,2.9156535E0,4.5007954E1,1.7804365E1,2.720359E1,7.441118E0,1.0363247E1,1.46904745E1,1.2513117E1,3.8077674E0,3.6333504E0,6.676161E0,3.6870863E0,8.036316E0,6.654158E0,5.3797193E0,7.133397E0],"tree_param":{"num_deleted":"0","num_feature":"11","num_nodes":"17","size_leaf_vector":"0"}},{"base_weights":[-4.7025498E-2,-5.2627856E-1,1.6734627E-1,6.0825843E-2,-7.243079E-1,-4.6736263E-2,3.9737853E-1,-6.848995E-1,5.154256E-1,-9.327499E-1,6.700869E-2,2.4567042E-1,-4.6803224E-1,9.406826E-1,-4.655782E-2,8.8185674E-1,-3.627477E-2,-1.733324E-1,-1.0397097E0,5.870023E-1,-5.8245623E-1,5.9607875E-1,-4.804285E-2,3.9503518E-1,-7.407598E-1,-1.5701115E-1,1.2713337E0,-6.2047476E-1,2.3140922E-1],"categories":[],"categories_nodes":[],"categories_segments":[],"categories_sizes":[],"default_left":[1,1,1,1,1,1,1,0,1,1,1,1,1,1,1,0,0,0,0,0,0,0,0,0,0,0,0,0,0],"id":26,"left_children":[1,3,5,7,9,11,13,-1,15,17,19,21,23,25,27,-1,-1,-1,-1,-1,-1,-1,-1,-1,-1,-1,-1,-1,-1],"loss_changes":[5.2331114E0,1.8715754E0,1.7599251E0,2.0097938E0,2.0140414E0,2.4814458E0,4.180358E0,0E0,7.611482E-1,5.859022E-1,1.4900632E0,1.2631903E0,2.2261958E0,3.015872E0,1.8012896E0,0E0,0E0,0E0,0E0,0E0,0E0,0E0,0E0,0E0,0E0,0E0,0E0,0E0,0E0],"parents":[2147483647,0,0,1,1,2,2,3,3,4,4,5,5,6,6,8,8,9,9,10,10,11,11,12,12,13,13,14,14],"right_children":[2,4,6,8,10,12,14,-1,16,18,20,22,24,26,28,-1,-1,-1,-1,-1,-1,-1,-1,-1,-1,-1,-1,-1,-1],"split_conditions":[-5.2810025E-1,-7.564446E-1,2.0765264E-1,4.7476172E-1,6.9347775E-1,1.19782776E-1,7.590078E-1,-6.8489954E-2,1.7195585E-1,-1.2268714E0,-1.1909119E-1,-4.3534625E-1,-8.0320954E-1,-5.480454E-1,-7.6874626E-1,8.8185675E-2,-3.627477E-3,-1.733324E-2,-1.0397097E-1,5.870023E-2,-5.8245625E-2,5.9607875E-2,-4.804285E-3,3.950352E-2,-7.407598E-2,-1.5701115E-2,1.2713337E-1,-6.2047478E-2,2.3140922E-2],"split_indices":[1,10,8,3,8,4,8,0,2,5,5,10,2,2,4,0,0,0,0,0,0,0,0,0,0,0,0,0,0],"split_type":[0,0,0,0,0,0,0,0,0,0,0,0,0,0,0,0,0,0,0,0,0,0,0,0,0,0,0,0,0],"sum_hessian":[4.9079082E1,1.4718711E1,3.4360374E1,3.8871589E0,1.0831552E1,1.820991E1,1.6150463E1,1.2803212E0,2.6068377E0,8.4317875E0,2.3997636E0,1.0995317E1,7.214593E0,6.759277E0,9.391186E0,1.206839E0,1.3999987E0,1.3644791E0,7.067309E0,1.386133E0,1.0136306E0,4.5443363E0,6.450981E0,1.6246866E0,5.589906E0,1.686289E0,5.072988E0,2.662255E0,6.728931E0],"tree_param":{"num_deleted":"0","num_feature":"11","num_nodes":"29","size_leaf_vector":"0"}},{"base_weights":[-1.2158625E-1,-6.5544623E-1,8.386211E-2,4.414644E-1,-7.8858244E-1,3.5463783E-1,-1.0910795E-1,-1.0660145E0,-5.3885274E-2,7.0897305E-1,5.4515477E-2,5.8110297E-1,-2.5893953E-1,6.258337E-1,-4.4499123E-1,-1.9981469E-1,1.0713797E0,-6.1023927E-1,5.1849306E-1,1.0985241E0,-3.4289253E-1,-8.732019E-1,-4.0192816E-2],"categories":[],"categories_nodes":[],"categories_segments":[],"categories_sizes":[],"default_left":[1,1,1,0,1,1,1,0,1,1,1,1,1,0,0,0,0,0,0,0,0,0,0],"id":27,"left_children":[1,3,5,-1,7,9,11,-1,13,15,17,19,21,-1,-1,-1,-1,-1,-1,-1,-1,-1,-1],"loss_changes":[5.3452473E0,2.3221583E0,1.9049288E0,0E0,2.472684E0,1.5668515E0,2.3862147E0,0E0,1.4630132E0,2.4668458E0,3.1716232E0,2.3675885E0,2.444636E0,0E0,0E0,0E0,0E0,0E0,0E0,0E0,0E0,0E0,0E0],"parents":[2147483647,0,0,1,1,2,2,4,4,5,5,6,6,8,8,9,9,10,10,11,11,12,12],"right_children":[2,4,6,-1,8,10,12,-1,14,16,18,20,22,-1,-1,-1,-1,-1,-1,-1,-1,-1,-1],"split_conditions":[-8.597985E-1,-1.7536621E0,-8.221674E-2,4.414644E-2,6.7939925E-1,-3.7941575E-1,-8.8188326E-1,-1.06601454E-1,8.121697E-1,-1.145186E0,3.7044367E-1,5.405274E-1,1.8815652E-1,6.258337E-2,-4.4499125E-2,-1.998147E-2,1.0713797E-1,-6.102393E-2,5.1849306E-2,1.0985241E-1,-3.4289252E-2,-8.732019E-2,-4.019282E-3],"split_indices":[1,8,9,0,8,5,6,0,8,5,5,3,9,0,0,0,0,0,0,0,0,0,0],"split_type":[0,0,0,0,0,0,0,0,0,0,0,0,0,0,0,0,0,0,0,0,0,0,0],"sum_hessian":[4.7233486E1,1.2517165E1,3.471632E1,1.1041534E0,1.1413012E1,1.4097256E1,2.0619066E1,7.9572744E0,3.4557376E0,5.8400283E0,8.257227E0,3.1642635E0,1.7454802E1,1.042964E0,2.4127736E0,1.7928472E0,4.047181E0,3.2646415E0,4.9925857E0,1.9073156E0,1.2569479E0,3.7979484E0,1.3656854E1],"tree_param":{"num_deleted":"0","num_feature":"11","num_nodes":"23","size_leaf_vector":"0"}},{"base_weights":[2.2208504E-2,-1.271101E-1,6.1881447E-1,2.111372E-1,-4.443091E-1,-1.572891E-1,7.697904E-1,-7.790284E-1,3.408931E-1,-7.2547567E-1,-7.510507E-2,2.9033635E-2,8.8710296E-1,8.777541E-1,1.6692124E-1,1.1434727E-1,-9.02091E-1,-5.3622663E-1,4.6117753E-1],"categories":[],"categories_nodes":[],"categories_segments":[],"categories_sizes":[],"default_left":[1,1,1,1,1,0,1,0,1,1,1,0,0,0,0,0,0,0,0],"id":28,"left_children":[1,3,5,7,9,-1,11,-1,13,15,17,-1,-1,-1,-1,-1,-1,-1,-1],"loss_changes":[4.4235177E0,4.368182E0,1.2850327E0,2.829714E0,2.113144E0,0E0,7.1164274E-1,0E0,1.5664992E0,1.8442597E0,2.7555196E0,0E0,0E0,0E0,0E0,0E0,0E0,0E0,0E0],"parents":[2147483647,0,0,1,1,2,2,3,3,4,4,6,6,8,8,9,9,10,10],"right_children":[2,4,6,8,10,-1,12,-1,14,16,18,-1,-1,-1,-1,-1,-1,-1,-1],"split_conditions":[1.3503745E0,-3.6141795E-1,-9.72203E-1,-2.6562605E0,2.9989007E-1,-1.5728911E-2,-1.2407382E0,-7.7902846E-2,-9.3559813E-1,-1.0276922E0,1.189331E0,2.9033634E-3,8.87103E-2,8.777541E-2,1.6692124E-2,1.1434727E-2,-9.0209104E-2,-5.3622663E-2,4.6117753E-2],"split_indices":[1,0,7,1,8,0,4,0,6,4,0,0,0,0,0,0,0,0,0],"split_type":[0,0,0,0,0,0,0,0,0,0,0,0,0,0,0,0,0,0,0],"sum_hessian":[4.7772427E1,3.8838795E1,8.933633E0,1.89576E1,1.9881193E1,1.4480428E0,7.48559E0,1.6167092E0,1.7340889E1,1.0738409E1,9.142785E0,1.1939595E0,6.2916303E0,3.253992E0,1.4086898E1,1.9271574E0,8.811252E0,4.9159336E0,4.2268515E0],"tree_param":{"num_deleted":"0","num_feature":"11","num_nodes":"19","size_leaf_vector":"0"}},{"base_weights":[-8.9365296E-2,1.8688111E-1,-2.9416984E-1,-2.4432908E-1,3.8566917E-1,2.979768E-1,-5.590268E-1,-7.4240535E-1,3.2527018E-1,-3.19432E-1,6.0112405E-1,-4.1146713E-1,5.8618397E-1,-7.260123E-1,2.1693057E-1,-8.7530065E-1,-1.7834656E-1,6.7855006E-1,-3.2982987E-1,3.535894E-1,-7.612735E-1,-3.3405063E-1,7.7212024E-1,1.8259885E-2,-6.2896645E-1,8.570658E-1,-1.3553868E-1,-7.935917E-1,1.2370723E-1,-4.758266E-1,6.462461E-1],"categories":[],"categories_nodes":[],"categories_segments":[],"categories_sizes":[],"default_left":[1,1,1,1,1,1,1,1,1,1,1,1,1,1,1,0,0,0,0,0,0,0,0,0,0,0,0,0,0,0,0],"id":29,"left_children":[1,3,5,7,9,11,13,15,17,19,21,23,25,27,29,-1,-1,-1,-1,-1,-1,-1,-1,-1,-1,-1,-1,-1,-1,-1,-1],"loss_changes":[2.6642623E0,1.8297629E0,4.3811736E0,2.227624E0,2.3562202E0,2.0726845E0,2.6084518E0,1.4669871E-1,1.1405696E0,1.4548578E0,2.0583162E0,3.0825847E-1,1.4420896E0,1.005229E0,1.5327454E0,0E0,0E0,0E0,0E0,0E0,0E0,0E0,0E0,0E0,0E0,0E0,0E0,0E0,0E0,0E0,0E0],"parents":[2147483647,0,0,1,1,2,2,3,3,4,4,5,5,6,6,7,7,8,8,9,9,10,10,11,11,12,12,13,13,14,14],"right_children":[2,4,6,8,10,12,14,16,18,20,22,24,26,28,30,-1,-1,-1,-1,-1,-1,-1,-1,-1,-1,-1,-1,-1,-1,-1,-1],"split_conditions":[-2.9455188E-1,-5.667326E-1,-6.5708596E-1,-1.61262E-1,-6.623727E-1,-7.9977906E-1,1.3220823E0,-7.123935E-1,1.1338599E-1,-1.7640879E0,-1.3671801E0,1.9047964E-1,1.1784399E0,2.431635E0,-9.296867E-2,-8.753007E-2,-1.7834656E-2,6.785501E-2,-3.2982986E-2,3.535894E-2,-7.612735E-2,-3.340506E-2,7.721203E-2,1.8259885E-3,-6.289665E-2,8.5706584E-2,-1.3553868E-2,-7.935917E-2,1.2370723E-2,-4.758266E-2,6.462461E-2],"split_indices":[4,2,6,7,6,1,1,4,6,6,1,5,1,4,6,0,0,0,0,0,0,0,0,0,0,0,0,0,0,0,0],"split_type":[0,0,0,0,0,0,0,0,0,0,0,0,0,0,0,0,0,0,0,0,0,0,0,0,0,0,0,0,0,0,0],"sum_hessian":[4.5119617E1,1.9246664E1,2.5872953E1,6.0007563E0,1.3245908E1,7.95739E0,1.7915564E1,3.039519E0,2.9612372E0,2.9872358E0,1.0258672E1,2.1752262E0,5.7821636E0,1.4795869E1,3.1196952E0,2.0133686E0,1.0261505E0,1.9005303E0,1.0607069E0,1.2630584E0,1.7241774E0,1.4384211E0,8.8202505E0,1.0388168E0,1.1364093E0,4.0678587E0,1.7143047E0,1.3767013E1,1.0288556E0,1.1521735E0,1.9675215E0],"tree_param":{"num_deleted":"0","num_feature":"11","num_nodes":"31","size_leaf_vector":"0"}},{"base_weights":[5.1771563E-2,2.6478368E-1,-2.3823398E-1,-7.54119E-1,3.5461837E-1,-3.7748307E-1,6.8776745E-1,9.44813E-1,2.416599E-1,-3.8037416E-2,-8.8103867E-1,1.2073213E-2,6.215847E-1,2.6815048E-1,-6.374354E-1,-1.9178076E-1,-9.618665E-1],"categories":[],"categories_nodes":[],"categories_segments":[],"categories_sizes":[],"default_left":[1,1,1,0,1,1,0,0,1,1,1,0,0,0,0,0,0],"id":30,"left_children":[1,3,5,-1,7,9,-1,-1,11,13,15,-1,-1,-1,-1,-1,-1],"loss_changes":[3.0239494E0,2.8401217E0,2.9446754E0,0E0,1.5390086E0,3.1708925E0,0E0,0E0,2.0505571E0,2.4179294E0,2.3356676E-1,0E0,0E0,0E0,0E0,0E0,0E0],"parents":[2147483647,0,0,1,1,2,2,4,4,5,5,8,8,9,9,10,10],"right_children":[2,4,6,-1,8,10,-1,-1,12,14,16,-1,-1,-1,-1,-1,-1],"split_conditions":[2.4334316E-1,-2.6562605E0,2.1862173E0,-7.54119E-2,-3.3506217E0,1.6915992E-1,6.877675E-2,9.4481304E-2,8.8559735E-1,1.6707788E-1,-7.1843505E-1,1.2073213E-3,6.2158473E-2,2.6815047E-2,-6.374354E-2,-1.9178076E-2,-9.618665E-2],"split_indices":[0,1,1,0,0,10,0,0,1,5,8,0,0,0,0,0,0],"split_type":[0,0,0,0,0,0,0,0,0,0,0,0,0,0,0,0,0],"sum_hessian":[4.693012E1,2.7106834E1,1.9823286E1,1.5971768E0,2.5509659E1,1.7746914E1,2.0763714E0,2.9149802E0,2.2594679E1,1.1243341E1,6.5035725E0,1.4727001E1,7.8676767E0,7.8076344E0,3.4357069E0,1.03661E0,5.4669623E0],"tree_param":{"num_deleted":"0","num_feature":"11","num_nodes":"17","size_leaf_vector":"0"}},{"base_weights":[-6.338103E-2,1.482336E-1,-3.4115422E-1,2.907956E-1,-4.0923277E-1,8.229133E-2,-5.989639E-1,-5.1518965E-1,3.953445E-1,3.961714E-1,-7.8841496E-1,-4.3405375E-1,9.302583E-1,-7.299153E-1,-2.3666028E-2,6.458016E-2,8.8053674E-1,-2.9025015E-1,-9.2439157E-1,3.8089994E-1,-7.191517E-1,2.0630158E-1,1.2342232E0,-9.3297255E-1,1.10482596E-1,4.8040086E-1,-5.9536946E-1],"categories":[],"categories_nodes":[],"categories_segments":[],"categories_sizes":[],"default_left":[1,1,1,1,1,1,1,0,1,0,1,1,1,1,1,0,0,0,0,0,0,0,0,0,0,0,0],"id":31,"left_children":[1,3,5,7,9,11,13,-1,15,-1,17,19,21,23,25,-1,-1,-1,-1,-1,-1,-1,-1,-1,-1,-1,-1],"loss_changes":[2.8131492E0,2.294416E0,2.3008997E0,2.089768E0,2.1416397E0,4.206207E0,9.5762587E-1,0E0,3.2135885E0,0E0,3.0220747E-2,1.6864524E0,5.386653E-1,1.8962097E0,1.2753114E0,0E0,0E0,0E0,0E0,0E0,0E0,0E0,0E0,0E0,0E0,0E0,0E0],"parents":[2147483647,0,0,1,1,2,2,3,3,4,4,5,5,6,6,8,8,10,10,11,11,12,12,13,13,14,14],"right_children":[2,4,6,8,10,12,14,-1,16,-1,18,20,22,24,26,-1,-1,-1,-1,-1,-1,-1,-1,-1,-1,-1,-1],"split_conditions":[1.00916564E-1,8.2239497E-1,-3.628688E-1,-1.5409763E0,-8.91146E-1,-6.174516E-1,8.2153857E-1,-5.1518966E-2,2.8366363E-1,3.961714E-2,-2.0394021E-1,-8.8188326E-1,-4.6908024E-1,8.3807266E-1,6.747129E-1,6.4580156E-3,8.805367E-2,-2.9025016E-2,-9.243916E-2,3.8089994E-2,-7.191517E-2,2.0630158E-2,1.23422325E-1,-9.329726E-2,1.104826E-2,4.804009E-2,-5.9536945E-2],"split_indices":[0,9,2,8,6,2,6,0,10,0,4,6,6,10,2,0,0,0,0,0,0,0,0,0,0,0,0],"split_type":[0,0,0,0,0,0,0,0,0,0,0,0,0,0,0,0,0,0,0,0,0,0,0,0,0,0,0],"sum_hessian":[4.5997917E1,2.6372803E1,1.9625116E1,2.1382877E1,4.9899244E0,7.6844378E0,1.1940679E1,2.0042253E0,1.9378653E1,1.5829164E0,3.4070082E0,5.079529E0,2.6049087E0,9.507732E0,2.4329457E0,1.2196904E1,7.1817484E0,1.4026846E0,2.0043235E0,1.2293617E0,3.8501673E0,1.2666992E0,1.3382095E0,7.568801E0,1.938932E0,1.3778276E0,1.0551182E0],"tree_param":{"num_deleted":"0","num_feature":"11","num_nodes":"27","size_leaf_vector":"0"}},{"base_weights":[-2.4057074E-2,-2.0995212E-1,3.4414917E-1,7.015104E-1,-3.0052242E-1,4.7848794E-1,-3.4122068E-1,-5.4639363E-1,3.6672235E-2,1.5800425E-1,9.46253E-1,-5.181183E-1,1.1305997E-2,-8.719528E-1,5.0110826E-3,-1.9242477E-1,7.70698E-1,5.430756E-1,-1.803421E-1,1.2023604E0,3.9092507E-2],"categories":[],"categories_nodes":[],"categories_segments":[],"categories_sizes":[],"default_left":[1,1,1,0,1,1,1,1,1,1,1,0,0,0,0,0,0,0,0,0,0],"id":32,"left_children":[1,3,5,-1,7,9,11,13,15,17,19,-1,-1,-1,-1,-1,-1,-1,-1,-1,-1],"loss_changes":[3.154133E0,2.7320132E0,1.5889462E0,0E0,2.3812537E0,1.8537498E0,2.0051232E-1,2.972384E0,2.3255007E0,1.2875116E0,1.1686983E0,0E0,0E0,0E0,0E0,0E0,0E0,0E0,0E0,0E0,0E0],"parents":[2147483647,0,0,1,1,2,2,4,4,5,5,6,6,7,7,8,8,9,9,10,10],"right_children":[2,4,6,-1,8,10,12,14,16,18,20,-1,-1,-1,-1,-1,-1,-1,-1,-1,-1],"split_conditions":[8.8559735E-1,-3.5264857E0,1.5553951E0,7.0151046E-2,3.79363E-1,2.8961587E-1,1.9747031E0,5.424411E-1,1.1631122E0,-1.6280273E-1,8.479389E-2,-5.1811833E-2,1.1305998E-3,-8.719528E-2,5.011083E-4,-1.9242479E-2,7.7069804E-2,5.430756E-2,-1.803421E-2,1.2023604E-1,3.9092507E-3],"split_indices":[1,0,3,0,3,8,1,8,6,4,6,0,0,0,0,0,0,0,0,0,0],"split_type":[0,0,0,0,0,0,0,0,0,0,0,0,0,0,0,0,0,0,0,0,0],"sum_hessian":[4.4025288E1,2.954088E1,1.4484406E1,2.060398E0,2.7480482E1,1.2363E1,2.121407E0,1.5533533E1,1.194695E1,8.130363E0,4.2326365E0,1.0998001E0,1.0216068E0,9.401431E0,6.1321015E0,9.66748E0,2.27947E0,3.5196116E0,4.6107516E0,3.047003E0,1.1856335E0],"tree_param":{"num_deleted":"0","num_feature":"11","num_nodes":"21","size_leaf_vector":"0"}},{"base_weights":[-7.259101E-2,1.6713028E-1,-2.366297E-1,-4.551176E-1,4.6610117E-1,2.5211838E-1,-4.542263E-1,3.0407485E-1,-8.367067E-1,-7.972271E-3,8.280613E-1,7.664865E-1,-1.3921621E-1,-6.056406E-1,4.7339427E-1,-2.5586724E-1,-9.557916E-1,-3.0253857E-1,4.7125068E-1,-1.2335916E-1,1.1150498E0,8.8697547E-1,2.5447655E-1,-5.123669E-1,5.4224265E-1,1.1813987E-1,-7.434936E-1,1.4952675E-1,5.695785E-1],"categories":[],"categories_nodes":[],"categories_segments":[],"categories_sizes":[],"default_left":[1,1,1,1,1,1,1,0,1,1,1,1,1,1,1,0,0,0,0,0,0,0,0,0,0,0,0,0,0],"id":33,"left_children":[1,3,5,7,9,11,13,-1,15,17,19,21,23,25,27,-1,-1,-1,-1,-1,-1,-1,-1,-1,-1,-1,-1,-1,-1],"loss_changes":[1.7001483E0,3.5129E0,2.8249862E0,2.0691547E0,2.1478813E0,1.8165419E0,2.8137636E0,0E0,6.223607E-2,1.0450374E0,2.0722394E0,1.0190964E-2,1.7197437E0,1.6748586E0,1.0963917E-2,0E0,0E0,0E0,0E0,0E0,0E0,0E0,0E0,0E0,0E0,0E0,0E0,0E0,0E0],"parents":[2147483647,0,0,1,1,2,2,3,3,4,4,5,5,6,6,8,8,9,9,10,10,11,11,12,12,13,13,14,14],"right_children":[2,4,6,8,10,12,14,-1,16,18,20,22,24,26,28,-1,-1,-1,-1,-1,-1,-1,-1,-1,-1,-1,-1,-1,-1],"split_conditions":[-4.6429026E-1,-1.3679206E0,-6.2067837E-1,-7.208307E-1,9.884618E-2,-6.8597114E-1,1.122496E0,3.0407486E-2,-1.06475875E-1,5.660181E-1,-7.7460927E-1,7.143502E-1,6.7411864E-1,-1.2663846E0,3.4427232E-1,-2.5586724E-2,-9.557916E-2,-3.0253857E-2,4.7125068E-2,-1.2335916E-2,1.1150499E-1,8.8697545E-2,2.5447655E-2,-5.123669E-2,5.4224264E-2,1.1813987E-2,-7.4349366E-2,1.49526745E-2,5.6957852E-2],"split_indices":[5,5,6,3,7,10,10,0,8,4,4,4,8,3,6,0,0,0,0,0,0,0,0,0,0,0,0,0,0],"split_type":[0,0,0,0,0,0,0,0,0,0,0,0,0,0,0,0,0,0,0,0,0,0,0,0,0,0,0,0,0],"sum_hessian":[4.1229137E1,1.6742825E1,2.4486313E1,5.26419E0,1.1478635E1,7.494382E0,1.6991932E1,1.8288091E0,3.4353812E0,5.3930798E0,6.0855546E0,2.8239496E0,4.6704326E0,1.4905955E1,2.0859764E0,1.1201986E0,2.3151824E0,3.5683773E0,1.8247026E0,1.5423934E0,4.5431614E0,1.693165E0,1.1307846E0,3.1782374E0,1.492195E0,2.407688E0,1.2498267E1,1.0626048E0,1.0233716E0],"tree_param":{"num_deleted":"0","num_feature":"11","num_nodes":"29","size_leaf_vector":"0"}},{"base_weights":[-2.6852649E-2,3.3398235E-1,-3.0285382E-1,4.6753708E-1,-4.8363557E-1,4.5651574E-2,-5.5129176E-1,2.3450606E-1,8.817713E-1,-2.8156616E-2,-6.983782E-1,-8.030753E-1,3.810035E-1,-7.3776716E-1,1.7143343E-1,7.3340774E-1,6.543688E-2,1.0882332E0,2.878726E-1,8.841137E-1,-1.06600374E-1,-6.2910646E-2,-8.7027466E-1,8.028497E-1,-3.932347E-1],"categories":[],"categories_nodes":[],"categories_segments":[],"categories_sizes":[],"default_left":[1,1,1,1,1,1,1,1,1,0,0,0,1,1,1,0,0,0,0,0,0,0,0,0,0],"id":34,"left_children":[1,3,5,7,9,11,13,15,17,-1,-1,-1,19,21,23,-1,-1,-1,-1,-1,-1,-1,-1,-1,-1],"loss_changes":[4.4845653E0,2.3610322E0,2.2298176E0,1.4645653E0,2.9692185E-1,3.5850701E0,2.1402578E0,1.0015683E0,4.066496E-1,0E0,0E0,0E0,2.2864585E0,1.0242538E0,1.6976897E0,0E0,0E0,0E0,0E0,0E0,0E0,0E0,0E0,0E0,0E0],"parents":[2147483647,0,0,1,1,2,2,3,3,4,4,5,5,6,6,7,7,8,8,12,12,13,13,14,14],"right_children":[2,4,6,8,10,12,14,16,18,-1,-1,-1,20,22,24,-1,-1,-1,-1,-1,-1,-1,-1,-1,-1],"split_conditions":[-6.145359E-1,1.078259E0,-1.7242932E-1,5.1548827E-1,1.7000017E-1,-1.2299881E0,1.4235754E0,-8.983515E-1,1.1269643E0,-2.8156617E-3,-6.983782E-2,-8.0307536E-2,-4.3534625E-1,-1.186692E0,-3.365178E-1,7.334077E-2,6.543688E-3,1.0882332E-1,2.878726E-2,8.8411376E-2,-1.0660037E-2,-6.291065E-3,-8.702747E-2,8.0284975E-2,-3.932347E-2],"split_indices":[0,7,2,8,3,2,2,6,8,0,0,0,10,3,4,0,0,0,0,0,0,0,0,0,0],"split_type":[0,0,0,0,0,0,0,0,0,0,0,0,0,0,0,0,0,0,0,0,0,0,0,0,0],"sum_hessian":[4.3014244E1,1.8551083E1,2.4463161E1,1.6314365E1,2.236717E0,1.052087E1,1.3942291E1,1.1443082E1,4.8712845E0,1.0790725E0,1.1576444E0,2.584685E0,7.936186E0,1.1066208E1,2.8760836E0,2.0514877E0,9.391594E0,2.997043E0,1.8742415E0,3.505759E0,4.4304266E0,2.05827E0,9.007937E0,1.1586566E0,1.7174269E0],"tree_param":{"num_deleted":"0","num_feature":"11","num_nodes":"25","size_leaf_vector":"0"}},{"base_weights":[-3.536643E-2,4.1532463E-1,-1.13789715E-1,8.020151E-1,-5.289262E-2,-3.3275828E-2,-8.624679E-1,-5.411692E-1,4.1634762E-1,2.0526625E-1,-2.2620976E-1,-5.3952414E-1,3.992628E-1,-4.4953534E-1,2.6891598E-1],"categories":[],"categories_nodes":[],"categories_segments":[],"categories_sizes":[],"default_left":[1,1,1,0,1,1,0,0,0,1,1,0,0,0,0],"id":35,"left_children":[1,3,5,-1,7,9,-1,-1,-1,11,13,-1,-1,-1,-1],"loss_changes":[1.5862546E0,1.2498333E0,2.2542908E0,0E0,1.1313728E0,1.6681108E0,0E0,0E0,0E0,2.5676787E0,2.3275285E0,0E0,0E0,0E0,0E0],"parents":[2147483647,0,0,1,1,2,2,4,4,5,5,9,9,10,10],"right_children":[2,4,6,-1,8,10,-1,-1,-1,12,14,-1,-1,-1,-1],"split_conditions":[-1.3124745E0,1.6668752E-1,2.4937015E0,8.0201514E-2,-1.7080656E-1,-2.0394021E-1,-8.624679E-2,-5.4116923E-2,4.1634765E-2,-1.2526042E0,3.0704382E-1,-5.3952415E-2,3.992628E-2,-4.4953536E-2,2.6891598E-2],"split_indices":[6,9,0,0,4,4,0,0,0,5,10,0,0,0,0],"split_type":[0,0,0,0,0,0,0,0,0,0,0,0,0,0,0],"sum_hessian":[4.2542484E1,5.6687555E0,3.687373E1,2.7142243E0,2.9545314E0,3.423635E1,2.6373785E0,1.372776E0,1.5817554E0,1.5280157E1,1.8956194E1,2.789525E0,1.2490632E1,1.312725E1,5.828944E0],"tree_param":{"num_deleted":"0","num_feature":"11","num_nodes":"15","size_leaf_vector":"0"}},{"base_weights":[4.977013E-3,1.058386E-1,-4.2896935E-1,5.1337254E-1,-3.6830053E-2,-6.58143E-1,1.5011983E-1,-4.3539006E-1,7.1987355E-1,-7.754921E-1,8.897053E-2,-2.6935285E-1,-7.986279E-1,-2.9949397E-1,5.085457E-1,1.7640814E-1,8.8676757E-1,-1.9980064E-1,3.8200262E-1,1.0412423E-1,-5.2713835E-1],"categories":[],"categories_nodes":[],"categories_segments":[],"categories_sizes":[],"default_left":[1,1,1,1,1,1,1,0,1,0,1,1,0,0,0,0,0,0,0,0,0],"id":36,"left_children":[1,3,5,7,9,11,13,-1,15,-1,17,19,-1,-1,-1,-1,-1,-1,-1,-1,-1],"loss_changes":[1.9312881E0,2.0982947E0,1.2034937E0,2.1434307E0,2.6172724E0,1.20770454E-1,6.638778E-1,0E0,5.73514E-1,0E0,2.1350703E0,3.5731095E-1,0E0,0E0,0E0,0E0,0E0,0E0,0E0,0E0,0E0],"parents":[2147483647,0,0,1,1,2,2,3,3,4,4,5,5,6,6,8,8,10,10,11,11],"right_children":[2,4,6,8,10,12,14,-1,16,-1,18,20,-1,-1,-1,-1,-1,-1,-1,-1,-1],"split_conditions":[8.1965804E-1,-1.4291875E0,6.525841E-1,-8.873998E-1,-1.1895412E0,-7.0461595E-1,1.1688354E0,-4.3539006E-2,-4.5040417E-1,-7.754921E-2,2.8653E-1,1.4585268E0,-7.9862796E-2,-2.9949397E-2,5.085457E-2,1.7640814E-2,8.867676E-2,-1.9980064E-2,3.8200263E-2,1.0412424E-2,-5.2713837E-2],"split_indices":[9,0,3,9,2,0,9,0,3,0,8,9,0,0,0,0,0,0,0,0,0],"split_type":[0,0,0,0,0,0,0,0,0,0,0,0,0,0,0,0,0,0,0,0,0],"sum_hessian":[4.2087746E1,3.4763752E1,7.3239913E0,8.340553E0,2.64232E1,5.1495504E0,2.1744409E0,1.2927296E0,7.0478234E0,3.0936706E0,2.332953E1,2.1411777E0,3.008373E0,1.0374587E0,1.1369821E0,2.139117E0,4.908706E0,1.19104395E1,1.141909E1,1.1178007E0,1.0233768E0],"tree_param":{"num_deleted":"0","num_feature":"11","num_nodes":"21","size_leaf_vector":"0"}},{"base_weights":[-4.746744E-2,-1.3560373E-1,9.208762E-1,9.162023E-2,-4.4884342E-1,2.3386239E-1,-3.9917898E-1,6.9198105E-3,-7.94326E-1,-6.9953626E-1,3.528195E-1,1.6851845E-1,-7.058438E-1,-7.090842E-1,2.784123E-1,-3.418904E-1,-9.5262265E-1],"categories":[],"categories_nodes":[],"categories_segments":[],"categories_sizes":[],"default_left":[1,1,0,1,1,1,1,1,1,0,0,0,0,0,0,0,0],"id":37,"left_children":[1,3,-1,5,7,9,11,13,15,-1,-1,-1,-1,-1,-1,-1,-1],"loss_changes":[3.6680908E0,2.8115623E0,0E0,1.7262567E0,2.6089294E0,2.3303537E0,1.0982292E0,1.7759738E0,3.4849596E-1,0E0,0E0,0E0,0E0,0E0,0E0,0E0,0E0],"parents":[2147483647,0,0,1,1,3,3,4,4,5,5,6,6,7,7,8,8],"right_children":[2,4,-1,6,8,10,12,14,16,-1,-1,-1,-1,-1,-1,-1,-1],"split_conditions":[2.187585E0,1.5262279E-1,9.208762E-2,8.1965804E-1,-7.0393455E-1,-2.1970387E0,-8.91146E-1,7.4640816E-1,-6.3426375E-1,-6.995363E-2,3.5281952E-2,1.6851846E-2,-7.058438E-2,-7.090842E-2,2.784123E-2,-3.418904E-2,-9.526227E-2],"split_indices":[1,0,0,9,5,1,6,0,6,0,0,0,0,0,0,0,0],"split_type":[0,0,0,0,0,0,0,0,0,0,0,0,0,0,0,0,0],"sum_hessian":[4.0515804E1,3.7924015E1,2.5917888E0,2.23899E1,1.5534117E1,1.7764845E1,4.6250544E0,7.120573E0,8.413544E0,1.4564233E0,1.6308422E1,1.7801405E0,2.844914E0,1.5145274E0,5.6060457E0,2.999715E0,5.413829E0],"tree_param":{"num_deleted":"0","num_feature":"11","num_nodes":"17","size_leaf_vector":"0"}},{"base_weights":[1.34318285E-2,4.8828954E-1,-5.8454603E-2,-1.7090157E-1,7.317487E-1,3.371971E-2,-5.383008E-1,1.3090266E-1,1.0018655E0,-4.3492503E-2,6.123918E-1,1.07126795E-1,-6.9781137E-1,2.3919143E-1,-2.4621874E-1,-2.029751E-1,-7.802436E-1],"categories":[],"categories_nodes":[],"categories_segments":[],"categories_sizes":[],"default_left":[1,1,1,0,1,1,1,0,0,1,0,0,1,0,0,0,0],"id":38,"left_children":[1,3,5,-1,7,9,11,-1,-1,13,-1,-1,15,-1,-1,-1,-1],"loss_changes":[1.4574989E0,1.0255162E0,1.6657028E0,0E0,5.645993E-1,1.4648439E0,6.987859E-1,0E0,0E0,1.7398969E0,0E0,0E0,4.530859E-2,0E0,0E0,0E0,0E0],"parents":[2147483647,0,0,1,1,2,2,4,4,5,5,6,6,9,9,12,12],"right_children":[2,4,6,-1,8,10,12,-1,-1,14,-1,-1,16,-1,-1,-1,-1],"split_conditions":[-1.5228175E0,-9.3199635E-1,1.1635633E0,-1.7090157E-2,2.8196254E-1,8.2308626E-1,-6.845528E-1,1.3090267E-2,1.0018655E-1,-4.604398E-1,6.1239183E-2,1.07126795E-2,-3.2926714E-1,2.3919143E-2,-2.4621874E-2,-2.029751E-2,-7.802436E-2],"split_indices":[3,4,7,0,7,7,3,0,0,5,0,0,3,0,0,0,0],"split_type":[0,0,0,0,0,0,0,0,0,0,0,0,0,0,0,0,0],"sum_hessian":[4.086089E1,4.6108227E0,3.6250065E1,1.3239952E0,3.2868276E0,3.1188711E1,5.061354E0,1.4797955E0,1.8070321E0,2.833307E1,2.8556402E0,1.0680612E0,3.993293E0,1.17578745E1,1.6575195E1,1.0646404E0,2.9286528E0],"tree_param":{"num_deleted":"0","num_feature":"11","num_nodes":"17","size_leaf_vector":"0"}},{"base_weights":[9.840441E-3,-3.607875E-1,1.7343739E-1,-4.9468625E-1,6.070126E-1,8.1471735E-1,8.7781735E-2,4.8938494E-2,-7.9025817E-1,3.3463287E-1,-1.0628635E-1,-5.258363E-1,4.502535E-1,-9.135749E-1,-2.7415778E-2,8.256847E-1,-5.4654088E-2,1.7901614E-1,-4.6634513E-1],"categories":[],"categories_nodes":[],"categories_segments":[],"categories_sizes":[],"default_left":[1,1,1,1,0,0,1,1,1,1,1,0,0,0,0,0,0,0,0],"id":39,"left_children":[1,3,5,7,-1,-1,9,11,13,15,17,-1,-1,-1,-1,-1,-1,-1,-1],"loss_changes":[2.579755E0,1.9898095E0,1.5476241E0,1.967505E0,0E0,0E0,1.3349824E0,1.4292201E0,7.11956E-1,2.3733935E0,1.7214077E0,0E0,0E0,0E0,0E0,0E0,0E0,0E0,0E0],"parents":[2147483647,0,0,1,1,2,2,3,3,6,6,7,7,8,8,9,9,10,10],"right_children":[2,4,6,8,-1,-1,10,12,14,16,18,-1,-1,-1,-1,-1,-1,-1,-1],"split_conditions":[-5.2810025E-1,3.3068075E0,-2.8783765E0,-5.2819186E-1,6.0701262E-2,8.1471734E-2,-2.539849E-2,-1.322906E0,1.639936E0,-3.7941575E-1,-5.331408E-3,-5.258363E-2,4.502535E-2,-9.135749E-2,-2.7415778E-3,8.2568474E-2,-5.465409E-3,1.7901614E-2,-4.6634514E-2],"split_indices":[1,2,0,5,0,0,9,5,3,5,4,0,0,0,0,0,0,0,0],"split_type":[0,0,0,0,0,0,0,0,0,0,0,0,0,0,0,0,0,0,0],"sum_hessian":[4.051462E1,1.2037773E1,2.8476849E1,1.1004161E1,1.0336114E0,2.3525348E0,2.6124313E1,4.1696477E0,6.8345137E0,1.1179668E1,1.4944646E1,1.5867608E0,2.5828872E0,5.713335E0,1.1211784E0,4.4479485E0,6.73172E0,8.618419E0,6.326227E0],"tree_param":{"num_deleted":"0","num_feature":"11","num_nodes":"19","size_leaf_vector":"0"}},{"base_weights":[7.023117E-2,-9.382426E-2,4.0413576E-1,2.8355196E-1,-2.4873617E-1,5.5036765E-1,-2.6284528E-1,-2.5597587E-1,7.453027E-1,-8.12088E-2,-7.2750956E-1,-3.803035E-1,6.7871094E-1,2.874819E-1,-6.7883515E-1,-5.6486577E-1,4.0518504E-1,1.1541493E0,-8.268081E-2,-6.446044E-1,7.835398E-2,-9.6662325E-1,7.416126E-2,2.878019E-2,1.0070204E0],"categories":[],"categories_nodes":[],"categories_segments":[],"categories_sizes":[],"default_left":[1,1,1,1,1,1,1,1,1,1,1,0,1,0,0,0,0,0,0,0,0,0,0,0,0],"id":40,"left_children":[1,3,5,7,9,11,13,15,17,19,21,-1,23,-1,-1,-1,-1,-1,-1,-1,-1,-1,-1,-1,-1],"loss_changes":[2.3228838E0,1.7531114E0,1.5033894E0,2.393974E0,1.6203139E0,1.6614802E0,9.23569E-1,1.2137948E0,1.7951088E0,1.5460674E0,1.0879712E0,0E0,2.250804E0,0E0,0E0,0E0,0E0,0E0,0E0,0E0,0E0,0E0,0E0,0E0,0E0],"parents":[2147483647,0,0,1,1,2,2,3,3,4,4,5,5,6,6,7,7,8,8,9,9,10,10,12,12],"right_children":[2,4,6,8,10,12,14,16,18,20,22,-1,24,-1,-1,-1,-1,-1,-1,-1,-1,-1,-1,-1,-1],"split_conditions":[9.5146024E-1,-7.564446E-1,1.1644387E0,-1.0733769E0,7.241378E-1,-1.0958381E0,-4.1506553E-1,5.3291005E-1,2.1294054E-1,-1.6681945E0,1.7292175E0,-3.8030352E-2,-5.7328767E-1,2.874819E-2,-6.7883514E-2,-5.6486577E-2,4.0518504E-2,1.1541493E-1,-8.268081E-3,-6.446044E-2,7.835398E-3,-9.666233E-2,7.4161263E-3,2.8780191E-3,1.0070204E-1],"split_indices":[1,10,7,10,5,5,3,5,1,1,5,0,7,0,0,0,0,0,0,0,0,0,0,0,0],"split_type":[0,0,0,0,0,0,0,0,0,0,0,0,0,0,0,0,0,0,0,0,0,0,0,0,0],"sum_hessian":[4.071255E1,2.7781723E1,1.2930826E1,7.8436465E0,1.9938076E1,1.0749004E1,2.181822E0,3.8226972E0,4.0209494E0,1.5636377E1,4.3016987E0,1.0647655E0,9.684239E0,1.0722401E0,1.109582E0,2.7047172E0,1.11798E0,2.4280732E0,1.5928763E0,2.7801633E0,1.2856215E1,3.1549222E0,1.1467767E0,3.6151824E0,6.0690565E0],"tree_param":{"num_deleted":"0","num_feature":"11","num_nodes":"25","size_leaf_vector":"0"}},{"base_weights":[-6.118551E-2,-5.5561465E-1,3.6957838E-2,3.286246E-2,-7.713546E-1,4.6440122E-1,-1.6910654E-1,-1.3109544E-1,-9.0246415E-1,-2.4061815E-1,6.808051E-1,-3.98662E-1,7.2044894E-2,1.9873054E-1,-5.0598675E-1,1.08681746E-1,1.0650376E0,3.4825788E-3,-7.123979E-1,-3.4255606E-1,3.436759E-1],"categories":[],"categories_nodes":[],"categories_segments":[],"categories_sizes":[],"default_left":[1,1,1,0,1,1,1,0,0,1,1,1,1,0,0,0,0,0,0,0,0],"id":41,"left_children":[1,3,5,-1,7,9,11,-1,-1,13,15,17,19,-1,-1,-1,-1,-1,-1,-1,-1],"loss_changes":[2.0186536E0,8.9910364E-1,3.1873415E0,0E0,3.078637E-1,1.9561179E0,1.387609E0,0E0,0E0,5.0836843E-1,1.9175844E0,1.6084802E0,1.5613048E0,0E0,0E0,0E0,0E0,0E0,0E0,0E0,0E0],"parents":[2147483647,0,0,1,1,2,2,4,4,5,5,6,6,9,9,10,10,11,11,12,12],"right_children":[2,4,6,-1,8,10,12,-1,-1,14,16,18,20,-1,-1,-1,-1,-1,-1,-1,-1],"split_conditions":[-1.3403966E0,-7.208307E-1,-4.6429026E-1,3.286246E-3,-5.698637E-1,-8.934021E-1,-8.652423E-3,-1.3109544E-2,-9.024642E-2,-1.3647693E-1,3.2146133E-2,3.0032102E-2,-3.0091575E-1,1.9873055E-2,-5.0598677E-2,1.0868175E-2,1.0650376E-1,3.482579E-4,-7.123979E-2,-3.4255605E-2,3.436759E-2],"split_indices":[5,3,5,0,8,10,10,0,0,9,7,3,2,0,0,0,0,0,0,0,0],"split_type":[0,0,0,0,0,0,0,0,0,0,0,0,0,0,0,0,0,0,0,0,0],"sum_hessian":[4.017717E1,5.882235E0,3.4294933E1,1.8053716E0,4.0768633E0,1.0747505E1,2.354743E1,1.0328661E0,3.0439973E0,2.497861E0,8.249644E0,1.1729138E1,1.1818292E1,1.0351554E0,1.4627054E0,3.8298461E0,4.419798E0,5.573703E0,6.1554356E0,4.574677E0,7.2436147E0],"tree_param":{"num_deleted":"0","num_feature":"11","num_nodes":"21","size_leaf_vector":"0"}},{"base_weights":[2.9705333E-2,-1.1671624E-1,3.2139528E-1,-3.2057285E-1,1.4785111E-1,-5.068861E-1,4.509162E-1,2.0838383E-1,-5.2427375E-1,6.8244874E-1,-2.7349868E-1,1.0506948E-1,9.722349E-1,8.47233E-1,-1.8062475E-1,-1.7847173E-2,-7.088171E-1,1.6950956E-1,1.0625229E0,-6.2166E-1,5.9101604E-2,5.6160486E-1,-2.1114032E-1],"categories":[],"categories_nodes":[],"categories_segments":[],"categories_sizes":[],"default_left":[1,1,1,1,1,0,1,1,1,1,1,1,0,0,0,0,0,0,0,0,0,0,0],"id":42,"left_children":[1,3,5,7,9,-1,11,13,15,17,19,21,-1,-1,-1,-1,-1,-1,-1,-1,-1,-1,-1],"loss_changes":[1.7475939E0,1.5247283E0,1.6927277E0,1.8102272E0,3.0259774E0,0E0,2.1212115E0,1.4216392E0,1.0791013E0,9.5881987E-1,9.3569463E-1,1.3506535E0,0E0,0E0,0E0,0E0,0E0,0E0,0E0,0E0,0E0,0E0,0E0],"parents":[2147483647,0,0,1,1,2,2,3,3,4,4,6,6,7,7,8,8,9,9,10,10,11,11],"right_children":[2,4,6,8,10,-1,12,14,16,18,20,22,-1,-1,-1,-1,-1,-1,-1,-1,-1,-1,-1],"split_conditions":[9.341034E-1,5.108992E-1,-1.3094082E0,-8.6048603E-1,7.659712E-1,-5.0688613E-2,2.0783111E-1,-8.1471574E-1,-1.0788263E0,6.6040254E-1,-3.302502E-1,-3.789268E-1,9.722349E-2,8.47233E-2,-1.8062476E-2,-1.7847173E-3,-7.088172E-2,1.6950956E-2,1.0625229E-1,-6.2166E-2,5.9101605E-3,5.6160487E-2,-2.1114033E-2],"split_indices":[1,8,5,4,8,0,8,10,5,8,10,10,0,0,0,0,0,0,0,0,0,0,0],"split_type":[0,0,0,0,0,0,0,0,0,0,0,0,0,0,0,0,0,0,0,0,0,0,0],"sum_hessian":[3.9039658E1,2.6391565E1,1.2648091E1,1.478648E1,1.1605086E1,1.3163756E0,1.1331717E1,4.1046963E0,1.0681784E1,4.8420043E0,6.7630816E0,7.534691E0,3.797025E0,1.1076802E0,2.997016E0,3.1457846E0,7.5359993E0,2.6762247E0,2.1657798E0,2.8796327E0,3.883449E0,2.765657E0,4.7690344E0],"tree_param":{"num_deleted":"0","num_feature":"11","num_nodes":"23","size_leaf_vector":"0"}},{"base_weights":[-9.163181E-2,6.7040205E-1,-1.5137349E-1,-2.2869106E-1,4.7319102E-1,1.232403E-1,-3.8734618E-1,7.9799974E-1,-2.6602727E-1,2.730743E-1,-5.11855E-1,1.5535007E-1,-4.5228568E-1],"categories":[],"categories_nodes":[],"categories_segments":[],"categories_sizes":[],"default_left":[1,0,1,1,1,1,1,0,0,0,0,0,0],"id":43,"left_children":[1,-1,3,5,7,9,11,-1,-1,-1,-1,-1,-1],"loss_changes":[1.916569E0,0E0,1.9329555E0,1.9628412E0,1.2899697E0,1.2261435E0,9.1194105E-1,0E0,0E0,0E0,0E0,0E0,0E0],"parents":[2147483647,0,0,2,2,3,3,4,4,5,5,6,6],"right_children":[2,-1,4,6,8,10,12,-1,-1,-1,-1,-1,-1],"split_conditions":[-3.5238886E0,6.7040205E-2,1.321133E0,-6.2067837E-1,1.8045455E-2,2.2140648E0,-1.486609E0,7.979997E-2,-2.6602728E-2,2.730743E-2,-5.11855E-2,1.5535007E-2,-4.5228567E-2],"split_indices":[0,0,6,6,4,0,4,0,0,0,0,0,0],"split_type":[0,0,0,0,0,0,0,0,0,0,0,0,0],"sum_hessian":[3.8869976E1,2.0826821E0,3.6787292E1,3.3298916E1,3.4883788E0,1.0416371E1,2.2882544E1,2.3682594E0,1.1201193E0,8.88922E0,1.5271511E0,2.2967215E0,2.0585821E1],"tree_param":{"num_deleted":"0","num_feature":"11","num_nodes":"13","size_leaf_vector":"0"}},{"base_weights":[-8.419363E-2,1.2512076E-1,-2.7260333E-1,5.6365484E-1,-1.0401816E-1,5.423551E-1,-3.9204738E-1,7.188346E-1,-4.046332E-2,5.037844E-1,-2.866918E-1,1.0847681E-1,7.0882255E-1,-3.815805E-2,-6.818208E-1,8.305556E-1,1.8732612E-1,5.3454272E-2,6.770546E-1,-6.494469E-1,-1.5106361E-2,-5.712093E-1,3.6151102E-1,-7.808182E-1,5.919397E-2],"categories":[],"categories_nodes":[],"categories_segments":[],"categories_sizes":[],"default_left":[1,1,1,1,1,1,1,1,0,1,1,0,0,1,1,0,0,0,0,0,0,0,0,0,0],"id":44,"left_children":[1,3,5,7,9,11,13,15,-1,17,19,-1,-1,21,23,-1,-1,-1,-1,-1,-1,-1,-1,-1,-1],"loss_changes":[1.6142225E0,2.0347626E0,2.2958465E0,6.7640305E-1,1.6723037E0,1.5100211E-1,1.9475946E0,1.7380285E-1,0E0,2.4024475E-1,1.0953965E0,0E0,0E0,2.27806E0,8.1810904E-1,0E0,0E0,0E0,0E0,0E0,0E0,0E0,0E0,0E0,0E0],"parents":[2147483647,0,0,1,1,2,2,3,3,4,4,5,5,6,6,7,7,9,9,10,10,13,13,14,14],"right_children":[2,4,6,8,10,12,14,16,-1,18,20,-1,-1,22,24,-1,-1,-1,-1,-1,-1,-1,-1,-1,-1],"split_conditions":[-3.5522068E-1,-4.2821133E-1,-1.3353777E0,9.7271645E-1,-8.1767035E-1,1.189103E-1,-1.7533109E-1,5.8907217E-1,-4.046332E-3,-1.3973142E0,-1.1758812E-1,1.0847681E-2,7.088225E-2,-8.751255E-1,1.6300876E0,8.305556E-2,1.8732613E-2,5.3454274E-3,6.770546E-2,-6.494469E-2,-1.5106362E-3,-5.712093E-2,3.6151104E-2,-7.8081824E-2,5.919397E-3],"split_indices":[0,5,9,3,2,0,2,7,0,2,2,0,0,2,7,0,0,0,0,0,0,0,0,0,0],"split_type":[0,0,0,0,0,0,0,0,0,0,0,0,0,0,0,0,0,0,0,0,0,0,0,0,0],"sum_hessian":[3.9066933E1,1.86659E1,2.0401031E1,5.9049387E0,1.2760962E1,2.1552494E0,1.8245783E1,4.5470486E0,1.3578901E0,2.5427465E0,1.0218215E1,1.0555968E0,1.0996526E0,8.723628E0,9.522154E0,3.292367E0,1.2546816E0,1.0700872E0,1.4726595E0,3.7791326E0,6.439082E0,3.554146E0,5.169482E0,8.352562E0,1.1695923E0],"tree_param":{"num_deleted":"0","num_feature":"11","num_nodes":"25","size_leaf_vector":"0"}},{"base_weights":[-2.8943947E-2,2.872811E-1,-1.627949E-1,-1.5887675E-1,6.414403E-1,1.5127146E-1,-4.0951714E-1,-4.2955554E-1,4.5715663E-1,8.8971454E-1,-9.313385E-2,-4.012396E-1,4.8618898E-1,-5.905958E-1,1.9151105E-1,7.519412E-2,-6.6735905E-1,4.1787535E-2,1.0989088E0,3.211001E-1,-7.961097E-1,-3.6886574E-3,9.5767415E-1,4.566662E-1,-7.393648E-1,5.168963E-1,-2.6519498E-1],"categories":[],"categories_nodes":[],"categories_segments":[],"categories_sizes":[],"default_left":[1,1,1,1,1,1,1,1,0,1,0,1,1,1,1,0,0,0,0,0,0,0,0,0,0,0,0],"id":45,"left_children":[1,3,5,7,9,11,13,15,-1,17,-1,19,21,23,25,-1,-1,-1,-1,-1,-1,-1,-1,-1,-1,-1,-1],"loss_changes":[1.6488175E0,1.9376738E0,2.17203E0,1.1873032E0,1.3002682E0,2.5471666E0,1.8022561E0,6.076294E-1,0E0,8.558507E-1,0E0,1.7801775E0,1.9358017E0,2.234037E0,7.832962E-1,0E0,0E0,0E0,0E0,0E0,0E0,0E0,0E0,0E0,0E0,0E0,0E0],"parents":[2147483647,0,0,1,1,2,2,3,3,4,4,5,5,6,6,7,7,9,9,11,11,12,12,13,13,14,14],"right_children":[2,4,6,8,10,12,14,16,-1,18,-1,20,22,24,26,-1,-1,-1,-1,-1,-1,-1,-1,-1,-1,-1,-1],"split_conditions":[-6.722154E-1,-1.0733769E0,-2.0394021E-1,6.9211876E-1,6.8074465E-1,-2.5713396E-1,1.5370291E0,-1.5838224E0,4.5715664E-2,-8.3544445E-1,-9.313385E-3,-5.1104307E-2,-8.5714525E-1,-3.342577E0,1.7751346E0,7.5194123E-3,-6.673591E-2,4.1787536E-3,1.0989088E-1,3.211001E-2,-7.9610966E-2,-3.6886576E-4,9.5767416E-2,4.566662E-2,-7.3936485E-2,5.1689632E-2,-2.6519498E-2],"split_indices":[10,10,4,5,8,1,4,10,0,1,0,10,4,0,4,0,0,0,0,0,0,0,0,0,0,0,0],"split_type":[0,0,0,0,0,0,0,0,0,0,0,0,0,0,0,0,0,0,0,0,0,0,0,0,0,0,0],"sum_hessian":[3.684933E1,1.0617959E1,2.6231373E1,4.9427037E0,5.675255E0,1.1710855E1,1.4520519E1,3.6441908E0,1.2985128E0,4.083799E0,1.5914563E0,4.3449674E0,7.3658876E0,1.1171969E1,3.3485494E0,1.3860433E0,2.2581475E0,1.045565E0,3.0382338E0,1.6017293E0,2.7432382E0,4.09908E0,3.2668073E0,1.1321994E0,1.003977E1,1.8784411E0,1.4701084E0],"tree_param":{"num_deleted":"0","num_feature":"11","num_nodes":"27","size_leaf_vector":"0"}},{"base_weights":[-4.4781696E-2,-1.5991612E-1,3.5169527E-1,6.2722766E-1,-2.3607951E-1,5.6690294E-1,-2.3089507E-1,5.8816932E-2,-4.5220855E-1,-2.0649384E-1,7.945083E-1,1.9836806E-1,-5.438654E-1,2.21707E-1,-7.187283E-1,3.695142E-1,-6.288102E-1,9.9108136E-1,4.566098E-3],"categories":[],"categories_nodes":[],"categories_segments":[],"categories_sizes":[],"default_left":[1,1,1,0,1,1,1,1,1,0,1,0,0,0,0,0,0,0,0],"id":46,"left_children":[1,3,5,-1,7,9,11,13,15,-1,17,-1,-1,-1,-1,-1,-1,-1,-1],"loss_changes":[1.8124635E0,1.97674E0,1.2556157E0,0E0,1.8454807E0,1.3681381E0,5.284489E-1,1.8000911E0,2.6388984E0,0E0,8.4815407E-1,0E0,0E0,0E0,0E0,0E0,0E0,0E0,0E0],"parents":[2147483647,0,0,1,1,2,2,4,4,5,5,6,6,7,7,8,8,10,10],"right_children":[2,4,6,-1,8,10,12,14,16,-1,18,-1,-1,-1,-1,-1,-1,-1,-1],"split_conditions":[1.3220823E0,-3.3506217E0,9.203912E-1,6.2722765E-2,-3.2832053E-1,-9.72203E-1,-1.4933553E-1,1.8655905E0,-1.3124745E0,-2.0649385E-2,9.564675E-1,1.9836806E-2,-5.4386538E-2,2.21707E-2,-7.187283E-2,3.695142E-2,-6.288102E-2,9.910814E-2,4.5660982E-4],"split_indices":[1,0,7,0,4,7,2,0,6,0,3,0,0,0,0,0,0,0,0],"split_type":[0,0,0,0,0,0,0,0,0,0,0,0,0,0,0,0,0,0,0],"sum_hessian":[3.7473015E1,2.950237E1,7.9706454E0,1.9644648E0,2.7537905E1,5.840211E0,2.1304345E0,1.1954497E1,1.5583407E1,1.349023E0,4.491188E0,1.0527215E0,1.0777131E0,1.0474937E1,1.4795603E0,2.5634382E0,1.3019969E1,3.3923852E0,1.0988027E0],"tree_param":{"num_deleted":"0","num_feature":"11","num_nodes":"19","size_leaf_vector":"0"}},{"base_weights":[-9.371931E-3,3.3706895E-1,-1.4646117E-1,5.421452E-1,-3.0218756E-1,7.9399824E-2,-4.1955757E-1,-2.5280088E-1,7.0455E-1,-5.80976E-1,1.5192655E-1,-6.6103876E-1,2.6352394E-1,6.7925835E-1,-5.9664625E-1,-1.2154642E-1,8.7739706E-1,-3.653414E-2,6.8556625E-1,4.412797E-2,-7.334456E-1],"categories":[],"categories_nodes":[],"categories_segments":[],"categories_sizes":[],"default_left":[1,1,1,1,1,1,1,0,1,0,0,0,1,0,1,0,0,0,0,0,0],"id":47,"left_children":[1,3,5,7,9,11,13,-1,15,-1,-1,-1,17,-1,19,-1,-1,-1,-1,-1,-1],"loss_changes":[1.834858E0,1.6008574E0,1.7377636E0,1.2957692E0,5.066234E-1,2.3507934E0,2.8702433E0,0E0,1.170785E0,0E0,0E0,0E0,1.7347562E0,0E0,1.035325E0,0E0,0E0,0E0,0E0,0E0,0E0],"parents":[2147483647,0,0,1,1,2,2,3,3,4,4,5,5,6,6,8,8,12,12,14,14],"right_children":[2,4,6,8,10,12,14,-1,16,-1,-1,-1,18,-1,20,-1,-1,-1,-1,-1,-1],"split_conditions":[-1.4291875E0,8.2239497E-1,1.3988766E-1,-8.703121E-1,-2.0901833E0,-1.2299881E0,-1.4057362E0,-2.5280088E-2,-1.5409763E0,-5.80976E-2,1.5192655E-2,-6.6103876E-2,4.9442786E-1,6.792583E-2,-1.1293397E0,-1.2154642E-2,8.7739706E-2,-3.6534143E-3,6.855663E-2,4.4127973E-3,-7.334456E-2],"split_indices":[0,9,2,9,0,2,9,0,8,0,0,0,8,0,3,0,0,0,0,0,0],"split_type":[0,0,0,0,0,0,0,0,0,0,0,0,0,0,0,0,0,0,0,0,0],"sum_hessian":[3.6594566E1,9.961617E0,2.663295E1,7.6570992E0,2.3045177E0,1.4965325E1,1.1667625E1,1.2045257E0,6.452574E0,1.2548083E0,1.0497094E0,2.464476E0,1.2500849E1,1.2258241E0,1.0441801E1,1.1678426E0,5.284731E0,7.840178E0,4.660671E0,1.9562169E0,8.485584E0],"tree_param":{"num_deleted":"0","num_feature":"11","num_nodes":"21","size_leaf_vector":"0"}},{"base_weights":[-2.3098294E-2,-1.01303376E-1,5.5571365E-1,-2.0240791E-1,4.8762575E-1,8.2237554E-1,-1.3853082E-1,5.705236E-1,-2.900691E-1,-1.3324644E-1,7.2893167E-1,2.461273E-1,1.0353049E0,9.497668E-1,-4.4326622E-2,-4.586749E-1,2.4434092E-2],"categories":[],"categories_nodes":[],"categories_segments":[],"categories_sizes":[],"default_left":[1,1,1,1,1,1,0,1,1,0,0,0,0,0,0,0,0],"id":48,"left_children":[1,3,5,7,9,11,-1,13,15,-1,-1,-1,-1,-1,-1,-1,-1],"loss_changes":[1.7009044E0,2.054894E0,9.430804E-1,2.113224E0,8.622632E-1,1.5991712E-1,0E0,8.0346954E-1,1.4154189E0,0E0,0E0,0E0,0E0,0E0,0E0,0E0,0E0],"parents":[2147483647,0,0,1,1,2,2,3,3,4,4,5,5,7,7,8,8],"right_children":[2,4,6,8,10,12,-1,14,16,-1,-1,-1,-1,-1,-1,-1,-1],"split_conditions":[1.3199464E0,1.5370291E0,1.8045455E-2,-1.3334236E0,-5.4183525E-1,6.8719023E-1,-1.3853082E-2,-2.4585351E-2,4.146825E-1,-1.33246435E-2,7.2893165E-2,2.461273E-2,1.0353049E-1,9.4976686E-2,-4.4326624E-3,-4.586749E-2,2.4434093E-3],"split_indices":[6,4,4,9,7,3,0,7,9,0,0,0,0,0,0,0,0],"split_type":[0,0,0,0,0,0,0,0,0,0,0,0,0,0,0,0,0],"sum_hessian":[3.533207E1,3.1853256E1,3.478812E0,2.774623E1,4.107028E0,2.3800602E0,1.0987518E0,2.2651892E0,2.548104E1,1.2748057E0,2.8322222E0,1.2238581E0,1.1562021E0,1.0641209E0,1.2010684E0,1.6289692E1,9.191347E0],"tree_param":{"num_deleted":"0","num_feature":"11","num_nodes":"17","size_leaf_vector":"0"}},{"base_weights":[-8.199071E-2,-1.451892E-1,3.4579185E-1,-7.035957E-1,-4.852721E-2,8.840613E-1,-7.718287E-2,-1.5866318E-1,-8.148353E-1,-1.6842745E-1,3.0893195E-1,3.9612457E-1,-5.4457384E-1,-3.464829E-2,-7.777817E-1,-3.1555474E-1,6.1825824E-1],"categories":[],"categories_nodes":[],"categories_segments":[],"categories_sizes":[],"default_left":[1,1,1,1,1,0,1,0,0,1,1,0,0,0,0,0,0],"id":49,"left_children":[1,3,5,7,9,-1,11,-1,-1,13,15,-1,-1,-1,-1,-1,-1],"loss_changes":[1.040124E0,1.7258765E0,1.2086252E0,1.5788889E-1,1.2893684E0,0E0,1.0396581E0,0E0,0E0,1.7881095E0,1.6639848E0,0E0,0E0,0E0,0E0,0E0,0E0],"parents":[2147483647,0,0,1,1,2,2,3,3,4,4,6,6,9,9,10,10],"right_children":[2,4,6,8,10,-1,12,-1,-1,14,16,-1,-1,-1,-1,-1,-1],"split_conditions":[1.1680866E0,-1.0705138E0,-4.4497693E-1,-6.420574E-1,5.0768614E-1,8.840613E-2,1.2175645E-1,-1.5866319E-2,-8.1483535E-2,8.8304794E-1,-5.6421405E-1,3.9612457E-2,-5.4457385E-2,-3.4648292E-3,-7.7778175E-2,-3.1555474E-2,6.1825823E-2],"split_indices":[8,9,9,10,10,0,2,0,0,8,2,0,0,0,0,0,0],"split_type":[0,0,0,0,0,0,0,0,0,0,0,0,0,0,0,0,0],"sum_hessian":[3.561591E1,3.160704E1,4.008868E0,3.7374191E0,2.7869621E1,1.2843388E0,2.7245293E0,1.0449265E0,2.6924925E0,2.1265493E1,6.604128E0,1.4294558E0,1.2950735E0,1.8303877E1,2.961618E0,2.1809525E0,4.4231753E0],"tree_param":{"num_deleted":"0","num_feature":"11","num_nodes":"17","size_leaf_vector":"0"}},{"base_weights":[2.8163383E-2,4.7030404E-1,-3.9453927E-2,1.01662E-1,9.207243E-1,-7.681637E-1,3.6240585E-2,3.9834303E-1,-2.8643286E-1,-1.07375786E-1,4.0192762E-1,-2.0281477E-1,5.2884156E-1,5.458478E-1,-3.0302027E-1],"categories":[],"categories_nodes":[],"categories_segments":[],"categories_sizes":[],"default_left":[1,1,1,1,0,0,1,0,0,1,1,0,0,0,0],"id":50,"left_children":[1,3,5,7,-1,-1,9,-1,-1,11,13,-1,-1,-1,-1],"loss_changes":[1.085755E0,7.0546854E-1,1.7865514E0,5.4824334E-1,0E0,0E0,1.610254E0,0E0,0E0,1.4560833E0,1.04046E0,0E0,0E0,0E0,0E0],"parents":[2147483647,0,0,1,1,2,2,3,3,6,6,9,9,10,10],"right_children":[2,4,6,8,-1,-1,10,-1,-1,12,14,-1,-1,-1,-1],"split_conditions":[-1.1110746E0,-1.2046723E0,-8.3414793E-1,-1.4664469E0,9.207243E-2,-7.681637E-2,5.951934E-1,3.9834302E-2,-2.8643286E-2,1.3199464E0,9.643244E-1,-2.0281477E-2,5.2884158E-2,5.458478E-2,-3.0302027E-2],"split_indices":[7,7,7,7,0,0,4,0,0,6,8,0,0,0,0],"split_type":[0,0,0,0,0,0,0,0,0,0,0,0,0,0,0],"sum_hessian":[3.469664E1,3.8124106E0,3.0884228E1,2.7705696E0,1.0418409E0,2.0453615E0,2.8838867E1,1.5552471E0,1.2153226E0,2.12139E1,7.624968E0,1.9039066E1,2.174833E0,6.5196295E0,1.1053387E0],"tree_param":{"num_deleted":"0","num_feature":"11","num_nodes":"15","size_leaf_vector":"0"}},{"base_weights":[3.3148088E-2,-1.3010056E-1,4.1955194E-1,-4.2319113E-1,1.9547746E-1,-1.6084327E-1,5.5997545E-1,5.176575E-1,-5.641183E-1,3.4988567E-1,-6.708267E-1,-9.587643E-2,6.8721735E-1,7.4622415E-2,-7.3065984E-1,4.68398E-1,-3.2270357E-1,9.110989E-2,8.093361E-1],"categories":[],"categories_nodes":[],"categories_segments":[],"categories_sizes":[],"default_left":[1,1,1,1,1,0,1,0,1,1,0,0,1,0,0,0,0,0,0],"id":51,"left_children":[1,3,5,7,9,-1,11,-1,13,15,-1,-1,17,-1,-1,-1,-1,-1,-1],"loss_changes":[2.3042023E0,2.5479293E0,9.7262144E-1,2.1365488E0,1.963333E0,0E0,8.121402E-1,0E0,1.3924928E0,1.0777978E0,0E0,0E0,4.8036504E-1,0E0,0E0,0E0,0E0,0E0,0E0],"parents":[2147483647,0,0,1,1,2,2,3,3,4,4,6,6,8,8,9,9,12,12],"right_children":[2,4,6,8,10,-1,12,-1,14,16,-1,-1,18,-1,-1,-1,-1,-1,-1],"split_conditions":[1.1076235E0,1.1174078E-1,-1.1884353E0,-1.3636398E0,1.4079599E0,-1.6084326E-2,-1.1070395E0,5.176575E-2,-9.159893E-1,1.2122855E0,-6.7082666E-2,-9.587644E-3,-9.5076245E-1,7.4622417E-3,-7.306599E-2,4.68398E-2,-3.2270357E-2,9.110989E-3,8.0933616E-2],"split_indices":[1,7,4,6,3,0,9,0,9,9,0,0,7,0,0,0,0,0,0],"split_type":[0,0,0,0,0,0,0,0,0,0,0,0,0,0,0,0,0,0,0],"sum_hessian":[3.466299E1,2.4834267E1,9.828725E0,1.2911401E1,1.1922866E1,1.8864163E0,7.942308E0,1.3337672E0,1.1577634E1,1.0625174E1,1.2976917E0,1.3305684E0,6.6117396E0,2.508531E0,9.069102E0,9.291561E0,1.3336123E0,1.4210651E0,5.190675E0],"tree_param":{"num_deleted":"0","num_feature":"11","num_nodes":"19","size_leaf_vector":"0"}},{"base_weights":[5.6017805E-2,-4.1804954E-1,1.7802973E-1,-6.669073E-1,1.2248515E-1,4.2235097E-1,-2.0386355E-2,7.7022225E-2,-8.631854E-1,5.4064006E-1,-3.050327E-1,7.30126E-1,1.0090116E-1,-5.2622205E-1,1.8933442E-1,3.2167035E-1,1.0279977E0,5.0302005E-1,-8.906094E-2,-6.559742E-1,-3.3487133E-3,4.132795E-1,-2.3316003E-1],"categories":[],"categories_nodes":[],"categories_segments":[],"categories_sizes":[],"default_left":[1,1,1,1,1,1,1,0,0,0,0,1,1,1,1,0,0,0,0,0,0,0,0],"id":52,"left_children":[1,3,5,7,9,11,13,-1,-1,-1,-1,15,17,19,21,-1,-1,-1,-1,-1,-1,-1,-1],"loss_changes":[2.1483066E0,1.1090835E0,1.4249514E0,8.5279727E-1,7.4638385E-1,1.2262945E0,1.9112241E0,0E0,0E0,0E0,0E0,4.6652102E-1,6.2438244E-1,3.5531604E-1,1.3081288E0,0E0,0E0,0E0,0E0,0E0,0E0,0E0,0E0],"parents":[2147483647,0,0,1,1,2,2,3,3,4,4,5,5,6,6,11,11,12,12,13,13,14,14],"right_children":[2,4,6,8,10,12,14,-1,-1,-1,-1,16,18,20,22,-1,-1,-1,-1,-1,-1,-1,-1],"split_conditions":[-8.597985E-1,6.9347775E-1,-8.221674E-2,-1.2706904E0,8.121697E-1,-1.00734755E-1,1.8815652E-1,7.7022226E-3,-8.6318545E-2,5.4064006E-2,-3.0503271E-2,2.87588E-1,-9.5353085E-1,1.3200476E0,8.2239497E-1,3.2167036E-2,1.0279977E-1,5.0302006E-2,-8.906094E-3,-6.559742E-2,-3.3487132E-4,4.132795E-2,-2.3316003E-2],"split_indices":[1,8,9,8,8,7,9,0,0,0,0,2,8,1,9,0,0,0,0,0,0,0,0],"split_type":[0,0,0,0,0,0,0,0,0,0,0,0,0,0,0,0,0,0,0,0,0,0,0],"sum_hessian":[3.485433E1,6.6377177E0,2.8216608E1,4.3850737E0,2.2526443E0,1.213969E1,1.6076918E1,1.0422695E0,3.3428042E0,1.0050263E0,1.2476178E0,5.5522685E0,6.587422E0,4.2696314E0,1.1807286E1,3.2186294E0,2.3336391E0,1.5847536E0,5.0026684E0,3.2168152E0,1.0528163E0,7.7311606E0,4.0761256E0],"tree_param":{"num_deleted":"0","num_feature":"11","num_nodes":"23","size_leaf_vector":"0"}},{"base_weights":[7.1041584E-2,3.1077284E-1,-1.13533296E-1,-5.2835757E-1,4.3764445E-1,4.837194E-1,-2.0976566E-1,5.854852E-2,6.940295E-1,2.7004894E-2,7.0827E-1,1.3695219E-1,-5.112472E-1,3.779245E-1,-2.7733245E-1,1.0300498E0,2.3070778E-1,7.194536E-1,-2.8660446E-1,-6.0965985E-1,1.6309139E-1],"categories":[],"categories_nodes":[],"categories_segments":[],"categories_sizes":[],"default_left":[1,1,1,0,1,1,1,1,1,0,0,1,1,0,0,0,0,0,0,0,0],"id":53,"left_children":[1,3,5,-1,7,9,11,13,15,-1,-1,17,19,-1,-1,-1,-1,-1,-1,-1,-1],"loss_changes":[1.5768933E0,1.8732027E0,1.2749269E0,0E0,1.3146873E0,3.0245173E-1,1.9809322E0,8.254678E-1,1.0430915E0,0E0,0E0,2.4985986E0,7.623868E-1,0E0,0E0,0E0,0E0,0E0,0E0,0E0,0E0],"parents":[2147483647,0,0,1,1,2,2,4,4,5,5,6,6,7,7,8,8,11,11,12,12],"right_children":[2,4,6,-1,8,10,12,14,16,-1,-1,18,20,-1,-1,-1,-1,-1,-1,-1,-1],"split_conditions":[-6.0468143E-1,-8.873998E-1,-1.3353777E0,-5.283576E-2,-2.2529507E-1,-1.6013248E0,-1.7242932E-1,-8.1767035E-1,7.068024E-2,2.7004895E-3,7.0827E-2,-6.961908E-1,1.4841368E0,3.779245E-2,-2.7733246E-2,1.03004985E-1,2.3070779E-2,7.194536E-2,-2.8660446E-2,-6.0965985E-2,1.630914E-2],"split_indices":[0,9,9,0,2,9,2,2,9,0,0,5,4,0,0,0,0,0,0,0,0],"split_type":[0,0,0,0,0,0,0,0,0,0,0,0,0,0,0,0,0,0,0,0,0],"sum_hessian":[3.3839935E1,1.4423086E1,1.941685E1,1.4786661E0,1.2944421E1,2.135651E0,1.7281197E1,5.718015E0,7.2264056E0,1.0731758E0,1.0624753E0,8.291417E0,8.98978E0,2.8668587E0,2.8511565E0,3.4796405E0,3.7467651E0,3.1966226E0,5.0947948E0,7.928599E0,1.0611814E0],"tree_param":{"num_deleted":"0","num_feature":"11","num_nodes":"21","size_leaf_vector":"0"}},{"base_weights":[7.90666E-2,-2.7638936E-2,4.7910765E-1,4.4396135E-1,-1.2275907E-1,6.578503E-1,-2.8686017E-1,-2.1698058E-1,8.2250756E-1,6.89128E-1,-2.0936155E-1,4.795929E-2,7.6710063E-1,4.821147E-1,-3.0504346E-1,9.008739E-1,2.856846E-1],"categories":[],"categories_nodes":[],"categories_segments":[],"categories_sizes":[],"default_left":[1,1,1,1,1,1,0,0,0,0,1,0,1,0,0,0,0],"id":54,"left_children":[1,3,5,7,9,11,-1,-1,-1,-1,13,-1,15,-1,-1,-1,-1],"loss_changes":[1.4677145E0,1.3035427E0,1.1784892E0,1.4019384E0,1.8285109E0,3.7400126E-1,0E0,0E0,0E0,0E0,1.6298872E0,0E0,7.506275E-2,0E0,0E0,0E0,0E0],"parents":[2147483647,0,0,1,1,2,2,3,3,4,4,5,5,10,10,12,12],"right_children":[2,4,6,8,10,12,-1,-1,-1,-1,14,-1,16,-1,-1,-1,-1],"split_conditions":[1.3220823E0,-1.0486419E0,1.4086559E0,3.2489255E-1,-1.6610594E0,-8.262749E-1,-2.8686017E-2,-2.1698058E-2,8.225076E-2,6.89128E-2,-1.5228175E0,4.795929E-3,3.5017467E-1,4.821147E-2,-3.0504346E-2,9.008739E-2,2.856846E-2],"split_indices":[1,7,7,2,4,9,0,0,0,0,3,0,9,0,0,0,0],"split_type":[0,0,0,0,0,0,0,0,0,0,0,0,0,0,0,0,0],"sum_hessian":[3.3073284E1,2.6843939E1,6.229347E0,3.890027E0,2.295391E1,5.1651773E0,1.06417E0,1.5720434E0,2.3179836E0,1.5418547E0,2.1412056E1,1.0032895E0,4.1618876E0,2.1117911E0,1.9300266E1,2.575048E0,1.5868399E0],"tree_param":{"num_deleted":"0","num_feature":"11","num_nodes":"17","size_leaf_vector":"0"}},{"base_weights":[-3.209167E-2,-1.4614496E-1,3.0764958E-1,9.622414E-2,-3.452767E-1,6.2148696E-1,-4.178295E-1,-4.801132E-1,3.6832672E-1,1.2895052E-1,-4.8562527E-1,8.95056E-1,-4.1472703E-1,-6.5204644E-1,7.075723E-2,1.9045262E-1,-7.45984E-1,5.739889E-1,-3.0813214E-1,-3.1146067E-1,6.583482E-1,-5.296598E-2,-5.5798215E-1,3.1767765E-1,1.0530885E0],"categories":[],"categories_nodes":[],"categories_segments":[],"categories_sizes":[],"default_left":[1,1,1,1,1,1,1,1,1,1,1,1,0,0,0,0,0,0,0,0,0,0,0,0,0],"id":55,"left_children":[1,3,5,7,9,11,13,15,17,19,21,23,-1,-1,-1,-1,-1,-1,-1,-1,-1,-1,-1,-1,-1],"loss_changes":[1.4594187E0,1.3849308E0,2.421873E0,2.2804766E0,1.100432E0,2.3643086E0,4.4272435E-1,9.864538E-1,1.5232805E0,1.2195086E0,3.536842E-1,2.0188951E-1,0E0,0E0,0E0,0E0,0E0,0E0,0E0,0E0,0E0,0E0,0E0,0E0,0E0],"parents":[2147483647,0,0,1,1,2,2,3,3,4,4,5,5,6,6,7,7,8,8,9,9,10,10,11,11],"right_children":[2,4,6,8,10,12,14,16,18,20,22,24,-1,-1,-1,-1,-1,-1,-1,-1,-1,-1,-1,-1,-1],"split_conditions":[5.0768614E-1,-4.5152467E-1,2.614751E-1,-1.3645589E0,-8.743839E-1,1.5263162E0,1.653435E0,-1.4175959E0,1.8991535E0,4.3049085E-1,-1.2663846E0,-2.6878113E-1,-4.1472703E-2,-6.520464E-2,7.0757233E-3,1.9045262E-2,-7.45984E-2,5.7398893E-2,-3.0813215E-2,-3.1146068E-2,6.583482E-2,-5.296598E-3,-5.5798214E-2,3.1767767E-2,1.0530885E-1],"split_indices":[10,5,0,5,10,10,0,3,0,7,3,2,0,0,0,0,0,0,0,0,0,0,0,0,0],"split_type":[0,0,0,0,0,0,0,0,0,0,0,0,0,0,0,0,0,0,0,0,0,0,0,0,0],"sum_hessian":[3.5503433E1,2.7006886E1,8.496548E0,1.2414102E1,1.4592785E1,6.0309443E0,2.4656036E0,3.7361495E0,8.677952E0,3.3510501E0,1.12417345E1,4.879058E0,1.1518867E0,1.440504E0,1.0250995E0,1.1412958E0,2.5948536E0,6.770893E0,1.9070586E0,2.0539873E0,1.2970628E0,1.8588305E0,9.382904E0,1.6953244E0,3.1837332E0],"tree_param":{"num_deleted":"0","num_feature":"11","num_nodes":"25","size_leaf_vector":"0"}},{"base_weights":[4.6857614E-2,1.5369399E-1,-4.9199045E-1,3.5738406E-1,-3.617143E-2,-6.3468885E-1,6.4516075E-2,5.062088E-1,-1.7001334E-1,2.6537254E-1,-4.0227002E-1,-5.961141E-2,-8.3806443E-1,8.154154E-2,7.617675E-1,1.7928044E-1,-5.5309796E-1,4.4903004E-1,-1.0492801E-1,1.0798656E-1,-7.0553976E-1],"categories":[],"categories_nodes":[],"categories_segments":[],"categories_sizes":[],"default_left":[1,1,1,1,1,1,0,1,1,1,1,0,0,0,0,0,0,0,0,0,0],"id":56,"left_children":[1,3,5,7,9,11,-1,13,15,17,19,-1,-1,-1,-1,-1,-1,-1,-1,-1,-1],"loss_changes":[1.9959408E0,1.1189866E0,4.981563E-1,1.176245E0,1.8410876E0,4.9677336E-1,0E0,1.140809E0,6.0835904E-1,6.739633E-1,1.2357132E0,0E0,0E0,0E0,0E0,0E0,0E0,0E0,0E0,0E0,0E0],"parents":[2147483647,0,0,1,1,2,2,3,3,4,4,5,5,7,7,8,8,9,9,10,10],"right_children":[2,4,6,8,10,12,-1,14,16,18,20,-1,-1,-1,-1,-1,-1,-1,-1,-1,-1],"split_conditions":[1.898128E0,-2.9455188E-1,7.887379E-1,1.0718231E0,-6.0468143E-1,-6.440488E-1,6.4516077E-3,-1.0321158E-1,-4.6556327E-1,5.7426214E-1,-6.3523686E-1,-5.961141E-3,-8.380645E-2,8.154154E-3,7.6176755E-2,1.7928045E-2,-5.53098E-2,4.4903006E-2,-1.0492801E-2,1.0798656E-2,-7.055398E-2],"split_indices":[0,4,4,7,0,6,0,6,10,6,3,0,0,0,0,0,0,0,0,0,0],"split_type":[0,0,0,0,0,0,0,0,0,0,0,0,0,0,0,0,0,0,0,0,0],"sum_hessian":[3.2357174E1,2.7599789E1,4.757384E0,1.2889483E1,1.4710305E1,3.6746492E0,1.0827346E0,1.0084065E1,2.8054173E0,8.217194E0,6.4931116E0,1.2978572E0,2.3767922E0,4.2841225E0,5.7999434E0,1.7457047E0,1.0597125E0,5.350769E0,2.8664243E0,2.6605747E0,3.832537E0],"tree_param":{"num_deleted":"0","num_feature":"11","num_nodes":"21","size_leaf_vector":"0"}},{"base_weights":[5.960877E-4,-1.07217856E-1,4.3349943E-1,1.5498E-2,-4.4832525E-1,-9.760132E-2,5.56177E-1,-2.247922E-1,8.050759E-1,-8.177222E-2,-8.3513427E-1,7.945013E-1,6.4286897E-3,2.1772258E-1,-3.932518E-1,4.7161102E-2,9.8666316E-1,-5.6787694E-1,2.2046442E-1],"categories":[],"categories_nodes":[],"categories_segments":[],"categories_sizes":[],"default_left":[1,1,1,1,1,0,1,1,1,1,0,0,0,0,0,0,0,0,0],"id":57,"left_children":[1,3,5,7,9,-1,11,13,15,17,-1,-1,-1,-1,-1,-1,-1,-1,-1],"loss_changes":[1.6824088E0,1.2151649E0,5.225531E-1,4.3917437E0,1.0192126E0,0E0,7.7940094E-1,1.4123267E0,6.96182E-1,8.6664724E-1,0E0,0E0,0E0,0E0,0E0,0E0,0E0,0E0,0E0],"parents":[2147483647,0,0,1,1,2,2,3,3,4,4,6,6,7,7,8,8,9,9],"right_children":[2,4,6,8,10,-1,12,14,16,18,-1,-1,-1,-1,-1,-1,-1,-1,-1],"split_conditions":[1.3220823E0,7.790807E-1,-1.1070395E0,5.108992E-1,1.7422178E-1,-9.760132E-3,1.0250931E0,-8.374752E-1,-4.4196886E-1,-7.686273E-1,-8.351343E-2,7.945013E-2,6.42869E-4,2.1772258E-2,-3.932518E-2,4.7161104E-3,9.866632E-2,-5.6787696E-2,2.2046443E-2],"split_indices":[1,8,9,8,0,0,0,4,9,4,0,0,0,0,0,0,0,0,0],"split_type":[0,0,0,0,0,0,0,0,0,0,0,0,0,0,0,0,0,0,0],"sum_hessian":[3.4050873E1,2.786377E1,6.1871023E0,2.1193735E1,6.670034E0,1.1993287E0,4.987774E0,1.679719E1,4.396545E0,4.0466743E0,2.62336E0,3.168829E0,1.8189449E0,4.550739E0,1.2246451E1,1.093244E0,3.3033009E0,1.214465E0,2.832209E0],"tree_param":{"num_deleted":"0","num_feature":"11","num_nodes":"19","size_leaf_vector":"0"}},{"base_weights":[-5.0510537E-2,-3.2268175E-1,9.642383E-2,-4.3905064E-1,2.7104858E-1,-1.4141177E-1,3.1244653E-1,-6.759957E-1,1.4992402E-1,-4.7212598E-1,1.980616E-1,6.789474E-1,-1.531659E-1,1.2799053E-2,-8.659095E-1,6.308527E-1,-2.7364543E-1,-6.7841125E-1,1.2084236E-1,-4.3625697E-1,4.4999382E-1,8.4556496E-1,-1.1785567E-1,-5.6239057E-1,4.378272E-1],"categories":[],"categories_nodes":[],"categories_segments":[],"categories_sizes":[],"default_left":[1,1,1,1,0,1,1,1,1,1,1,1,1,0,0,0,0,0,0,0,0,0,0,0,0],"id":58,"left_children":[1,3,5,7,-1,9,11,13,15,17,19,21,23,-1,-1,-1,-1,-1,-1,-1,-1,-1,-1,-1,-1],"loss_changes":[1.328475E0,9.207169E-1,1.166147E0,1.5085808E0,0E0,1.337716E0,2.1099648E0,9.7547555E-1,9.2865956E-1,8.0479217E-1,1.18283E0,9.9734354E-1,1.6957294E0,0E0,0E0,0E0,0E0,0E0,0E0,0E0,0E0,0E0,0E0,0E0,0E0],"parents":[2147483647,0,0,1,1,2,2,3,3,5,5,6,6,7,7,8,8,9,9,10,10,11,11,12,12],"right_children":[2,4,6,8,-1,10,12,14,16,18,20,22,24,-1,-1,-1,-1,-1,-1,-1,-1,-1,-1,-1,-1],"split_conditions":[-3.082099E-1,1.639936E0,-2.7507331E-2,5.788459E-1,2.7104858E-2,-2.4249771E-1,-9.548317E-2,-1.0380874E0,1.095856E0,1.7327813E0,3.119098E-1,1.6638167E0,3.5114393E-1,1.2799053E-3,-8.659095E-2,6.308527E-2,-2.7364543E-2,-6.784113E-2,1.2084236E-2,-4.3625697E-2,4.4999383E-2,8.45565E-2,-1.1785567E-2,-5.6239057E-2,4.3782722E-2],"split_indices":[1,3,7,4,0,2,2,4,4,1,1,7,3,0,0,0,0,0,0,0,0,0,0,0,0],"split_type":[0,0,0,0,0,0,0,0,0,0,0,0,0,0,0,0,0,0,0,0,0,0,0,0,0],"sum_hessian":[3.1441074E1,1.0603598E1,2.0837477E1,9.08374E0,1.5198573E0,1.00823965E1,1.0755081E1,6.372377E0,2.7113633E0,4.9091516E0,5.173245E0,5.7616725E0,4.993408E0,1.5788137E0,4.7935634E0,1.040541E0,1.6708223E0,3.5352087E0,1.3739427E0,1.2626023E0,3.9106424E0,4.714614E0,1.0470583E0,2.9790237E0,2.0143845E0],"tree_param":{"num_deleted":"0","num_feature":"11","num_nodes":"25","size_leaf_vector":"0"}},{"base_weights":[1.0415006E-2,-1.22512035E-1,2.8575322E-1,-2.7516705E-1,2.3859619E-1,-4.12652E-1,3.948546E-1,2.4035746E-2,-4.4647145E-1,-2.9755124E-1,5.0056255E-1,-1.3350227E-1,5.351754E-1,3.7203598E-1,-4.3433797E-1,2.3934415E-1,-5.393641E-1,1.9092472E-1,-6.342038E-1,-3.229559E-1,8.0857176E-1,9.676224E-1,2.3143569E-1],"categories":[],"categories_nodes":[],"categories_segments":[],"categories_sizes":[],"default_left":[1,1,1,1,1,0,1,1,1,1,1,0,1,0,0,0,0,0,0,0,0,0,0],"id":59,"left_children":[1,3,5,7,9,-1,11,13,15,17,19,-1,21,-1,-1,-1,-1,-1,-1,-1,-1,-1,-1],"loss_changes":[1.2936944E0,